network unknown {
}
variable Kick_Detection_Failure {
  type discrete [ 2 ] { F, S };
}
variable X1 {
  type discrete [ 2 ] { F, S };
}
variable X10 {
  type discrete [ 2 ] { F, S };
}
variable X11 {
  type discrete [ 2 ] { F, S };
}
variable X12 {
  type discrete [ 2 ] { F, S };
}
variable X13 {
  type discrete [ 2 ] { F, S };
}
variable X14 {
  type discrete [ 2 ] { F, S };
}
variable X15 {
  type discrete [ 2 ] { F, S };
}
variable X16 {
  type discrete [ 2 ] { F, S };
}
variable X17 {
  type discrete [ 2 ] { F, S };
}
variable X18 {
  type discrete [ 2 ] { F, S };
}
variable X19 {
  type discrete [ 2 ] { F, S };
}
variable X2 {
  type discrete [ 2 ] { F, S };
}
variable X20 {
  type discrete [ 2 ] { F, S };
}
variable X21 {
  type discrete [ 2 ] { F, S };
}
variable X22 {
  type discrete [ 2 ] { F, S };
}
variable X23 {
  type discrete [ 2 ] { F, S };
}
variable X24 {
  type discrete [ 2 ] { F, S };
}
variable X25 {
  type discrete [ 2 ] { F, S };
}
variable X26 {
  type discrete [ 2 ] { F, S };
}
variable X27 {
  type discrete [ 2 ] { F, S };
}
variable X3 {
  type discrete [ 2 ] { F, S };
}
variable X4 {
  type discrete [ 2 ] { F, S };
}
variable X5 {
  type discrete [ 2 ] { F, S };
}
variable X6 {
  type discrete [ 2 ] { F, S };
}
variable X7 {
  type discrete [ 2 ] { F, S };
}
variable X8 {
  type discrete [ 2 ] { F, S };
}
variable X9 {
  type discrete [ 2 ] { F, S };
}
probability ( Kick_Detection_Failure | X1, X2, X3, X4, X5 ) {
  (F, F, F, F, F) 1.0, 0.0;
  (S, F, F, F, F) 1.0, 0.0;
  (F, S, F, F, F) 1.0, 0.0;
  (S, S, F, F, F) 1.0, 0.0;
  (F, F, S, F, F) 1.0, 0.0;
  (S, F, S, F, F) 1.0, 0.0;
  (F, S, S, F, F) 1.0, 0.0;
  (S, S, S, F, F) 1.0, 0.0;
  (F, F, F, S, F) 1.0, 0.0;
  (S, F, F, S, F) 1.0, 0.0;
  (F, S, F, S, F) 1.0, 0.0;
  (S, S, F, S, F) 1.0, 0.0;
  (F, F, S, S, F) 1.0, 0.0;
  (S, F, S, S, F) 1.0, 0.0;
  (F, S, S, S, F) 1.0, 0.0;
  (S, S, S, S, F) 1.0, 0.0;
  (F, F, F, F, S) 1.0, 0.0;
  (S, F, F, F, S) 1.0, 0.0;
  (F, S, F, F, S) 1.0, 0.0;
  (S, S, F, F, S) 1.0, 0.0;
  (F, F, S, F, S) 1.0, 0.0;
  (S, F, S, F, S) 1.0, 0.0;
  (F, S, S, F, S) 1.0, 0.0;
  (S, S, S, F, S) 1.0, 0.0;
  (F, F, F, S, S) 1.0, 0.0;
  (S, F, F, S, S) 1.0, 0.0;
  (F, S, F, S, S) 1.0, 0.0;
  (S, S, F, S, S) 1.0, 0.0;
  (F, F, S, S, S) 1.0, 0.0;
  (S, F, S, S, S) 1.0, 0.0;
  (F, S, S, S, S) 1.0, 0.0;
  (S, S, S, S, S) 0.0, 1.0;
}
probability ( X1 | X6, X7 ) {
  (F, F) 1.0, 0.0;
  (S, F) 1.0, 0.0;
  (F, S) 1.0, 0.0;
  (S, S) 0.0, 1.0;
}
probability ( X10 | X22, X23 ) {
  (F, F) 1.0, 0.0;
  (S, F) 0.0, 1.0;
  (F, S) 0.0, 1.0;
  (S, S) 0.0, 1.0;
}
probability ( X11 | X24, X25 ) {
  (F, F) 1.0, 0.0;
  (S, F) 0.0, 1.0;
  (F, S) 0.0, 1.0;
  (S, S) 0.0, 1.0;
}
probability ( X12 ) {
  table 0.04, 0.96;
}
probability ( X13 ) {
  table 0.00002, 0.99998;
}
probability ( X14 ) {
  table 0.14, 0.86;
}
probability ( X15 ) {
  table 0.0061, 0.9939;
}
probability ( X16 ) {
  table 0.00187, 0.99813;
}
probability ( X17 ) {
  table 0.001987, 0.998013;
}
probability ( X18 ) {
  table 0.000851, 0.999149;
}
probability ( X19 ) {
  table 0.001987, 0.998013;
}
probability ( X2 | X8, X9 ) {
  (F, F) 1.0, 0.0;
  (S, F) 1.0, 0.0;
  (F, S) 1.0, 0.0;
  (S, S) 0.0, 1.0;
}
probability ( X20 ) {
  table 0.0003, 0.9997;
}
probability ( X21 ) {
  table 0.0734, 0.9266;
}
probability ( X22 ) {
  table 0.0159, 0.9841;
}
probability ( X23 ) {
  table 0.0159, 0.9841;
}
probability ( X24 ) {
  table 0.0006, 0.9994;
}
probability ( X25 ) {
  table 0.004590719, 0.995409281;
}
probability ( X26 ) {
  table 0.004590719, 0.995409281;
}
probability ( X27 ) {
  table 0.002167504, 0.997832496;
}
probability ( X3 | X20, X21 ) {
  (F, F) 1.0, 0.0;
  (S, F) 0.0, 1.0;
  (F, S) 0.0, 1.0;
  (S, S) 0.0, 1.0;
}
probability ( X4 | X10, X11 ) {
  (F, F) 1.0, 0.0;
  (S, F) 0.0, 1.0;
  (F, S) 0.0, 1.0;
  (S, S) 0.0, 1.0;
}
probability ( X5 | X26, X27 ) {
  (F, F) 1.0, 0.0;
  (S, F) 0.0, 1.0;
  (F, S) 0.0, 1.0;
  (S, S) 0.0, 1.0;
}
probability ( X6 | X12, X13 ) {
  (F, F) 1.0, 0.0;
  (S, F) 0.0, 1.0;
  (F, S) 0.0, 1.0;
  (S, S) 0.0, 1.0;
}
probability ( X7 | X14, X15 ) {
  (F, F) 1.0, 0.0;
  (S, F) 0.0, 1.0;
  (F, S) 0.0, 1.0;
  (S, S) 0.0, 1.0;
}
probability ( X8 | X16, X17 ) {
  (F, F) 1.0, 0.0;
  (S, F) 0.0, 1.0;
  (F, S) 0.0, 1.0;
  (S, S) 0.0, 1.0;
}
probability ( X9 | X18, X19 ) {
  (F, F) 1.0, 0.0;
  (S, F) 0.0, 1.0;
  (F, S) 0.0, 1.0;
  (S, S) 0.0, 1.0;
}
