network unknown {
}
variable ECamera {
  type discrete [ 2 ] { 0, 1 };
}
variable ECameraSeenStealing {
  type discrete [ 2 ] { 0, 1 };
}
variable EObjectGone {
  type discrete [ 2 ] { 0, 1 };
}
variable EPsychReport {
  type discrete [ 2 ] { 0, 1 };
}
variable Motive {
  type discrete [ 2 ] { 0, 1 };
}
variable ObjectDroppedAccidentally {
  type discrete [ 2 ] { 0, 1 };
}
variable Sneak {
  type discrete [ 2 ] { 0, 1 };
}
variable Stealing {
  type discrete [ 2 ] { 0, 1 };
}
probability ( ECamera | ECameraSeenStealing ) {
  (0) 0.841984, 0.158016;
  (1) 0.0, 1.0;
}
probability ( ECameraSeenStealing | Stealing ) {
  (0) 1.0, 0.0;
  (1) 0.885844, 0.114156;
}
probability ( EObjectGone | ObjectDroppedAccidentally, Stealing ) {
  (0, 0) 1.0, 0.0;
  (1, 0) 0.0, 1.0;
  (0, 1) 0.0, 1.0;
  (1, 1) 0.5, 0.5;
}
probability ( EPsychReport | Motive ) {
  (0) 1.0, 0.0;
  (1) 0.104344, 0.895656;
}
probability ( Motive ) {
  table 0.95189, 0.04811;
}
probability ( ObjectDroppedAccidentally | Sneak, Stealing ) {
  (0, 0) 0.663095, 0.336905;
  (1, 0) 0.389873, 0.610127;
  (0, 1) 1.0, 0.0;
  (1, 1) 1.0, 0.0;
}
probability ( Sneak | Motive ) {
  (0) 1.0, 0.0;
  (1) 0.005196428, 0.994803572;
}
probability ( Stealing | Motive ) {
  (0) 1.0, 0.0;
  (1) 0.08231137, 0.91768863;
}
