network unknown {
}
variable ACF {
  type discrete [ 2 ] { yes, no };
}
variable AM {
  type discrete [ 2 ] { yes, no };
}
variable AWE {
  type discrete [ 2 ] { yes, no };
}
variable BEP {
  type discrete [ 2 ] { yes, no };
}
variable BF {
  type discrete [ 2 ] { yes, no };
}
variable BO {
  type discrete [ 2 ] { yes, no };
}
variable CBI {
  type discrete [ 2 ] { yes, no };
}
variable CEF {
  type discrete [ 2 ] { yes, no };
}
variable CI {
  type discrete [ 2 ] { yes, no };
}
variable DTH {
  type discrete [ 2 ] { yes, no };
}
variable EC {
  type discrete [ 2 ] { yes, no };
}
variable ECF {
  type discrete [ 2 ] { yes, no };
}
variable FFE {
  type discrete [ 2 ] { yes, no };
}
variable HF {
  type discrete [ 2 ] { yes, no };
}
variable IS {
  type discrete [ 2 ] { yes, no };
}
variable ISC {
  type discrete [ 2 ] { yes, no };
}
variable MMA {
  type discrete [ 2 ] { yes, no };
}
variable OFE {
  type discrete [ 2 ] { yes, no };
}
variable REI {
  type discrete [ 2 ] { yes, no };
}
variable SBB {
  type discrete [ 2 ] { yes, no };
}
variable SCB {
  type discrete [ 2 ] { yes, no };
}
variable TLD {
  type discrete [ 2 ] { yes, no };
}
variable VFD {
  type discrete [ 2 ] { yes, no };
}
probability ( ACF ) {
  table 0.12, 0.88;
}
probability ( AM ) {
  table 0.35, 0.65;
}
probability ( AWE ) {
  table 0.11, 0.89;
}
probability ( BEP ) {
  table 0.1, 0.9;
}
probability ( BF ) {
  table 0.31, 0.69;
}
probability ( BO ) {
  table 0.19, 0.81;
}
probability ( CBI | CI, IS ) {
  (yes, yes) 0.255, 0.745;
  (no, yes) 0.0271, 0.9729;
  (yes, no) 0.2876, 0.7124;
  (no, no) 0.0, 1.0;
}
probability ( CEF ) {
  table 0.23, 0.77;
}
probability ( CI ) {
  table 0.38, 0.62;
}
probability ( DTH ) {
  table 0.12, 0.88;
}
probability ( EC | ACF, DTH, ECF, TLD ) {
  (yes, yes, yes, yes) 0.0538, 0.9462;
  (no, yes, yes, yes) 0.0443, 0.9557;
  (yes, no, yes, yes) 0.0527, 0.9473;
  (no, no, yes, yes) 0.04312238, 0.95687762;
  (yes, yes, no, yes) 0.0369, 0.9631;
  (no, yes, no, yes) 0.0274, 0.9726;
  (yes, no, no, yes) 0.0389, 0.9611;
  (no, no, no, yes) 0.0686, 0.9314;
  (yes, yes, yes, no) 0.0274, 0.9726;
  (no, yes, yes, no) 0.0179, 0.9821;
  (yes, no, yes, no) 0.0263, 0.9737;
  (no, no, yes, no) 0.0548, 0.9452;
  (yes, yes, no, no) 0.0105, 0.9895;
  (no, yes, no, no) 0.0137, 0.9863;
  (yes, no, no, no) 0.0411, 0.9589;
  (no, no, no, no) 0.0, 1.0;
}
probability ( ECF ) {
  table 0.13, 0.87;
}
probability ( FFE ) {
  table 0.15, 0.85;
}
probability ( HF | AM, MMA ) {
  (yes, yes) 0.0808, 0.9192;
  (no, yes) 0.096, 0.904;
  (yes, no) 0.0274, 0.9726;
  (no, no) 0.0, 1.0;
}
probability ( IS ) {
  table 0.105, 0.895;
}
probability ( ISC | BEP, EC, SCB ) {
  (yes, yes, yes) 0.15, 0.85;
  (no, yes, yes) 0.1495, 0.8505;
  (yes, no, yes) 0.1022, 0.8978;
  (no, no, yes) 0.1967, 0.8033;
  (yes, yes, no) 0.0482, 0.9518;
  (no, yes, no) 0.1066, 0.8934;
  (yes, no, no) 0.0137, 0.9863;
  (no, no, no) 0.0, 1.0;
}
probability ( MMA ) {
  table 0.1, 0.9;
}
probability ( OFE | AWE, FFE ) {
  (yes, yes) 0.0228, 0.9772;
  (no, yes) 0.0137, 0.9863;
  (yes, no) 0.0274, 0.9726;
  (no, no) 1.0, 0.0;
}
probability ( REI | CBI, HF ) {
  (yes, yes) 0.1632, 0.8368;
  (no, yes) 0.0738, 0.9262;
  (yes, no) 0.1967, 0.8033;
  (no, no) 0.0, 1.0;
}
probability ( SBB ) {
  table 0.27, 0.73;
}
probability ( SCB | BF, BO, CEF, SBB ) {
  (yes, yes, yes, yes) 0.1062, 0.8938;
  (no, yes, yes, yes) 0.0371, 0.9629;
  (yes, no, yes, yes) 0.1039, 0.8961;
  (no, no, yes, yes) 0.0348, 0.9652;
  (yes, yes, no, yes) 0.092, 0.908;
  (no, yes, no, yes) 0.0229, 0.9771;
  (yes, no, no, yes) 0.0897, 0.9103;
  (no, no, no, yes) 0.0823, 0.9177;
  (yes, yes, yes, no) 0.0857, 0.9143;
  (no, yes, yes, no) 0.0165, 0.9835;
  (yes, no, yes, no) 0.0834, 0.9166;
  (no, no, yes, no) 0.0684, 0.9316;
  (yes, yes, no, no) 0.0714, 0.9286;
  (no, yes, no, no) 0.0274, 0.9726;
  (yes, no, no, no) 0.1508, 0.8492;
  (no, no, no, no) 0.0, 1.0;
}
probability ( TLD ) {
  table 0.12, 0.88;
}
probability ( VFD | ISC, OFE, REI ) {
  (yes, yes, yes) 0.1708, 0.8292;
  (no, yes, yes) 0.0738, 0.9262;
  (yes, no, yes) 0.1701, 0.8299;
  (no, no, yes) 0.2705, 0.7295;
  (yes, yes, no) 0.0976, 0.9024;
  (no, yes, no) 0.0246, 0.9754;
  (yes, no, no) 0.3115, 0.6885;
  (no, no, no) 0.0, 1.0;
}
