network unknown {
}
variable ClosureDuration {
    type discrete [ 3 ] { Open, Short_close, Long_close };
}
variable ETIBand {
    type discrete [ 4 ] { A, B, C, D };
}
variable ETIPrimaryScore {
    type discrete [ 10 ] { 0_to_0.1, 0.1_to_0.2, 0.2_to_0.3, 0.3_to_0.4, 0.4_to_0.5, 0.5_to_0.6, 0.6_to_0.7, 0.7_to_0.8, 0.8_to_0.9, 0.9_to_1.0 };
}
variable ETIScore {
    type discrete [ 10 ] { 0_to_0.1, 0.1_to_0.2, 0.2_to_0.3, 0.3_to_0.4, 0.4_to_0.5, 0.5_to_0.6, 0.6_to_0.7, 0.7_to_0.8, 0.8_to_0.9, 0.9_to_1.0 };
}
variable ETISecondaryScore {
    type discrete [ 10 ] { 0_to_0.1, 0.1_to_0.2, 0.2_to_0.3, 0.3_to_0.4, 0.4_to_0.5, 0.5_to_0.6, 0.6_to_0.7, 0.7_to_0.8, 0.8_to_0.9, 0.9_to_1.0 };
}
variable EstuaryType {
    type discrete [ 3 ] { Coastal_lake, Tidal_lagoon, Tidal_river };
}
variable Flushing {
    type discrete [ 4 ] { 0_to_3, 3_to_6, 6_to_10, More_than_10 };
}
variable Intertidal {
    type discrete [ 3 ] { 0_to_5, 5_to_40, 40_to_100 };
}
variable Macroalgae {
    type discrete [ 4 ] { 0.8_to_1, 0.6_to_0.8, 0.4_to_0.6, 0_to_0.4 };
}
variable MacroalgaeStandardised {
    type discrete [ 4 ] { 0_to_0.25, 0.25_to_0.50, 0.50_to_0.75, 0.75_to_1 };
}
variable Macrobenthos {
    type discrete [ 4 ] { 0_to_1.2, 1.2_to_3.3, 3.3_to_4.3, 4.3_to_7 };
}
variable MacrobenthosStandardised {
    type discrete [ 4 ] { 0_to_0.25, 0.25_to_0.50, 0.50_to_0.75, 0.75_to_1 };
}
variable Oxygen {
    type discrete [ 4 ] { 7_to_8, 6_to_7, 5_to_6, 4_to_5 };
}
variable OxygenStandardised {
    type discrete [ 4 ] { 0_to_0.25, 0.25_to_0.50, 0.50_to_0.75, 0.75_to_1 };
}
variable Phytoplankton {
    type discrete [ 6 ] { 0_to_5, 5_to_10, 10_to_15, 15_to_25, 25_to_60, 60_to_100 };
}
variable PhytoplanktonStandardised {
    type discrete [ 4 ] { 0_to_0.25, 0.25_to_0.50, 0.50_to_0.75, 0.75_to_1 };
}
variable PotentialTNConcentration {
    type discrete [ 11 ] { 0_to_50, 50_to_100, 100_to_150, 150_to_200, 200_to_300, 300_to_400, 400_to_500, 500_to_600, 600_to_700, 700_to_1000, 1000_to_2000 };
}
variable Salinity {
    type discrete [ 3 ] { 0_to_5, 5_to_30, 30_to_36 };
}
variable SeagrassDecline {
    type discrete [ 4 ] { Extreme, Severe, Moderate, Minor };
}
variable SeagrassStandardised {
    type discrete [ 4 ] { 0_to_0.25, 0.25_to_0.50, 0.50_to_0.75, 0.75_to_1 };
}
variable Seasonality {
    type discrete [ 3 ] { 0.5, 0.5_to_6.5, 0.65 };
}
variable SedARPD {
    type discrete [ 4 ] { 4, 2.5_to_4, 1_to_2.5, 1 };
}
variable SedARPDStandardised {
    type discrete [ 4 ] { 0_to_0.25, 0.25_to_0.50, 0.50_to_0.75, 0.75_to_1 };
}
variable SedDeposition {
    type discrete [ 7 ] { 0_to_0.1, 0.1_to_0.5, 0.5_to_1, 1_to_2, 2_to_5, 5_to_10, More_than_10 };
}
variable SedMud {
    type discrete [ 4 ] { 0_to_12, 12_to_25, 25_to_34, 34_to_100 };
}
variable SedToc {
    type discrete [ 4 ] { 0_to_0.5, 0.5_to_1.2, 1.2_to_2, 2_to_10 };
}
variable SedTocStandardised {
    type discrete [ 4 ] { 0_to_0.25, 0.25_to_0.50, 0.50_to_0.75, 0.75_to_1 };
}
variable SedTrappingEfficiency {
    type discrete [ 5 ] { 0_to_0.1, 0.1_to_0.5, 0.5_to_0.85, 0.85_to_0.95, 0.95_to_1 };
}
variable SedimentLoad {
    type discrete [ 7 ] { 0_to_1, 1_to_5, 5_to_10, 10_to_20, 20_to_50, 50_to_100, More_than_100 };
}
variable WaterColStratification {
    type discrete [ 2 ] { Yes, No };
}
probability ( ClosureDuration ) {
    table 0.3333333333333333, 0.3333333333333333, 0.3333333333333333 ;
}
probability ( ETIBand | ETIScore ) {
    ( 0_to_0.1 ) 1.0, 0.0, 0.0, 0.0;
    ( 0.1_to_0.2 ) 1.0, 0.0, 0.0, 0.0;
    ( 0.2_to_0.3 ) 0.5, 0.5, 0.0, 0.0;
    ( 0.3_to_0.4 ) 0.0, 1.0, 0.0, 0.0;
    ( 0.4_to_0.5 ) 0.0, 1.0, 0.0, 0.0;
    ( 0.5_to_0.6 ) 0.0, 0.0, 1.0, 0.0;
    ( 0.6_to_0.7 ) 0.0, 0.0, 1.0, 0.0;
    ( 0.7_to_0.8 ) 0.0, 0.0, 0.501, 0.499;
    ( 0.8_to_0.9 ) 0.0, 0.0, 0.0, 1.0;
    ( 0.9_to_1.0 ) 0.0, 0.0, 0.0, 1.0;

}
probability ( ETIPrimaryScore | Intertidal, MacroalgaeStandardised, PhytoplanktonStandardised ) {
    ( 0_to_5, 0_to_0.25, 0_to_0.25 ) 0.46, 0.34, 0.2, 0.0, 0.0, 0.0, 0.0, 0.0, 0.0, 0.0;
    ( 0_to_5, 0_to_0.25, 0.25_to_0.50 ) 0.21, 0.33, 0.46, 0.0, 0.0, 0.0, 0.0, 0.0, 0.0, 0.0;
    ( 0_to_5, 0_to_0.25, 0.50_to_0.75 ) 0.44, 0.46, 0.1, 0.0, 0.0, 0.0, 0.0, 0.0, 0.0, 0.0;
    ( 0_to_5, 0_to_0.25, 0.75_to_1 ) 0.39, 0.43, 0.18, 0.0, 0.0, 0.0, 0.0, 0.0, 0.0, 0.0;
    ( 0_to_5, 0.25_to_0.50, 0_to_0.25 ) 0.0, 0.0, 0.3, 0.4, 0.3, 0.0, 0.0, 0.0, 0.0, 0.0;
    ( 0_to_5, 0.25_to_0.50, 0.25_to_0.50 ) 0.0, 0.0, 0.16, 0.44, 0.4, 0.0, 0.0, 0.0, 0.0, 0.0;
    ( 0_to_5, 0.25_to_0.50, 0.50_to_0.75 ) 0.3, 0.49, 0.21, 0.0, 0.0, 0.0, 0.0, 0.0, 0.0, 0.0;
    ( 0_to_5, 0.25_to_0.50, 0.75_to_1 ) 0.0, 0.0, 0.0, 0.0, 0.0, 0.41000000000000003, 0.39, 0.2, 0.0, 0.0;
    ( 0_to_5, 0.50_to_0.75, 0_to_0.25 ) 0.0, 0.0, 0.0, 0.0, 0.0, 0.37, 0.44, 0.19, 0.0, 0.0;
    ( 0_to_5, 0.50_to_0.75, 0.25_to_0.50 ) 0.36, 0.37, 0.27, 0.0, 0.0, 0.0, 0.0, 0.0, 0.0, 0.0;
    ( 0_to_5, 0.50_to_0.75, 0.50_to_0.75 ) 0.0, 0.0, 0.0, 0.0, 0.0, 0.0, 0.0, 0.14, 0.44, 0.42;
    ( 0_to_5, 0.50_to_0.75, 0.75_to_1 ) 0.0, 0.0, 0.0, 0.0, 0.0, 0.0, 0.0, 0.15, 0.35000000000000003, 0.5;
    ( 0_to_5, 0.75_to_1, 0_to_0.25 ) 0.0, 0.0, 0.23, 0.39, 0.38, 0.0, 0.0, 0.0, 0.0, 0.0;
    ( 0_to_5, 0.75_to_1, 0.25_to_0.50 ) 0.0, 0.0, 0.25, 0.41000000000000003, 0.34, 0.0, 0.0, 0.0, 0.0, 0.0;
    ( 0_to_5, 0.75_to_1, 0.50_to_0.75 ) 0.42, 0.41000000000000003, 0.17, 0.0, 0.0, 0.0, 0.0, 0.0, 0.0, 0.0;
    ( 0_to_5, 0.75_to_1, 0.75_to_1 ) 0.0, 0.0, 0.18, 0.39, 0.43, 0.0, 0.0, 0.0, 0.0, 0.0;
    ( 5_to_40, 0_to_0.25, 0_to_0.25 ) 0.0, 0.0, 0.04, 0.32, 0.64, 0.0, 0.0, 0.0, 0.0, 0.0;
    ( 5_to_40, 0_to_0.25, 0.25_to_0.50 ) 0.0, 0.0, 0.17, 0.49, 0.34, 0.0, 0.0, 0.0, 0.0, 0.0;
    ( 5_to_40, 0_to_0.25, 0.50_to_0.75 ) 0.0, 0.0, 0.22, 0.32, 0.46, 0.0, 0.0, 0.0, 0.0, 0.0;
    ( 5_to_40, 0_to_0.25, 0.75_to_1 ) 0.0, 0.0, 0.0, 0.0, 0.0, 0.43, 0.4, 0.17, 0.0, 0.0;
    ( 5_to_40, 0.25_to_0.50, 0_to_0.25 ) 0.0, 0.0, 0.0, 0.0, 0.0, 0.37, 0.46, 0.17, 0.0, 0.0;
    ( 5_to_40, 0.25_to_0.50, 0.25_to_0.50 ) 0.0, 0.0, 0.19, 0.43, 0.38, 0.0, 0.0, 0.0, 0.0, 0.0;
    ( 5_to_40, 0.25_to_0.50, 0.50_to_0.75 ) 0.0, 0.0, 0.0, 0.0, 0.0, 0.0, 0.0, 0.3, 0.37, 0.33;
    ( 5_to_40, 0.25_to_0.50, 0.75_to_1 ) 0.0, 0.0, 0.0, 0.0, 0.0, 0.0, 0.0, 0.16, 0.39, 0.45;
    ( 5_to_40, 0.50_to_0.75, 0_to_0.25 ) 0.0, 0.0, 0.0, 0.0, 0.0, 0.38, 0.41000000000000003, 0.21, 0.0, 0.0;
    ( 5_to_40, 0.50_to_0.75, 0.25_to_0.50 ) 0.0, 0.0, 0.0, 0.0, 0.0, 0.37, 0.38, 0.25, 0.0, 0.0;
    ( 5_to_40, 0.50_to_0.75, 0.50_to_0.75 ) 0.4, 0.39, 0.21, 0.0, 0.0, 0.0, 0.0, 0.0, 0.0, 0.0;
    ( 5_to_40, 0.50_to_0.75, 0.75_to_1 ) 0.0, 0.0, 0.0, 0.0, 0.0, 0.46, 0.37, 0.17, 0.0, 0.0;
    ( 5_to_40, 0.75_to_1, 0_to_0.25 ) 0.0, 0.0, 0.0, 0.0, 0.0, 0.48, 0.37, 0.15, 0.0, 0.0;
    ( 5_to_40, 0.75_to_1, 0.25_to_0.50 ) 0.0, 0.0, 0.17, 0.42, 0.41000000000000003, 0.0, 0.0, 0.0, 0.0, 0.0;
    ( 5_to_40, 0.75_to_1, 0.50_to_0.75 ) 0.0, 0.0, 0.0, 0.0, 0.0, 0.39, 0.43, 0.18, 0.0, 0.0;
    ( 5_to_40, 0.75_to_1, 0.75_to_1 ) 0.0, 0.0, 0.0, 0.0, 0.0, 0.14, 0.54, 0.32, 0.0, 0.0;
    ( 40_to_100, 0_to_0.25, 0_to_0.25 ) 0.0, 0.0, 0.0, 0.0, 0.0, 0.4, 0.44, 0.16, 0.0, 0.0;
    ( 40_to_100, 0_to_0.25, 0.25_to_0.50 ) 0.0, 0.0, 0.0, 0.0, 0.0, 0.39, 0.38, 0.23, 0.0, 0.0;
    ( 40_to_100, 0_to_0.25, 0.50_to_0.75 ) 0.0, 0.0, 0.0, 0.0, 0.0, 0.0, 0.0, 0.19, 0.44, 0.37;
    ( 40_to_100, 0_to_0.25, 0.75_to_1 ) 0.0, 0.0, 0.0, 0.0, 0.0, 0.0, 0.0, 0.22, 0.42, 0.36;
    ( 40_to_100, 0.25_to_0.50, 0_to_0.25 ) 0.0, 0.0, 0.0, 0.0, 0.0, 0.0, 0.0, 0.17, 0.34, 0.49;
    ( 40_to_100, 0.25_to_0.50, 0.25_to_0.50 ) 0.0, 0.0, 0.0, 0.0, 0.0, 0.0, 0.0, 0.21, 0.41000000000000003, 0.38;
    ( 40_to_100, 0.25_to_0.50, 0.50_to_0.75 ) 0.28, 0.5, 0.22, 0.0, 0.0, 0.0, 0.0, 0.0, 0.0, 0.0;
    ( 40_to_100, 0.25_to_0.50, 0.75_to_1 ) 0.0, 0.0, 0.0, 0.0, 0.0, 0.0, 0.0, 0.15, 0.48, 0.37;
    ( 40_to_100, 0.50_to_0.75, 0_to_0.25 ) 0.0, 0.0, 0.0, 0.0, 0.0, 0.0, 0.0, 0.22, 0.33, 0.45;
    ( 40_to_100, 0.50_to_0.75, 0.25_to_0.50 ) 0.0, 0.0, 0.15, 0.41000000000000003, 0.44, 0.0, 0.0, 0.0, 0.0, 0.0;
    ( 40_to_100, 0.50_to_0.75, 0.50_to_0.75 ) 0.0, 0.0, 0.0, 0.0, 0.0, 0.0, 0.0, 0.25, 0.35000000000000003, 0.4;
    ( 40_to_100, 0.50_to_0.75, 0.75_to_1 ) 0.0, 0.0, 0.0, 0.0, 0.0, 0.0, 0.0, 0.25, 0.33, 0.42;
    ( 40_to_100, 0.75_to_1, 0_to_0.25 ) 0.0, 0.0, 0.0, 0.0, 0.0, 0.37, 0.4, 0.23, 0.0, 0.0;
    ( 40_to_100, 0.75_to_1, 0.25_to_0.50 ) 0.0, 0.0, 0.0, 0.0, 0.0, 0.0, 0.0, 0.21, 0.34, 0.45;
    ( 40_to_100, 0.75_to_1, 0.50_to_0.75 ) 0.0, 0.0, 0.0, 0.0, 0.0, 0.0, 0.0, 0.03, 0.4, 0.5700000000000001;
    ( 40_to_100, 0.75_to_1, 0.75_to_1 ) 0.0, 0.0, 0.0, 0.0, 0.0, 0.0, 0.0, 0.18, 0.44, 0.38;

}
probability ( ETIScore | ETIPrimaryScore, ETISecondaryScore ) {
    ( 0_to_0.1, 0_to_0.1 ) 1.0, 0.0, 0.0, 0.0, 0.0, 0.0, 0.0, 0.0, 0.0, 0.0;
    ( 0_to_0.1, 0.1_to_0.2 ) 0.56, 0.44, 0.0, 0.0, 0.0, 0.0, 0.0, 0.0, 0.0, 0.0;
    ( 0_to_0.1, 0.2_to_0.3 ) 0.0, 1.0, 0.0, 0.0, 0.0, 0.0, 0.0, 0.0, 0.0, 0.0;
    ( 0_to_0.1, 0.3_to_0.4 ) 0.0, 0.41000000000000003, 0.59, 0.0, 0.0, 0.0, 0.0, 0.0, 0.0, 0.0;
    ( 0_to_0.1, 0.4_to_0.5 ) 0.0, 0.0, 1.0, 0.0, 0.0, 0.0, 0.0, 0.0, 0.0, 0.0;
    ( 0_to_0.1, 0.5_to_0.6 ) 0.0, 0.0, 0.55, 0.45, 0.0, 0.0, 0.0, 0.0, 0.0, 0.0;
    ( 0_to_0.1, 0.6_to_0.7 ) 0.0, 0.0, 0.0, 1.0, 0.0, 0.0, 0.0, 0.0, 0.0, 0.0;
    ( 0_to_0.1, 0.7_to_0.8 ) 0.0, 0.0, 0.0, 0.46, 0.54, 0.0, 0.0, 0.0, 0.0, 0.0;
    ( 0_to_0.1, 0.8_to_0.9 ) 0.0, 0.0, 0.0, 0.0, 1.0, 0.0, 0.0, 0.0, 0.0, 0.0;
    ( 0_to_0.1, 0.9_to_1.0 ) 0.0, 0.0, 0.0, 0.0, 0.49, 0.51, 0.0, 0.0, 0.0, 0.0;
    ( 0.1_to_0.2, 0_to_0.1 ) 0.46, 0.54, 0.0, 0.0, 0.0, 0.0, 0.0, 0.0, 0.0, 0.0;
    ( 0.1_to_0.2, 0.1_to_0.2 ) 0.0, 1.0, 0.0, 0.0, 0.0, 0.0, 0.0, 0.0, 0.0, 0.0;
    ( 0.1_to_0.2, 0.2_to_0.3 ) 0.0, 0.53, 0.47000000000000003, 0.0, 0.0, 0.0, 0.0, 0.0, 0.0, 0.0;
    ( 0.1_to_0.2, 0.3_to_0.4 ) 0.0, 0.0, 1.0, 0.0, 0.0, 0.0, 0.0, 0.0, 0.0, 0.0;
    ( 0.1_to_0.2, 0.4_to_0.5 ) 0.0, 0.0, 0.6, 0.4, 0.0, 0.0, 0.0, 0.0, 0.0, 0.0;
    ( 0.1_to_0.2, 0.5_to_0.6 ) 0.0, 0.0, 0.0, 1.0, 0.0, 0.0, 0.0, 0.0, 0.0, 0.0;
    ( 0.1_to_0.2, 0.6_to_0.7 ) 0.0, 0.0, 0.0, 0.59, 0.41000000000000003, 0.0, 0.0, 0.0, 0.0, 0.0;
    ( 0.1_to_0.2, 0.7_to_0.8 ) 0.0, 0.0, 0.0, 0.0, 1.0, 0.0, 0.0, 0.0, 0.0, 0.0;
    ( 0.1_to_0.2, 0.8_to_0.9 ) 0.0, 0.0, 0.0, 0.0, 0.52, 0.48, 0.0, 0.0, 0.0, 0.0;
    ( 0.1_to_0.2, 0.9_to_1.0 ) 0.0, 0.0, 0.0, 0.0, 0.0, 1.0, 0.0, 0.0, 0.0, 0.0;
    ( 0.2_to_0.3, 0_to_0.1 ) 0.0, 1.0, 0.0, 0.0, 0.0, 0.0, 0.0, 0.0, 0.0, 0.0;
    ( 0.2_to_0.3, 0.1_to_0.2 ) 0.0, 0.47000000000000003, 0.53, 0.0, 0.0, 0.0, 0.0, 0.0, 0.0, 0.0;
    ( 0.2_to_0.3, 0.2_to_0.3 ) 0.0, 0.0, 1.0, 0.0, 0.0, 0.0, 0.0, 0.0, 0.0, 0.0;
    ( 0.2_to_0.3, 0.3_to_0.4 ) 0.0, 0.0, 0.5700000000000001, 0.43, 0.0, 0.0, 0.0, 0.0, 0.0, 0.0;
    ( 0.2_to_0.3, 0.4_to_0.5 ) 0.0, 0.0, 0.0, 1.0, 0.0, 0.0, 0.0, 0.0, 0.0, 0.0;
    ( 0.2_to_0.3, 0.5_to_0.6 ) 0.0, 0.0, 0.0, 0.53, 0.47000000000000003, 0.0, 0.0, 0.0, 0.0, 0.0;
    ( 0.2_to_0.3, 0.6_to_0.7 ) 0.0, 0.0, 0.0, 0.0, 1.0, 0.0, 0.0, 0.0, 0.0, 0.0;
    ( 0.2_to_0.3, 0.7_to_0.8 ) 0.0, 0.0, 0.0, 0.0, 0.49, 0.51, 0.0, 0.0, 0.0, 0.0;
    ( 0.2_to_0.3, 0.8_to_0.9 ) 0.0, 0.0, 0.0, 0.0, 0.0, 1.0, 0.0, 0.0, 0.0, 0.0;
    ( 0.2_to_0.3, 0.9_to_1.0 ) 0.0, 0.0, 0.0, 0.0, 0.0, 0.46, 0.54, 0.0, 0.0, 0.0;
    ( 0.3_to_0.4, 0_to_0.1 ) 0.0, 0.5, 0.5, 0.0, 0.0, 0.0, 0.0, 0.0, 0.0, 0.0;
    ( 0.3_to_0.4, 0.1_to_0.2 ) 0.0, 0.0, 1.0, 0.0, 0.0, 0.0, 0.0, 0.0, 0.0, 0.0;
    ( 0.3_to_0.4, 0.2_to_0.3 ) 0.0, 0.0, 0.56, 0.44, 0.0, 0.0, 0.0, 0.0, 0.0, 0.0;
    ( 0.3_to_0.4, 0.3_to_0.4 ) 0.0, 0.0, 0.0, 1.0, 0.0, 0.0, 0.0, 0.0, 0.0, 0.0;
    ( 0.3_to_0.4, 0.4_to_0.5 ) 0.0, 0.0, 0.0, 0.5, 0.5, 0.0, 0.0, 0.0, 0.0, 0.0;
    ( 0.3_to_0.4, 0.5_to_0.6 ) 0.0, 0.0, 0.0, 0.0, 1.0, 0.0, 0.0, 0.0, 0.0, 0.0;
    ( 0.3_to_0.4, 0.6_to_0.7 ) 0.0, 0.0, 0.0, 0.0, 0.47000000000000003, 0.53, 0.0, 0.0, 0.0, 0.0;
    ( 0.3_to_0.4, 0.7_to_0.8 ) 0.0, 0.0, 0.0, 0.0, 0.0, 1.0, 0.0, 0.0, 0.0, 0.0;
    ( 0.3_to_0.4, 0.8_to_0.9 ) 0.0, 0.0, 0.0, 0.0, 0.0, 0.49, 0.51, 0.0, 0.0, 0.0;
    ( 0.3_to_0.4, 0.9_to_1.0 ) 0.0, 0.0, 0.0, 0.0, 0.0, 0.0, 1.0, 0.0, 0.0, 0.0;
    ( 0.4_to_0.5, 0_to_0.1 ) 0.0, 0.0, 1.0, 0.0, 0.0, 0.0, 0.0, 0.0, 0.0, 0.0;
    ( 0.4_to_0.5, 0.1_to_0.2 ) 0.0, 0.0, 0.59, 0.41000000000000003, 0.0, 0.0, 0.0, 0.0, 0.0, 0.0;
    ( 0.4_to_0.5, 0.2_to_0.3 ) 0.0, 0.0, 0.0, 1.0, 0.0, 0.0, 0.0, 0.0, 0.0, 0.0;
    ( 0.4_to_0.5, 0.3_to_0.4 ) 0.0, 0.0, 0.0, 0.5, 0.5, 0.0, 0.0, 0.0, 0.0, 0.0;
    ( 0.4_to_0.5, 0.4_to_0.5 ) 0.0, 0.0, 0.0, 0.0, 1.0, 0.0, 0.0, 0.0, 0.0, 0.0;
    ( 0.4_to_0.5, 0.5_to_0.6 ) 0.0, 0.0, 0.0, 0.0, 0.62, 0.38, 0.0, 0.0, 0.0, 0.0;
    ( 0.4_to_0.5, 0.6_to_0.7 ) 0.0, 0.0, 0.0, 0.0, 0.0, 1.0, 0.0, 0.0, 0.0, 0.0;
    ( 0.4_to_0.5, 0.7_to_0.8 ) 0.0, 0.0, 0.0, 0.0, 0.0, 0.59, 0.41000000000000003, 0.0, 0.0, 0.0;
    ( 0.4_to_0.5, 0.8_to_0.9 ) 0.0, 0.0, 0.0, 0.0, 0.0, 0.0, 1.0, 0.0, 0.0, 0.0;
    ( 0.4_to_0.5, 0.9_to_1.0 ) 0.0, 0.0, 0.0, 0.0, 0.0, 0.0, 0.59, 0.41000000000000003, 0.0, 0.0;
    ( 0.5_to_0.6, 0_to_0.1 ) 0.0, 0.0, 0.46, 0.54, 0.0, 0.0, 0.0, 0.0, 0.0, 0.0;
    ( 0.5_to_0.6, 0.1_to_0.2 ) 0.0, 0.0, 0.0, 1.0, 0.0, 0.0, 0.0, 0.0, 0.0, 0.0;
    ( 0.5_to_0.6, 0.2_to_0.3 ) 0.0, 0.0, 0.0, 0.51, 0.49, 0.0, 0.0, 0.0, 0.0, 0.0;
    ( 0.5_to_0.6, 0.3_to_0.4 ) 0.0, 0.0, 0.0, 0.0, 1.0, 0.0, 0.0, 0.0, 0.0, 0.0;
    ( 0.5_to_0.6, 0.4_to_0.5 ) 0.0, 0.0, 0.0, 0.0, 0.52, 0.48, 0.0, 0.0, 0.0, 0.0;
    ( 0.5_to_0.6, 0.5_to_0.6 ) 0.0, 0.0, 0.0, 0.0, 0.0, 1.0, 0.0, 0.0, 0.0, 0.0;
    ( 0.5_to_0.6, 0.6_to_0.7 ) 0.0, 0.0, 0.0, 0.0, 0.0, 0.47000000000000003, 0.53, 0.0, 0.0, 0.0;
    ( 0.5_to_0.6, 0.7_to_0.8 ) 0.0, 0.0, 0.0, 0.0, 0.0, 0.0, 1.0, 0.0, 0.0, 0.0;
    ( 0.5_to_0.6, 0.8_to_0.9 ) 0.0, 0.0, 0.0, 0.0, 0.0, 0.0, 0.51, 0.49, 0.0, 0.0;
    ( 0.5_to_0.6, 0.9_to_1.0 ) 0.0, 0.0, 0.0, 0.0, 0.0, 0.0, 0.0, 1.0, 0.0, 0.0;
    ( 0.6_to_0.7, 0_to_0.1 ) 0.0, 0.0, 0.0, 1.0, 0.0, 0.0, 0.0, 0.0, 0.0, 0.0;
    ( 0.6_to_0.7, 0.1_to_0.2 ) 0.0, 0.0, 0.0, 0.44, 0.56, 0.0, 0.0, 0.0, 0.0, 0.0;
    ( 0.6_to_0.7, 0.2_to_0.3 ) 0.0, 0.0, 0.0, 0.0, 1.0, 0.0, 0.0, 0.0, 0.0, 0.0;
    ( 0.6_to_0.7, 0.3_to_0.4 ) 0.0, 0.0, 0.0, 0.0, 0.56, 0.44, 0.0, 0.0, 0.0, 0.0;
    ( 0.6_to_0.7, 0.4_to_0.5 ) 0.0, 0.0, 0.0, 0.0, 0.0, 1.0, 0.0, 0.0, 0.0, 0.0;
    ( 0.6_to_0.7, 0.5_to_0.6 ) 0.0, 0.0, 0.0, 0.0, 0.0, 0.63, 0.37, 0.0, 0.0, 0.0;
    ( 0.6_to_0.7, 0.6_to_0.7 ) 0.0, 0.0, 0.0, 0.0, 0.0, 0.0, 1.0, 0.0, 0.0, 0.0;
    ( 0.6_to_0.7, 0.7_to_0.8 ) 0.0, 0.0, 0.0, 0.0, 0.0, 0.0, 0.5, 0.5, 0.0, 0.0;
    ( 0.6_to_0.7, 0.8_to_0.9 ) 0.0, 0.0, 0.0, 0.0, 0.0, 0.0, 0.0, 1.0, 0.0, 0.0;
    ( 0.6_to_0.7, 0.9_to_1.0 ) 0.0, 0.0, 0.0, 0.0, 0.0, 0.0, 0.0, 0.51, 0.49, 0.0;
    ( 0.7_to_0.8, 0_to_0.1 ) 0.0, 0.0, 0.0, 0.51, 0.49, 0.0, 0.0, 0.0, 0.0, 0.0;
    ( 0.7_to_0.8, 0.1_to_0.2 ) 0.0, 0.0, 0.0, 0.0, 1.0, 0.0, 0.0, 0.0, 0.0, 0.0;
    ( 0.7_to_0.8, 0.2_to_0.3 ) 0.0, 0.0, 0.0, 0.0, 0.54, 0.46, 0.0, 0.0, 0.0, 0.0;
    ( 0.7_to_0.8, 0.3_to_0.4 ) 0.0, 0.0, 0.0, 0.0, 0.0, 1.0, 0.0, 0.0, 0.0, 0.0;
    ( 0.7_to_0.8, 0.4_to_0.5 ) 0.0, 0.0, 0.0, 0.0, 0.0, 0.56, 0.44, 0.0, 0.0, 0.0;
    ( 0.7_to_0.8, 0.5_to_0.6 ) 0.0, 0.0, 0.0, 0.0, 0.0, 0.0, 1.0, 0.0, 0.0, 0.0;
    ( 0.7_to_0.8, 0.6_to_0.7 ) 0.0, 0.0, 0.0, 0.0, 0.0, 0.0, 0.5, 0.5, 0.0, 0.0;
    ( 0.7_to_0.8, 0.7_to_0.8 ) 0.0, 0.0, 0.0, 0.0, 0.0, 0.0, 0.0, 1.0, 0.0, 0.0;
    ( 0.7_to_0.8, 0.8_to_0.9 ) 0.0, 0.0, 0.0, 0.0, 0.0, 0.0, 0.0, 0.45, 0.55, 0.0;
    ( 0.7_to_0.8, 0.9_to_1.0 ) 0.0, 0.0, 0.0, 0.0, 0.0, 0.0, 0.0, 0.0, 1.0, 0.0;
    ( 0.8_to_0.9, 0_to_0.1 ) 0.0, 0.0, 0.0, 0.0, 1.0, 0.0, 0.0, 0.0, 0.0, 0.0;
    ( 0.8_to_0.9, 0.1_to_0.2 ) 0.0, 0.0, 0.0, 0.0, 0.47000000000000003, 0.53, 0.0, 0.0, 0.0, 0.0;
    ( 0.8_to_0.9, 0.2_to_0.3 ) 0.0, 0.0, 0.0, 0.0, 0.0, 1.0, 0.0, 0.0, 0.0, 0.0;
    ( 0.8_to_0.9, 0.3_to_0.4 ) 0.0, 0.0, 0.0, 0.0, 0.0, 0.46, 0.54, 0.0, 0.0, 0.0;
    ( 0.8_to_0.9, 0.4_to_0.5 ) 0.0, 0.0, 0.0, 0.0, 0.0, 0.0, 1.0, 0.0, 0.0, 0.0;
    ( 0.8_to_0.9, 0.5_to_0.6 ) 0.0, 0.0, 0.0, 0.0, 0.0, 0.0, 0.53, 0.47000000000000003, 0.0, 0.0;
    ( 0.8_to_0.9, 0.6_to_0.7 ) 0.0, 0.0, 0.0, 0.0, 0.0, 0.0, 0.0, 1.0, 0.0, 0.0;
    ( 0.8_to_0.9, 0.7_to_0.8 ) 0.0, 0.0, 0.0, 0.0, 0.0, 0.0, 0.0, 0.47000000000000003, 0.53, 0.0;
    ( 0.8_to_0.9, 0.8_to_0.9 ) 0.0, 0.0, 0.0, 0.0, 0.0, 0.0, 0.0, 0.0, 1.0, 0.0;
    ( 0.8_to_0.9, 0.9_to_1.0 ) 0.0, 0.0, 0.0, 0.0, 0.0, 0.0, 0.0, 0.0, 0.54, 0.46;
    ( 0.9_to_1.0, 0_to_0.1 ) 0.0, 0.0, 0.0, 0.0, 0.48, 0.52, 0.0, 0.0, 0.0, 0.0;
    ( 0.9_to_1.0, 0.1_to_0.2 ) 0.0, 0.0, 0.0, 0.0, 0.0, 1.0, 0.0, 0.0, 0.0, 0.0;
    ( 0.9_to_1.0, 0.2_to_0.3 ) 0.0, 0.0, 0.0, 0.0, 0.0, 0.43, 0.5700000000000001, 0.0, 0.0, 0.0;
    ( 0.9_to_1.0, 0.3_to_0.4 ) 0.0, 0.0, 0.0, 0.0, 0.0, 0.0, 1.0, 0.0, 0.0, 0.0;
    ( 0.9_to_1.0, 0.4_to_0.5 ) 0.0, 0.0, 0.0, 0.0, 0.0, 0.0, 0.49, 0.51, 0.0, 0.0;
    ( 0.9_to_1.0, 0.5_to_0.6 ) 0.0, 0.0, 0.0, 0.0, 0.0, 0.0, 0.0, 1.0, 0.0, 0.0;
    ( 0.9_to_1.0, 0.6_to_0.7 ) 0.0, 0.0, 0.0, 0.0, 0.0, 0.0, 0.0, 0.5700000000000001, 0.43, 0.0;
    ( 0.9_to_1.0, 0.7_to_0.8 ) 0.0, 0.0, 0.0, 0.0, 0.0, 0.0, 0.0, 0.0, 1.0, 0.0;
    ( 0.9_to_1.0, 0.8_to_0.9 ) 0.0, 0.0, 0.0, 0.0, 0.0, 0.0, 0.0, 0.0, 0.46, 0.54;
    ( 0.9_to_1.0, 0.9_to_1.0 ) 0.0, 0.0, 0.0, 0.0, 0.0, 0.0, 0.0, 0.0, 0.0, 1.0;

}
probability ( ETISecondaryScore | EstuaryType, MacrobenthosStandardised, OxygenStandardised, Salinity, SeagrassStandardised, SedARPDStandardised, SedTocStandardised ) {
    ( Coastal_lake, 0_to_0.25, 0_to_0.25, 0_to_5, 0_to_0.25, 0_to_0.25, 0_to_0.25 ) 0.27, 0.72, 0.01, 0.0, 0.0, 0.0, 0.0, 0.0, 0.0, 0.0;
    ( Coastal_lake, 0_to_0.25, 0_to_0.25, 0_to_5, 0_to_0.25, 0_to_0.25, 0.25_to_0.50 ) 0.23, 0.77, 0.0, 0.0, 0.0, 0.0, 0.0, 0.0, 0.0, 0.0;
    ( Coastal_lake, 0_to_0.25, 0_to_0.25, 0_to_5, 0_to_0.25, 0_to_0.25, 0.50_to_0.75 ) 0.3, 0.68, 0.02, 0.0, 0.0, 0.0, 0.0, 0.0, 0.0, 0.0;
    ( Coastal_lake, 0_to_0.25, 0_to_0.25, 0_to_5, 0_to_0.25, 0_to_0.25, 0.75_to_1 ) 0.0, 0.61, 0.39, 0.0, 0.0, 0.0, 0.0, 0.0, 0.0, 0.0;
    ( Coastal_lake, 0_to_0.25, 0_to_0.25, 0_to_5, 0_to_0.25, 0.25_to_0.50, 0_to_0.25 ) 0.0, 0.65, 0.35000000000000003, 0.0, 0.0, 0.0, 0.0, 0.0, 0.0, 0.0;
    ( Coastal_lake, 0_to_0.25, 0_to_0.25, 0_to_5, 0_to_0.25, 0.25_to_0.50, 0.25_to_0.50 ) 0.01, 0.7000000000000001, 0.29, 0.0, 0.0, 0.0, 0.0, 0.0, 0.0, 0.0;
    ( Coastal_lake, 0_to_0.25, 0_to_0.25, 0_to_5, 0_to_0.25, 0.25_to_0.50, 0.50_to_0.75 ) 0.0, 0.08, 0.79, 0.13, 0.0, 0.0, 0.0, 0.0, 0.0, 0.0;
    ( Coastal_lake, 0_to_0.25, 0_to_0.25, 0_to_5, 0_to_0.25, 0.25_to_0.50, 0.75_to_1 ) 0.0, 0.09, 0.76, 0.15, 0.0, 0.0, 0.0, 0.0, 0.0, 0.0;
    ( Coastal_lake, 0_to_0.25, 0_to_0.25, 0_to_5, 0_to_0.25, 0.50_to_0.75, 0_to_0.25 ) 0.0, 0.08, 0.87, 0.05, 0.0, 0.0, 0.0, 0.0, 0.0, 0.0;
    ( Coastal_lake, 0_to_0.25, 0_to_0.25, 0_to_5, 0_to_0.25, 0.50_to_0.75, 0.25_to_0.50 ) 0.0, 0.0, 0.47000000000000003, 0.52, 0.01, 0.0, 0.0, 0.0, 0.0, 0.0;
    ( Coastal_lake, 0_to_0.25, 0_to_0.25, 0_to_5, 0_to_0.25, 0.50_to_0.75, 0.50_to_0.75 ) 0.0, 0.0, 0.33, 0.66, 0.01, 0.0, 0.0, 0.0, 0.0, 0.0;
    ( Coastal_lake, 0_to_0.25, 0_to_0.25, 0_to_5, 0_to_0.25, 0.50_to_0.75, 0.75_to_1 ) 0.0, 0.0, 0.32, 0.68, 0.0, 0.0, 0.0, 0.0, 0.0, 0.0;
    ( Coastal_lake, 0_to_0.25, 0_to_0.25, 0_to_5, 0_to_0.25, 0.75_to_1, 0_to_0.25 ) 0.0, 0.67, 0.33, 0.0, 0.0, 0.0, 0.0, 0.0, 0.0, 0.0;
    ( Coastal_lake, 0_to_0.25, 0_to_0.25, 0_to_5, 0_to_0.25, 0.75_to_1, 0.25_to_0.50 ) 0.2, 0.77, 0.03, 0.0, 0.0, 0.0, 0.0, 0.0, 0.0, 0.0;
    ( Coastal_lake, 0_to_0.25, 0_to_0.25, 0_to_5, 0_to_0.25, 0.75_to_1, 0.50_to_0.75 ) 0.01, 0.54, 0.45, 0.0, 0.0, 0.0, 0.0, 0.0, 0.0, 0.0;
    ( Coastal_lake, 0_to_0.25, 0_to_0.25, 0_to_5, 0_to_0.25, 0.75_to_1, 0.75_to_1 ) 0.0, 0.13, 0.79, 0.08, 0.0, 0.0, 0.0, 0.0, 0.0, 0.0;
    ( Coastal_lake, 0_to_0.25, 0_to_0.25, 0_to_5, 0.25_to_0.50, 0_to_0.25, 0_to_0.25 ) 0.0, 0.68, 0.32, 0.0, 0.0, 0.0, 0.0, 0.0, 0.0, 0.0;
    ( Coastal_lake, 0_to_0.25, 0_to_0.25, 0_to_5, 0.25_to_0.50, 0_to_0.25, 0.25_to_0.50 ) 0.0, 0.1, 0.86, 0.04, 0.0, 0.0, 0.0, 0.0, 0.0, 0.0;
    ( Coastal_lake, 0_to_0.25, 0_to_0.25, 0_to_5, 0.25_to_0.50, 0_to_0.25, 0.50_to_0.75 ) 0.0, 0.0, 0.38, 0.62, 0.0, 0.0, 0.0, 0.0, 0.0, 0.0;
    ( Coastal_lake, 0_to_0.25, 0_to_0.25, 0_to_5, 0.25_to_0.50, 0_to_0.25, 0.75_to_1 ) 0.0, 0.11, 0.81, 0.08, 0.0, 0.0, 0.0, 0.0, 0.0, 0.0;
    ( Coastal_lake, 0_to_0.25, 0_to_0.25, 0_to_5, 0.25_to_0.50, 0.25_to_0.50, 0_to_0.25 ) 0.0, 0.0, 0.32, 0.67, 0.01, 0.0, 0.0, 0.0, 0.0, 0.0;
    ( Coastal_lake, 0_to_0.25, 0_to_0.25, 0_to_5, 0.25_to_0.50, 0.25_to_0.50, 0.25_to_0.50 ) 0.0, 0.0, 0.01, 0.63, 0.36, 0.0, 0.0, 0.0, 0.0, 0.0;
    ( Coastal_lake, 0_to_0.25, 0_to_0.25, 0_to_5, 0.25_to_0.50, 0.25_to_0.50, 0.50_to_0.75 ) 0.0, 0.0, 0.44, 0.55, 0.01, 0.0, 0.0, 0.0, 0.0, 0.0;
    ( Coastal_lake, 0_to_0.25, 0_to_0.25, 0_to_5, 0.25_to_0.50, 0.25_to_0.50, 0.75_to_1 ) 0.0, 0.0, 0.0, 0.73, 0.27, 0.0, 0.0, 0.0, 0.0, 0.0;
    ( Coastal_lake, 0_to_0.25, 0_to_0.25, 0_to_5, 0.25_to_0.50, 0.50_to_0.75, 0_to_0.25 ) 0.0, 0.11, 0.81, 0.08, 0.0, 0.0, 0.0, 0.0, 0.0, 0.0;
    ( Coastal_lake, 0_to_0.25, 0_to_0.25, 0_to_5, 0.25_to_0.50, 0.50_to_0.75, 0.25_to_0.50 ) 0.29, 0.7000000000000001, 0.01, 0.0, 0.0, 0.0, 0.0, 0.0, 0.0, 0.0;
    ( Coastal_lake, 0_to_0.25, 0_to_0.25, 0_to_5, 0.25_to_0.50, 0.50_to_0.75, 0.50_to_0.75 ) 0.0, 0.04, 0.86, 0.1, 0.0, 0.0, 0.0, 0.0, 0.0, 0.0;
    ( Coastal_lake, 0_to_0.25, 0_to_0.25, 0_to_5, 0.25_to_0.50, 0.50_to_0.75, 0.75_to_1 ) 0.0, 0.0, 0.37, 0.62, 0.01, 0.0, 0.0, 0.0, 0.0, 0.0;
    ( Coastal_lake, 0_to_0.25, 0_to_0.25, 0_to_5, 0.25_to_0.50, 0.75_to_1, 0_to_0.25 ) 0.01, 0.59, 0.4, 0.0, 0.0, 0.0, 0.0, 0.0, 0.0, 0.0;
    ( Coastal_lake, 0_to_0.25, 0_to_0.25, 0_to_5, 0.25_to_0.50, 0.75_to_1, 0.25_to_0.50 ) 0.0, 0.0, 0.36, 0.64, 0.0, 0.0, 0.0, 0.0, 0.0, 0.0;
    ( Coastal_lake, 0_to_0.25, 0_to_0.25, 0_to_5, 0.25_to_0.50, 0.75_to_1, 0.50_to_0.75 ) 0.0, 0.0, 0.02, 0.73, 0.25, 0.0, 0.0, 0.0, 0.0, 0.0;
    ( Coastal_lake, 0_to_0.25, 0_to_0.25, 0_to_5, 0.25_to_0.50, 0.75_to_1, 0.75_to_1 ) 0.0, 0.11, 0.76, 0.13, 0.0, 0.0, 0.0, 0.0, 0.0, 0.0;
    ( Coastal_lake, 0_to_0.25, 0_to_0.25, 0_to_5, 0.50_to_0.75, 0_to_0.25, 0_to_0.25 ) 0.0, 0.0, 0.01, 0.68, 0.31, 0.0, 0.0, 0.0, 0.0, 0.0;
    ( Coastal_lake, 0_to_0.25, 0_to_0.25, 0_to_5, 0.50_to_0.75, 0_to_0.25, 0.25_to_0.50 ) 0.0, 0.0, 0.0, 0.16, 0.79, 0.05, 0.0, 0.0, 0.0, 0.0;
    ( Coastal_lake, 0_to_0.25, 0_to_0.25, 0_to_5, 0.50_to_0.75, 0_to_0.25, 0.50_to_0.75 ) 0.0, 0.0, 0.38, 0.61, 0.01, 0.0, 0.0, 0.0, 0.0, 0.0;
    ( Coastal_lake, 0_to_0.25, 0_to_0.25, 0_to_5, 0.50_to_0.75, 0_to_0.25, 0.75_to_1 ) 0.0, 0.0, 0.0, 0.15, 0.8200000000000001, 0.03, 0.0, 0.0, 0.0, 0.0;
    ( Coastal_lake, 0_to_0.25, 0_to_0.25, 0_to_5, 0.50_to_0.75, 0.25_to_0.50, 0_to_0.25 ) 0.0, 0.0, 0.37, 0.63, 0.0, 0.0, 0.0, 0.0, 0.0, 0.0;
    ( Coastal_lake, 0_to_0.25, 0_to_0.25, 0_to_5, 0.50_to_0.75, 0.25_to_0.50, 0.25_to_0.50 ) 0.29, 0.6900000000000001, 0.02, 0.0, 0.0, 0.0, 0.0, 0.0, 0.0, 0.0;
    ( Coastal_lake, 0_to_0.25, 0_to_0.25, 0_to_5, 0.50_to_0.75, 0.25_to_0.50, 0.50_to_0.75 ) 0.0, 0.0, 0.38, 0.61, 0.01, 0.0, 0.0, 0.0, 0.0, 0.0;
    ( Coastal_lake, 0_to_0.25, 0_to_0.25, 0_to_5, 0.50_to_0.75, 0.25_to_0.50, 0.75_to_1 ) 0.0, 0.0, 0.02, 0.76, 0.22, 0.0, 0.0, 0.0, 0.0, 0.0;
    ( Coastal_lake, 0_to_0.25, 0_to_0.25, 0_to_5, 0.50_to_0.75, 0.50_to_0.75, 0_to_0.25 ) 0.01, 0.61, 0.38, 0.0, 0.0, 0.0, 0.0, 0.0, 0.0, 0.0;
    ( Coastal_lake, 0_to_0.25, 0_to_0.25, 0_to_5, 0.50_to_0.75, 0.50_to_0.75, 0.25_to_0.50 ) 0.0, 0.0, 0.02, 0.71, 0.27, 0.0, 0.0, 0.0, 0.0, 0.0;
    ( Coastal_lake, 0_to_0.25, 0_to_0.25, 0_to_5, 0.50_to_0.75, 0.50_to_0.75, 0.50_to_0.75 ) 0.0, 0.0, 0.0, 0.18, 0.73, 0.09, 0.0, 0.0, 0.0, 0.0;
    ( Coastal_lake, 0_to_0.25, 0_to_0.25, 0_to_5, 0.50_to_0.75, 0.50_to_0.75, 0.75_to_1 ) 0.0, 0.05999999999999999, 0.8599999999999999, 0.08, 0.0, 0.0, 0.0, 0.0, 0.0, 0.0;
    ( Coastal_lake, 0_to_0.25, 0_to_0.25, 0_to_5, 0.50_to_0.75, 0.75_to_1, 0_to_0.25 ) 0.0, 0.0, 0.0, 0.18, 0.81, 0.01, 0.0, 0.0, 0.0, 0.0;
    ( Coastal_lake, 0_to_0.25, 0_to_0.25, 0_to_5, 0.50_to_0.75, 0.75_to_1, 0.25_to_0.50 ) 0.0, 0.0, 0.0, 0.0, 0.54, 0.46, 0.0, 0.0, 0.0, 0.0;
    ( Coastal_lake, 0_to_0.25, 0_to_0.25, 0_to_5, 0.50_to_0.75, 0.75_to_1, 0.50_to_0.75 ) 0.0, 0.0, 0.35000000000000003, 0.65, 0.0, 0.0, 0.0, 0.0, 0.0, 0.0;
    ( Coastal_lake, 0_to_0.25, 0_to_0.25, 0_to_5, 0.50_to_0.75, 0.75_to_1, 0.75_to_1 ) 0.0, 0.0, 0.0, 0.0, 0.46, 0.54, 0.0, 0.0, 0.0, 0.0;
    ( Coastal_lake, 0_to_0.25, 0_to_0.25, 0_to_5, 0.75_to_1, 0_to_0.25, 0_to_0.25 ) 0.24, 0.76, 0.0, 0.0, 0.0, 0.0, 0.0, 0.0, 0.0, 0.0;
    ( Coastal_lake, 0_to_0.25, 0_to_0.25, 0_to_5, 0.75_to_1, 0_to_0.25, 0.25_to_0.50 ) 0.17, 0.8200000000000001, 0.01, 0.0, 0.0, 0.0, 0.0, 0.0, 0.0, 0.0;
    ( Coastal_lake, 0_to_0.25, 0_to_0.25, 0_to_5, 0.75_to_1, 0_to_0.25, 0.50_to_0.75 ) 0.23, 0.75, 0.02, 0.0, 0.0, 0.0, 0.0, 0.0, 0.0, 0.0;
    ( Coastal_lake, 0_to_0.25, 0_to_0.25, 0_to_5, 0.75_to_1, 0_to_0.25, 0.75_to_1 ) 0.02, 0.77, 0.21, 0.0, 0.0, 0.0, 0.0, 0.0, 0.0, 0.0;
    ( Coastal_lake, 0_to_0.25, 0_to_0.25, 0_to_5, 0.75_to_1, 0.25_to_0.50, 0_to_0.25 ) 0.0, 0.58, 0.42, 0.0, 0.0, 0.0, 0.0, 0.0, 0.0, 0.0;
    ( Coastal_lake, 0_to_0.25, 0_to_0.25, 0_to_5, 0.75_to_1, 0.25_to_0.50, 0.25_to_0.50 ) 0.02, 0.8, 0.18, 0.0, 0.0, 0.0, 0.0, 0.0, 0.0, 0.0;
    ( Coastal_lake, 0_to_0.25, 0_to_0.25, 0_to_5, 0.75_to_1, 0.25_to_0.50, 0.50_to_0.75 ) 0.0, 0.25, 0.73, 0.02, 0.0, 0.0, 0.0, 0.0, 0.0, 0.0;
    ( Coastal_lake, 0_to_0.25, 0_to_0.25, 0_to_5, 0.75_to_1, 0.25_to_0.50, 0.75_to_1 ) 0.0, 0.04, 0.91, 0.05, 0.0, 0.0, 0.0, 0.0, 0.0, 0.0;
    ( Coastal_lake, 0_to_0.25, 0_to_0.25, 0_to_5, 0.75_to_1, 0.50_to_0.75, 0_to_0.25 ) 0.0, 0.16, 0.8300000000000001, 0.01, 0.0, 0.0, 0.0, 0.0, 0.0, 0.0;
    ( Coastal_lake, 0_to_0.25, 0_to_0.25, 0_to_5, 0.75_to_1, 0.50_to_0.75, 0.25_to_0.50 ) 0.0, 0.0, 0.74, 0.26, 0.0, 0.0, 0.0, 0.0, 0.0, 0.0;
    ( Coastal_lake, 0_to_0.25, 0_to_0.25, 0_to_5, 0.75_to_1, 0.50_to_0.75, 0.50_to_0.75 ) 0.0, 0.0, 0.27, 0.73, 0.0, 0.0, 0.0, 0.0, 0.0, 0.0;
    ( Coastal_lake, 0_to_0.25, 0_to_0.25, 0_to_5, 0.75_to_1, 0.50_to_0.75, 0.75_to_1 ) 0.0, 0.01, 0.79, 0.2, 0.0, 0.0, 0.0, 0.0, 0.0, 0.0;
    ( Coastal_lake, 0_to_0.25, 0_to_0.25, 0_to_5, 0.75_to_1, 0.75_to_1, 0_to_0.25 ) 0.01, 0.71, 0.28, 0.0, 0.0, 0.0, 0.0, 0.0, 0.0, 0.0;
    ( Coastal_lake, 0_to_0.25, 0_to_0.25, 0_to_5, 0.75_to_1, 0.75_to_1, 0.25_to_0.50 ) 0.2, 0.8, 0.0, 0.0, 0.0, 0.0, 0.0, 0.0, 0.0, 0.0;
    ( Coastal_lake, 0_to_0.25, 0_to_0.25, 0_to_5, 0.75_to_1, 0.75_to_1, 0.50_to_0.75 ) 0.01, 0.8200000000000001, 0.17, 0.0, 0.0, 0.0, 0.0, 0.0, 0.0, 0.0;
    ( Coastal_lake, 0_to_0.25, 0_to_0.25, 0_to_5, 0.75_to_1, 0.75_to_1, 0.75_to_1 ) 0.0, 0.23, 0.74, 0.03, 0.0, 0.0, 0.0, 0.0, 0.0, 0.0;
    ( Coastal_lake, 0_to_0.25, 0_to_0.25, 5_to_30, 0_to_0.25, 0_to_0.25, 0_to_0.25 ) 0.02, 0.5700000000000001, 0.41000000000000003, 0.0, 0.0, 0.0, 0.0, 0.0, 0.0, 0.0;
    ( Coastal_lake, 0_to_0.25, 0_to_0.25, 5_to_30, 0_to_0.25, 0_to_0.25, 0.25_to_0.50 ) 0.0, 0.2, 0.79, 0.01, 0.0, 0.0, 0.0, 0.0, 0.0, 0.0;
    ( Coastal_lake, 0_to_0.25, 0_to_0.25, 5_to_30, 0_to_0.25, 0_to_0.25, 0.50_to_0.75 ) 0.0, 0.01, 0.73, 0.26, 0.0, 0.0, 0.0, 0.0, 0.0, 0.0;
    ( Coastal_lake, 0_to_0.25, 0_to_0.25, 5_to_30, 0_to_0.25, 0_to_0.25, 0.75_to_1 ) 0.0, 0.1, 0.8200000000000001, 0.08, 0.0, 0.0, 0.0, 0.0, 0.0, 0.0;
    ( Coastal_lake, 0_to_0.25, 0_to_0.25, 5_to_30, 0_to_0.25, 0.25_to_0.50, 0_to_0.25 ) 0.0, 0.02, 0.72, 0.26, 0.0, 0.0, 0.0, 0.0, 0.0, 0.0;
    ( Coastal_lake, 0_to_0.25, 0_to_0.25, 5_to_30, 0_to_0.25, 0.25_to_0.50, 0.25_to_0.50 ) 0.0, 0.0, 0.21, 0.77, 0.02, 0.0, 0.0, 0.0, 0.0, 0.0;
    ( Coastal_lake, 0_to_0.25, 0_to_0.25, 5_to_30, 0_to_0.25, 0.25_to_0.50, 0.50_to_0.75 ) 0.0, 0.0, 0.4, 0.6, 0.0, 0.0, 0.0, 0.0, 0.0, 0.0;
    ( Coastal_lake, 0_to_0.25, 0_to_0.25, 5_to_30, 0_to_0.25, 0.25_to_0.50, 0.75_to_1 ) 0.0, 0.0, 0.34, 0.65, 0.01, 0.0, 0.0, 0.0, 0.0, 0.0;
    ( Coastal_lake, 0_to_0.25, 0_to_0.25, 5_to_30, 0_to_0.25, 0.50_to_0.75, 0_to_0.25 ) 0.0, 0.2, 0.8, 0.0, 0.0, 0.0, 0.0, 0.0, 0.0, 0.0;
    ( Coastal_lake, 0_to_0.25, 0_to_0.25, 5_to_30, 0_to_0.25, 0.50_to_0.75, 0.25_to_0.50 ) 0.21, 0.77, 0.02, 0.0, 0.0, 0.0, 0.0, 0.0, 0.0, 0.0;
    ( Coastal_lake, 0_to_0.25, 0_to_0.25, 5_to_30, 0_to_0.25, 0.50_to_0.75, 0.50_to_0.75 ) 0.0, 0.21, 0.79, 0.0, 0.0, 0.0, 0.0, 0.0, 0.0, 0.0;
    ( Coastal_lake, 0_to_0.25, 0_to_0.25, 5_to_30, 0_to_0.25, 0.50_to_0.75, 0.75_to_1 ) 0.0, 0.02, 0.75, 0.23, 0.0, 0.0, 0.0, 0.0, 0.0, 0.0;
    ( Coastal_lake, 0_to_0.25, 0_to_0.25, 5_to_30, 0_to_0.25, 0.75_to_1, 0_to_0.25 ) 0.0, 0.63, 0.37, 0.0, 0.0, 0.0, 0.0, 0.0, 0.0, 0.0;
    ( Coastal_lake, 0_to_0.25, 0_to_0.25, 5_to_30, 0_to_0.25, 0.75_to_1, 0.25_to_0.50 ) 0.0, 0.0, 0.75, 0.25, 0.0, 0.0, 0.0, 0.0, 0.0, 0.0;
    ( Coastal_lake, 0_to_0.25, 0_to_0.25, 5_to_30, 0_to_0.25, 0.75_to_1, 0.50_to_0.75 ) 0.0, 0.0, 0.19, 0.81, 0.0, 0.0, 0.0, 0.0, 0.0, 0.0;
    ( Coastal_lake, 0_to_0.25, 0_to_0.25, 5_to_30, 0_to_0.25, 0.75_to_1, 0.75_to_1 ) 0.0, 0.08, 0.86, 0.06, 0.0, 0.0, 0.0, 0.0, 0.0, 0.0;
    ( Coastal_lake, 0_to_0.25, 0_to_0.25, 5_to_30, 0.25_to_0.50, 0_to_0.25, 0_to_0.25 ) 0.0, 0.0, 0.23, 0.74, 0.03, 0.0, 0.0, 0.0, 0.0, 0.0;
    ( Coastal_lake, 0_to_0.25, 0_to_0.25, 5_to_30, 0.25_to_0.50, 0_to_0.25, 0.25_to_0.50 ) 0.0, 0.0, 0.0, 0.8, 0.2, 0.0, 0.0, 0.0, 0.0, 0.0;
    ( Coastal_lake, 0_to_0.25, 0_to_0.25, 5_to_30, 0.25_to_0.50, 0_to_0.25, 0.50_to_0.75 ) 0.0, 0.0, 0.36, 0.64, 0.0, 0.0, 0.0, 0.0, 0.0, 0.0;
    ( Coastal_lake, 0_to_0.25, 0_to_0.25, 5_to_30, 0.25_to_0.50, 0_to_0.25, 0.75_to_1 ) 0.0, 0.0, 0.01, 0.73, 0.26, 0.0, 0.0, 0.0, 0.0, 0.0;
    ( Coastal_lake, 0_to_0.25, 0_to_0.25, 5_to_30, 0.25_to_0.50, 0.25_to_0.50, 0_to_0.25 ) 0.0, 0.0, 0.77, 0.23, 0.0, 0.0, 0.0, 0.0, 0.0, 0.0;
    ( Coastal_lake, 0_to_0.25, 0_to_0.25, 5_to_30, 0.25_to_0.50, 0.25_to_0.50, 0.25_to_0.50 ) 0.24, 0.75, 0.01, 0.0, 0.0, 0.0, 0.0, 0.0, 0.0, 0.0;
    ( Coastal_lake, 0_to_0.25, 0_to_0.25, 5_to_30, 0.25_to_0.50, 0.25_to_0.50, 0.50_to_0.75 ) 0.0, 0.0, 0.7000000000000001, 0.3, 0.0, 0.0, 0.0, 0.0, 0.0, 0.0;
    ( Coastal_lake, 0_to_0.25, 0_to_0.25, 5_to_30, 0.25_to_0.50, 0.25_to_0.50, 0.75_to_1 ) 0.0, 0.0, 0.25, 0.74, 0.01, 0.0, 0.0, 0.0, 0.0, 0.0;
    ( Coastal_lake, 0_to_0.25, 0_to_0.25, 5_to_30, 0.25_to_0.50, 0.50_to_0.75, 0_to_0.25 ) 0.0, 0.61, 0.39, 0.0, 0.0, 0.0, 0.0, 0.0, 0.0, 0.0;
    ( Coastal_lake, 0_to_0.25, 0_to_0.25, 5_to_30, 0.25_to_0.50, 0.50_to_0.75, 0.25_to_0.50 ) 0.0, 0.0, 0.15, 0.8300000000000001, 0.02, 0.0, 0.0, 0.0, 0.0, 0.0;
    ( Coastal_lake, 0_to_0.25, 0_to_0.25, 5_to_30, 0.25_to_0.50, 0.50_to_0.75, 0.50_to_0.75 ) 0.0, 0.0, 0.01, 0.8, 0.19, 0.0, 0.0, 0.0, 0.0, 0.0;
    ( Coastal_lake, 0_to_0.25, 0_to_0.25, 5_to_30, 0.25_to_0.50, 0.50_to_0.75, 0.75_to_1 ) 0.0, 0.06, 0.87, 0.07, 0.0, 0.0, 0.0, 0.0, 0.0, 0.0;
    ( Coastal_lake, 0_to_0.25, 0_to_0.25, 5_to_30, 0.25_to_0.50, 0.75_to_1, 0_to_0.25 ) 0.0, 0.0, 0.01, 0.81, 0.18, 0.0, 0.0, 0.0, 0.0, 0.0;
    ( Coastal_lake, 0_to_0.25, 0_to_0.25, 5_to_30, 0.25_to_0.50, 0.75_to_1, 0.25_to_0.50 ) 0.0, 0.0, 0.0, 0.25, 0.75, 0.0, 0.0, 0.0, 0.0, 0.0;
    ( Coastal_lake, 0_to_0.25, 0_to_0.25, 5_to_30, 0.25_to_0.50, 0.75_to_1, 0.50_to_0.75 ) 0.0, 0.0, 0.36, 0.64, 0.0, 0.0, 0.0, 0.0, 0.0, 0.0;
    ( Coastal_lake, 0_to_0.25, 0_to_0.25, 5_to_30, 0.25_to_0.50, 0.75_to_1, 0.75_to_1 ) 0.0, 0.0, 0.0, 0.25, 0.74, 0.01, 0.0, 0.0, 0.0, 0.0;
    ( Coastal_lake, 0_to_0.25, 0_to_0.25, 5_to_30, 0.50_to_0.75, 0_to_0.25, 0_to_0.25 ) 0.18, 0.8200000000000001, 0.0, 0.0, 0.0, 0.0, 0.0, 0.0, 0.0, 0.0;
    ( Coastal_lake, 0_to_0.25, 0_to_0.25, 5_to_30, 0.50_to_0.75, 0_to_0.25, 0.25_to_0.50 ) 0.26, 0.73, 0.01, 0.0, 0.0, 0.0, 0.0, 0.0, 0.0, 0.0;
    ( Coastal_lake, 0_to_0.25, 0_to_0.25, 5_to_30, 0.50_to_0.75, 0_to_0.25, 0.50_to_0.75 ) 0.2, 0.76, 0.04, 0.0, 0.0, 0.0, 0.0, 0.0, 0.0, 0.0;
    ( Coastal_lake, 0_to_0.25, 0_to_0.25, 5_to_30, 0.50_to_0.75, 0_to_0.25, 0.75_to_1 ) 0.0, 0.8200000000000001, 0.18, 0.0, 0.0, 0.0, 0.0, 0.0, 0.0, 0.0;
    ( Coastal_lake, 0_to_0.25, 0_to_0.25, 5_to_30, 0.50_to_0.75, 0.25_to_0.50, 0_to_0.25 ) 0.0, 0.64, 0.36, 0.0, 0.0, 0.0, 0.0, 0.0, 0.0, 0.0;
    ( Coastal_lake, 0_to_0.25, 0_to_0.25, 5_to_30, 0.50_to_0.75, 0.25_to_0.50, 0.25_to_0.50 ) 0.02, 0.79, 0.19, 0.0, 0.0, 0.0, 0.0, 0.0, 0.0, 0.0;
    ( Coastal_lake, 0_to_0.25, 0_to_0.25, 5_to_30, 0.50_to_0.75, 0.25_to_0.50, 0.50_to_0.75 ) 0.0, 0.17, 0.8200000000000001, 0.01, 0.0, 0.0, 0.0, 0.0, 0.0, 0.0;
    ( Coastal_lake, 0_to_0.25, 0_to_0.25, 5_to_30, 0.50_to_0.75, 0.25_to_0.50, 0.75_to_1 ) 0.0, 0.09, 0.79, 0.12, 0.0, 0.0, 0.0, 0.0, 0.0, 0.0;
    ( Coastal_lake, 0_to_0.25, 0_to_0.25, 5_to_30, 0.50_to_0.75, 0.50_to_0.75, 0_to_0.25 ) 0.0, 0.3, 0.6900000000000001, 0.01, 0.0, 0.0, 0.0, 0.0, 0.0, 0.0;
    ( Coastal_lake, 0_to_0.25, 0_to_0.25, 5_to_30, 0.50_to_0.75, 0.50_to_0.75, 0.25_to_0.50 ) 0.0, 0.0, 0.77, 0.23, 0.0, 0.0, 0.0, 0.0, 0.0, 0.0;
    ( Coastal_lake, 0_to_0.25, 0_to_0.25, 5_to_30, 0.50_to_0.75, 0.50_to_0.75, 0.50_to_0.75 ) 0.0, 0.0, 0.42, 0.58, 0.0, 0.0, 0.0, 0.0, 0.0, 0.0;
    ( Coastal_lake, 0_to_0.25, 0_to_0.25, 5_to_30, 0.50_to_0.75, 0.50_to_0.75, 0.75_to_1 ) 0.0, 0.0, 0.74, 0.26, 0.0, 0.0, 0.0, 0.0, 0.0, 0.0;
    ( Coastal_lake, 0_to_0.25, 0_to_0.25, 5_to_30, 0.50_to_0.75, 0.75_to_1, 0_to_0.25 ) 0.0, 0.79, 0.21, 0.0, 0.0, 0.0, 0.0, 0.0, 0.0, 0.0;
    ( Coastal_lake, 0_to_0.25, 0_to_0.25, 5_to_30, 0.50_to_0.75, 0.75_to_1, 0.25_to_0.50 ) 0.22, 0.75, 0.03, 0.0, 0.0, 0.0, 0.0, 0.0, 0.0, 0.0;
    ( Coastal_lake, 0_to_0.25, 0_to_0.25, 5_to_30, 0.50_to_0.75, 0.75_to_1, 0.50_to_0.75 ) 0.0, 0.8200000000000001, 0.18, 0.0, 0.0, 0.0, 0.0, 0.0, 0.0, 0.0;
    ( Coastal_lake, 0_to_0.25, 0_to_0.25, 5_to_30, 0.50_to_0.75, 0.75_to_1, 0.75_to_1 ) 0.0, 0.21, 0.78, 0.01, 0.0, 0.0, 0.0, 0.0, 0.0, 0.0;
    ( Coastal_lake, 0_to_0.25, 0_to_0.25, 5_to_30, 0.75_to_1, 0_to_0.25, 0_to_0.25 ) 0.0, 0.59, 0.41000000000000003, 0.0, 0.0, 0.0, 0.0, 0.0, 0.0, 0.0;
    ( Coastal_lake, 0_to_0.25, 0_to_0.25, 5_to_30, 0.75_to_1, 0_to_0.25, 0.25_to_0.50 ) 0.0, 0.27, 0.73, 0.0, 0.0, 0.0, 0.0, 0.0, 0.0, 0.0;
    ( Coastal_lake, 0_to_0.25, 0_to_0.25, 5_to_30, 0.75_to_1, 0_to_0.25, 0.50_to_0.75 ) 0.0, 0.0, 0.78, 0.22, 0.0, 0.0, 0.0, 0.0, 0.0, 0.0;
    ( Coastal_lake, 0_to_0.25, 0_to_0.25, 5_to_30, 0.75_to_1, 0_to_0.25, 0.75_to_1 ) 0.0, 0.04, 0.86, 0.1, 0.0, 0.0, 0.0, 0.0, 0.0, 0.0;
    ( Coastal_lake, 0_to_0.25, 0_to_0.25, 5_to_30, 0.75_to_1, 0.25_to_0.50, 0_to_0.25 ) 0.0, 0.01, 0.76, 0.23, 0.0, 0.0, 0.0, 0.0, 0.0, 0.0;
    ( Coastal_lake, 0_to_0.25, 0_to_0.25, 5_to_30, 0.75_to_1, 0.25_to_0.50, 0.25_to_0.50 ) 0.0, 0.0, 0.21, 0.78, 0.01, 0.0, 0.0, 0.0, 0.0, 0.0;
    ( Coastal_lake, 0_to_0.25, 0_to_0.25, 5_to_30, 0.75_to_1, 0.25_to_0.50, 0.50_to_0.75 ) 0.0, 0.0, 0.44, 0.56, 0.0, 0.0, 0.0, 0.0, 0.0, 0.0;
    ( Coastal_lake, 0_to_0.25, 0_to_0.25, 5_to_30, 0.75_to_1, 0.25_to_0.50, 0.75_to_1 ) 0.0, 0.0, 0.23, 0.74, 0.03, 0.0, 0.0, 0.0, 0.0, 0.0;
    ( Coastal_lake, 0_to_0.25, 0_to_0.25, 5_to_30, 0.75_to_1, 0.50_to_0.75, 0_to_0.25 ) 0.0, 0.2, 0.8, 0.0, 0.0, 0.0, 0.0, 0.0, 0.0, 0.0;
    ( Coastal_lake, 0_to_0.25, 0_to_0.25, 5_to_30, 0.75_to_1, 0.50_to_0.75, 0.25_to_0.50 ) 0.25, 0.72, 0.03, 0.0, 0.0, 0.0, 0.0, 0.0, 0.0, 0.0;
    ( Coastal_lake, 0_to_0.25, 0_to_0.25, 5_to_30, 0.75_to_1, 0.50_to_0.75, 0.50_to_0.75 ) 0.0, 0.26, 0.74, 0.0, 0.0, 0.0, 0.0, 0.0, 0.0, 0.0;
    ( Coastal_lake, 0_to_0.25, 0_to_0.25, 5_to_30, 0.75_to_1, 0.50_to_0.75, 0.75_to_1 ) 0.0, 0.02, 0.67, 0.31, 0.0, 0.0, 0.0, 0.0, 0.0, 0.0;
    ( Coastal_lake, 0_to_0.25, 0_to_0.25, 5_to_30, 0.75_to_1, 0.75_to_1, 0_to_0.25 ) 0.0, 0.65, 0.35000000000000003, 0.0, 0.0, 0.0, 0.0, 0.0, 0.0, 0.0;
    ( Coastal_lake, 0_to_0.25, 0_to_0.25, 5_to_30, 0.75_to_1, 0.75_to_1, 0.25_to_0.50 ) 0.0, 0.02, 0.75, 0.23, 0.0, 0.0, 0.0, 0.0, 0.0, 0.0;
    ( Coastal_lake, 0_to_0.25, 0_to_0.25, 5_to_30, 0.75_to_1, 0.75_to_1, 0.50_to_0.75 ) 0.0, 0.0, 0.26, 0.74, 0.0, 0.0, 0.0, 0.0, 0.0, 0.0;
    ( Coastal_lake, 0_to_0.25, 0_to_0.25, 5_to_30, 0.75_to_1, 0.75_to_1, 0.75_to_1 ) 0.0, 0.05, 0.8300000000000001, 0.12, 0.0, 0.0, 0.0, 0.0, 0.0, 0.0;
    ( Coastal_lake, 0_to_0.25, 0_to_0.25, 30_to_36, 0_to_0.25, 0_to_0.25, 0_to_0.25 ) 0.0, 0.0, 0.23, 0.77, 0.0, 0.0, 0.0, 0.0, 0.0, 0.0;
    ( Coastal_lake, 0_to_0.25, 0_to_0.25, 30_to_36, 0_to_0.25, 0_to_0.25, 0.25_to_0.50 ) 0.0, 0.0, 0.02, 0.77, 0.21, 0.0, 0.0, 0.0, 0.0, 0.0;
    ( Coastal_lake, 0_to_0.25, 0_to_0.25, 30_to_36, 0_to_0.25, 0_to_0.25, 0.50_to_0.75 ) 0.0, 0.0, 0.37, 0.63, 0.0, 0.0, 0.0, 0.0, 0.0, 0.0;
    ( Coastal_lake, 0_to_0.25, 0_to_0.25, 30_to_36, 0_to_0.25, 0_to_0.25, 0.75_to_1 ) 0.0, 0.0, 0.01, 0.81, 0.18, 0.0, 0.0, 0.0, 0.0, 0.0;
    ( Coastal_lake, 0_to_0.25, 0_to_0.25, 30_to_36, 0_to_0.25, 0.25_to_0.50, 0_to_0.25 ) 0.0, 0.01, 0.81, 0.18, 0.0, 0.0, 0.0, 0.0, 0.0, 0.0;
    ( Coastal_lake, 0_to_0.25, 0_to_0.25, 30_to_36, 0_to_0.25, 0.25_to_0.50, 0.25_to_0.50 ) 0.3, 0.6900000000000001, 0.01, 0.0, 0.0, 0.0, 0.0, 0.0, 0.0, 0.0;
    ( Coastal_lake, 0_to_0.25, 0_to_0.25, 30_to_36, 0_to_0.25, 0.25_to_0.50, 0.50_to_0.75 ) 0.0, 0.01, 0.76, 0.23, 0.0, 0.0, 0.0, 0.0, 0.0, 0.0;
    ( Coastal_lake, 0_to_0.25, 0_to_0.25, 30_to_36, 0_to_0.25, 0.25_to_0.50, 0.75_to_1 ) 0.0, 0.0, 0.28, 0.72, 0.0, 0.0, 0.0, 0.0, 0.0, 0.0;
    ( Coastal_lake, 0_to_0.25, 0_to_0.25, 30_to_36, 0_to_0.25, 0.50_to_0.75, 0_to_0.25 ) 0.0, 0.56, 0.44, 0.0, 0.0, 0.0, 0.0, 0.0, 0.0, 0.0;
    ( Coastal_lake, 0_to_0.25, 0_to_0.25, 30_to_36, 0_to_0.25, 0.50_to_0.75, 0.25_to_0.50 ) 0.0, 0.0, 0.23, 0.76, 0.01, 0.0, 0.0, 0.0, 0.0, 0.0;
    ( Coastal_lake, 0_to_0.25, 0_to_0.25, 30_to_36, 0_to_0.25, 0.50_to_0.75, 0.50_to_0.75 ) 0.0, 0.0, 0.0, 0.8200000000000001, 0.18, 0.0, 0.0, 0.0, 0.0, 0.0;
    ( Coastal_lake, 0_to_0.25, 0_to_0.25, 30_to_36, 0_to_0.25, 0.50_to_0.75, 0.75_to_1 ) 0.0, 0.05999999999999999, 0.8599999999999999, 0.08, 0.0, 0.0, 0.0, 0.0, 0.0, 0.0;
    ( Coastal_lake, 0_to_0.25, 0_to_0.25, 30_to_36, 0_to_0.25, 0.75_to_1, 0_to_0.25 ) 0.0, 0.0, 0.03, 0.65, 0.32, 0.0, 0.0, 0.0, 0.0, 0.0;
    ( Coastal_lake, 0_to_0.25, 0_to_0.25, 30_to_36, 0_to_0.25, 0.75_to_1, 0.25_to_0.50 ) 0.0, 0.0, 0.0, 0.24, 0.76, 0.0, 0.0, 0.0, 0.0, 0.0;
    ( Coastal_lake, 0_to_0.25, 0_to_0.25, 30_to_36, 0_to_0.25, 0.75_to_1, 0.50_to_0.75 ) 0.0, 0.0, 0.37, 0.61, 0.02, 0.0, 0.0, 0.0, 0.0, 0.0;
    ( Coastal_lake, 0_to_0.25, 0_to_0.25, 30_to_36, 0_to_0.25, 0.75_to_1, 0.75_to_1 ) 0.0, 0.0, 0.0, 0.22, 0.78, 0.0, 0.0, 0.0, 0.0, 0.0;
    ( Coastal_lake, 0_to_0.25, 0_to_0.25, 30_to_36, 0.25_to_0.50, 0_to_0.25, 0_to_0.25 ) 0.25, 0.71, 0.04, 0.0, 0.0, 0.0, 0.0, 0.0, 0.0, 0.0;
    ( Coastal_lake, 0_to_0.25, 0_to_0.25, 30_to_36, 0.25_to_0.50, 0_to_0.25, 0.25_to_0.50 ) 0.0, 0.64, 0.36, 0.0, 0.0, 0.0, 0.0, 0.0, 0.0, 0.0;
    ( Coastal_lake, 0_to_0.25, 0_to_0.25, 30_to_36, 0.25_to_0.50, 0_to_0.25, 0.50_to_0.75 ) 0.29, 0.7000000000000001, 0.01, 0.0, 0.0, 0.0, 0.0, 0.0, 0.0, 0.0;
    ( Coastal_lake, 0_to_0.25, 0_to_0.25, 30_to_36, 0.25_to_0.50, 0_to_0.25, 0.75_to_1 ) 0.0, 0.65, 0.35000000000000003, 0.0, 0.0, 0.0, 0.0, 0.0, 0.0, 0.0;
    ( Coastal_lake, 0_to_0.25, 0_to_0.25, 30_to_36, 0.25_to_0.50, 0.25_to_0.50, 0_to_0.25 ) 0.0, 0.08, 0.8200000000000001, 0.1, 0.0, 0.0, 0.0, 0.0, 0.0, 0.0;
    ( Coastal_lake, 0_to_0.25, 0_to_0.25, 30_to_36, 0.25_to_0.50, 0.25_to_0.50, 0.25_to_0.50 ) 0.0, 0.59, 0.41000000000000003, 0.0, 0.0, 0.0, 0.0, 0.0, 0.0, 0.0;
    ( Coastal_lake, 0_to_0.25, 0_to_0.25, 30_to_36, 0.25_to_0.50, 0.25_to_0.50, 0.50_to_0.75 ) 0.0, 0.09, 0.81, 0.1, 0.0, 0.0, 0.0, 0.0, 0.0, 0.0;
    ( Coastal_lake, 0_to_0.25, 0_to_0.25, 30_to_36, 0.25_to_0.50, 0.25_to_0.50, 0.75_to_1 ) 0.0, 0.0, 0.41000000000000003, 0.58, 0.01, 0.0, 0.0, 0.0, 0.0, 0.0;
    ( Coastal_lake, 0_to_0.25, 0_to_0.25, 30_to_36, 0.25_to_0.50, 0.50_to_0.75, 0_to_0.25 ) 0.0, 0.09, 0.84, 0.07, 0.0, 0.0, 0.0, 0.0, 0.0, 0.0;
    ( Coastal_lake, 0_to_0.25, 0_to_0.25, 30_to_36, 0.25_to_0.50, 0.50_to_0.75, 0.25_to_0.50 ) 0.0, 0.0, 0.32, 0.68, 0.0, 0.0, 0.0, 0.0, 0.0, 0.0;
    ( Coastal_lake, 0_to_0.25, 0_to_0.25, 30_to_36, 0.25_to_0.50, 0.50_to_0.75, 0.50_to_0.75 ) 0.0, 0.0, 0.03, 0.77, 0.2, 0.0, 0.0, 0.0, 0.0, 0.0;
    ( Coastal_lake, 0_to_0.25, 0_to_0.25, 30_to_36, 0.25_to_0.50, 0.50_to_0.75, 0.75_to_1 ) 0.0, 0.0, 0.36, 0.64, 0.0, 0.0, 0.0, 0.0, 0.0, 0.0;
    ( Coastal_lake, 0_to_0.25, 0_to_0.25, 30_to_36, 0.25_to_0.50, 0.75_to_1, 0_to_0.25 ) 0.0, 0.61, 0.39, 0.0, 0.0, 0.0, 0.0, 0.0, 0.0, 0.0;
    ( Coastal_lake, 0_to_0.25, 0_to_0.25, 30_to_36, 0.25_to_0.50, 0.75_to_1, 0.25_to_0.50 ) 0.0, 0.68, 0.32, 0.0, 0.0, 0.0, 0.0, 0.0, 0.0, 0.0;
    ( Coastal_lake, 0_to_0.25, 0_to_0.25, 30_to_36, 0.25_to_0.50, 0.75_to_1, 0.50_to_0.75 ) 0.01, 0.73, 0.26, 0.0, 0.0, 0.0, 0.0, 0.0, 0.0, 0.0;
    ( Coastal_lake, 0_to_0.25, 0_to_0.25, 30_to_36, 0.25_to_0.50, 0.75_to_1, 0.75_to_1 ) 0.0, 0.11, 0.79, 0.1, 0.0, 0.0, 0.0, 0.0, 0.0, 0.0;
    ( Coastal_lake, 0_to_0.25, 0_to_0.25, 30_to_36, 0.50_to_0.75, 0_to_0.25, 0_to_0.25 ) 0.0, 0.1, 0.79, 0.11, 0.0, 0.0, 0.0, 0.0, 0.0, 0.0;
    ( Coastal_lake, 0_to_0.25, 0_to_0.25, 30_to_36, 0.50_to_0.75, 0_to_0.25, 0.25_to_0.50 ) 0.0, 0.06, 0.81, 0.13, 0.0, 0.0, 0.0, 0.0, 0.0, 0.0;
    ( Coastal_lake, 0_to_0.25, 0_to_0.25, 30_to_36, 0.50_to_0.75, 0_to_0.25, 0.50_to_0.75 ) 0.0, 0.0, 0.33, 0.64, 0.03, 0.0, 0.0, 0.0, 0.0, 0.0;
    ( Coastal_lake, 0_to_0.25, 0_to_0.25, 30_to_36, 0.50_to_0.75, 0_to_0.25, 0.75_to_1 ) 0.0, 0.0, 0.33, 0.67, 0.0, 0.0, 0.0, 0.0, 0.0, 0.0;
    ( Coastal_lake, 0_to_0.25, 0_to_0.25, 30_to_36, 0.50_to_0.75, 0.25_to_0.50, 0_to_0.25 ) 0.0, 0.0, 0.32, 0.67, 0.01, 0.0, 0.0, 0.0, 0.0, 0.0;
    ( Coastal_lake, 0_to_0.25, 0_to_0.25, 30_to_36, 0.50_to_0.75, 0.25_to_0.50, 0.25_to_0.50 ) 0.0, 0.0, 0.02, 0.76, 0.22, 0.0, 0.0, 0.0, 0.0, 0.0;
    ( Coastal_lake, 0_to_0.25, 0_to_0.25, 30_to_36, 0.50_to_0.75, 0.25_to_0.50, 0.50_to_0.75 ) 0.0, 0.0, 0.01, 0.79, 0.2, 0.0, 0.0, 0.0, 0.0, 0.0;
    ( Coastal_lake, 0_to_0.25, 0_to_0.25, 30_to_36, 0.50_to_0.75, 0.25_to_0.50, 0.75_to_1 ) 0.0, 0.0, 0.03, 0.7000000000000001, 0.27, 0.0, 0.0, 0.0, 0.0, 0.0;
    ( Coastal_lake, 0_to_0.25, 0_to_0.25, 30_to_36, 0.50_to_0.75, 0.50_to_0.75, 0_to_0.25 ) 0.0, 0.15, 0.76, 0.09, 0.0, 0.0, 0.0, 0.0, 0.0, 0.0;
    ( Coastal_lake, 0_to_0.25, 0_to_0.25, 30_to_36, 0.50_to_0.75, 0.50_to_0.75, 0.25_to_0.50 ) 0.01, 0.59, 0.4, 0.0, 0.0, 0.0, 0.0, 0.0, 0.0, 0.0;
    ( Coastal_lake, 0_to_0.25, 0_to_0.25, 30_to_36, 0.50_to_0.75, 0.50_to_0.75, 0.50_to_0.75 ) 0.0, 0.07, 0.88, 0.05, 0.0, 0.0, 0.0, 0.0, 0.0, 0.0;
    ( Coastal_lake, 0_to_0.25, 0_to_0.25, 30_to_36, 0.50_to_0.75, 0.50_to_0.75, 0.75_to_1 ) 0.0, 0.0, 0.3, 0.67, 0.03, 0.0, 0.0, 0.0, 0.0, 0.0;
    ( Coastal_lake, 0_to_0.25, 0_to_0.25, 30_to_36, 0.50_to_0.75, 0.75_to_1, 0_to_0.25 ) 0.0, 0.08, 0.8300000000000001, 0.09, 0.0, 0.0, 0.0, 0.0, 0.0, 0.0;
    ( Coastal_lake, 0_to_0.25, 0_to_0.25, 30_to_36, 0.50_to_0.75, 0.75_to_1, 0.25_to_0.50 ) 0.0, 0.0, 0.33, 0.67, 0.0, 0.0, 0.0, 0.0, 0.0, 0.0;
    ( Coastal_lake, 0_to_0.25, 0_to_0.25, 30_to_36, 0.50_to_0.75, 0.75_to_1, 0.50_to_0.75 ) 0.0, 0.0, 0.04, 0.6900000000000001, 0.27, 0.0, 0.0, 0.0, 0.0, 0.0;
    ( Coastal_lake, 0_to_0.25, 0_to_0.25, 30_to_36, 0.50_to_0.75, 0.75_to_1, 0.75_to_1 ) 0.0, 0.0, 0.39, 0.61, 0.0, 0.0, 0.0, 0.0, 0.0, 0.0;
    ( Coastal_lake, 0_to_0.25, 0_to_0.25, 30_to_36, 0.75_to_1, 0_to_0.25, 0_to_0.25 ) 0.0, 0.0, 0.04, 0.72, 0.24, 0.0, 0.0, 0.0, 0.0, 0.0;
    ( Coastal_lake, 0_to_0.25, 0_to_0.25, 30_to_36, 0.75_to_1, 0_to_0.25, 0.25_to_0.50 ) 0.0, 0.0, 0.0, 0.15, 0.8, 0.05, 0.0, 0.0, 0.0, 0.0;
    ( Coastal_lake, 0_to_0.25, 0_to_0.25, 30_to_36, 0.75_to_1, 0_to_0.25, 0.50_to_0.75 ) 0.0, 0.0, 0.01, 0.74, 0.25, 0.0, 0.0, 0.0, 0.0, 0.0;
    ( Coastal_lake, 0_to_0.25, 0_to_0.25, 30_to_36, 0.75_to_1, 0_to_0.25, 0.75_to_1 ) 0.0, 0.0, 0.0, 0.17, 0.75, 0.08, 0.0, 0.0, 0.0, 0.0;
    ( Coastal_lake, 0_to_0.25, 0_to_0.25, 30_to_36, 0.75_to_1, 0.25_to_0.50, 0_to_0.25 ) 0.0, 0.0, 0.4, 0.6, 0.0, 0.0, 0.0, 0.0, 0.0, 0.0;
    ( Coastal_lake, 0_to_0.25, 0_to_0.25, 30_to_36, 0.75_to_1, 0.25_to_0.50, 0.25_to_0.50 ) 0.01, 0.65, 0.34, 0.0, 0.0, 0.0, 0.0, 0.0, 0.0, 0.0;
    ( Coastal_lake, 0_to_0.25, 0_to_0.25, 30_to_36, 0.75_to_1, 0.25_to_0.50, 0.50_to_0.75 ) 0.0, 0.0, 0.39, 0.59, 0.02, 0.0, 0.0, 0.0, 0.0, 0.0;
    ( Coastal_lake, 0_to_0.25, 0_to_0.25, 30_to_36, 0.75_to_1, 0.25_to_0.50, 0.75_to_1 ) 0.0, 0.0, 0.03, 0.75, 0.22, 0.0, 0.0, 0.0, 0.0, 0.0;
    ( Coastal_lake, 0_to_0.25, 0_to_0.25, 30_to_36, 0.75_to_1, 0.50_to_0.75, 0_to_0.25 ) 0.0, 0.09, 0.84, 0.07, 0.0, 0.0, 0.0, 0.0, 0.0, 0.0;
    ( Coastal_lake, 0_to_0.25, 0_to_0.25, 30_to_36, 0.75_to_1, 0.50_to_0.75, 0.25_to_0.50 ) 0.0, 0.0, 0.03, 0.72, 0.25, 0.0, 0.0, 0.0, 0.0, 0.0;
    ( Coastal_lake, 0_to_0.25, 0_to_0.25, 30_to_36, 0.75_to_1, 0.50_to_0.75, 0.50_to_0.75 ) 0.0, 0.0, 0.0, 0.12, 0.8300000000000001, 0.05, 0.0, 0.0, 0.0, 0.0;
    ( Coastal_lake, 0_to_0.25, 0_to_0.25, 30_to_36, 0.75_to_1, 0.50_to_0.75, 0.75_to_1 ) 0.0, 0.0, 0.37, 0.63, 0.0, 0.0, 0.0, 0.0, 0.0, 0.0;
    ( Coastal_lake, 0_to_0.25, 0_to_0.25, 30_to_36, 0.75_to_1, 0.75_to_1, 0_to_0.25 ) 0.0, 0.0, 0.0, 0.2, 0.75, 0.05, 0.0, 0.0, 0.0, 0.0;
    ( Coastal_lake, 0_to_0.25, 0_to_0.25, 30_to_36, 0.75_to_1, 0.75_to_1, 0.25_to_0.50 ) 0.0, 0.0, 0.0, 0.0, 0.47000000000000003, 0.53, 0.0, 0.0, 0.0, 0.0;
    ( Coastal_lake, 0_to_0.25, 0_to_0.25, 30_to_36, 0.75_to_1, 0.75_to_1, 0.50_to_0.75 ) 0.0, 0.0, 0.01, 0.72, 0.27, 0.0, 0.0, 0.0, 0.0, 0.0;
    ( Coastal_lake, 0_to_0.25, 0_to_0.25, 30_to_36, 0.75_to_1, 0.75_to_1, 0.75_to_1 ) 0.0, 0.0, 0.0, 0.0, 0.56, 0.44, 0.0, 0.0, 0.0, 0.0;
    ( Coastal_lake, 0_to_0.25, 0.25_to_0.50, 0_to_5, 0_to_0.25, 0_to_0.25, 0_to_0.25 ) 0.0, 0.79, 0.21, 0.0, 0.0, 0.0, 0.0, 0.0, 0.0, 0.0;
    ( Coastal_lake, 0_to_0.25, 0.25_to_0.50, 0_to_5, 0_to_0.25, 0_to_0.25, 0.25_to_0.50 ) 0.01, 0.63, 0.36, 0.0, 0.0, 0.0, 0.0, 0.0, 0.0, 0.0;
    ( Coastal_lake, 0_to_0.25, 0.25_to_0.50, 0_to_5, 0_to_0.25, 0_to_0.25, 0.50_to_0.75 ) 0.0, 0.78, 0.22, 0.0, 0.0, 0.0, 0.0, 0.0, 0.0, 0.0;
    ( Coastal_lake, 0_to_0.25, 0.25_to_0.50, 0_to_5, 0_to_0.25, 0_to_0.25, 0.75_to_1 ) 0.0, 0.2, 0.78, 0.02, 0.0, 0.0, 0.0, 0.0, 0.0, 0.0;
    ( Coastal_lake, 0_to_0.25, 0.25_to_0.50, 0_to_5, 0_to_0.25, 0.25_to_0.50, 0_to_0.25 ) 0.0, 0.08, 0.8300000000000001, 0.09, 0.0, 0.0, 0.0, 0.0, 0.0, 0.0;
    ( Coastal_lake, 0_to_0.25, 0.25_to_0.50, 0_to_5, 0_to_0.25, 0.25_to_0.50, 0.25_to_0.50 ) 0.0, 0.23, 0.77, 0.0, 0.0, 0.0, 0.0, 0.0, 0.0, 0.0;
    ( Coastal_lake, 0_to_0.25, 0.25_to_0.50, 0_to_5, 0_to_0.25, 0.25_to_0.50, 0.50_to_0.75 ) 0.0, 0.02, 0.75, 0.23, 0.0, 0.0, 0.0, 0.0, 0.0, 0.0;
    ( Coastal_lake, 0_to_0.25, 0.25_to_0.50, 0_to_5, 0_to_0.25, 0.25_to_0.50, 0.75_to_1 ) 0.0, 0.0, 0.41000000000000003, 0.59, 0.0, 0.0, 0.0, 0.0, 0.0, 0.0;
    ( Coastal_lake, 0_to_0.25, 0.25_to_0.50, 0_to_5, 0_to_0.25, 0.50_to_0.75, 0_to_0.25 ) 0.0, 0.01, 0.74, 0.25, 0.0, 0.0, 0.0, 0.0, 0.0, 0.0;
    ( Coastal_lake, 0_to_0.25, 0.25_to_0.50, 0_to_5, 0_to_0.25, 0.50_to_0.75, 0.25_to_0.50 ) 0.0, 0.0, 0.12, 0.87, 0.01, 0.0, 0.0, 0.0, 0.0, 0.0;
    ( Coastal_lake, 0_to_0.25, 0.25_to_0.50, 0_to_5, 0_to_0.25, 0.50_to_0.75, 0.50_to_0.75 ) 0.0, 0.0, 0.04, 0.72, 0.24, 0.0, 0.0, 0.0, 0.0, 0.0;
    ( Coastal_lake, 0_to_0.25, 0.25_to_0.50, 0_to_5, 0_to_0.25, 0.50_to_0.75, 0.75_to_1 ) 0.0, 0.0, 0.24, 0.76, 0.0, 0.0, 0.0, 0.0, 0.0, 0.0;
    ( Coastal_lake, 0_to_0.25, 0.25_to_0.50, 0_to_5, 0_to_0.25, 0.75_to_1, 0_to_0.25 ) 0.0, 0.18, 0.81, 0.01, 0.0, 0.0, 0.0, 0.0, 0.0, 0.0;
    ( Coastal_lake, 0_to_0.25, 0.25_to_0.50, 0_to_5, 0_to_0.25, 0.75_to_1, 0.25_to_0.50 ) 0.0, 0.72, 0.28, 0.0, 0.0, 0.0, 0.0, 0.0, 0.0, 0.0;
    ( Coastal_lake, 0_to_0.25, 0.25_to_0.50, 0_to_5, 0_to_0.25, 0.75_to_1, 0.50_to_0.75 ) 0.0, 0.28, 0.72, 0.0, 0.0, 0.0, 0.0, 0.0, 0.0, 0.0;
    ( Coastal_lake, 0_to_0.25, 0.25_to_0.50, 0_to_5, 0_to_0.25, 0.75_to_1, 0.75_to_1 ) 0.0, 0.0, 0.79, 0.21, 0.0, 0.0, 0.0, 0.0, 0.0, 0.0;
    ( Coastal_lake, 0_to_0.25, 0.25_to_0.50, 0_to_5, 0.25_to_0.50, 0_to_0.25, 0_to_0.25 ) 0.0, 0.1, 0.79, 0.11, 0.0, 0.0, 0.0, 0.0, 0.0, 0.0;
    ( Coastal_lake, 0_to_0.25, 0.25_to_0.50, 0_to_5, 0.25_to_0.50, 0_to_0.25, 0.25_to_0.50 ) 0.0, 0.0, 0.77, 0.23, 0.0, 0.0, 0.0, 0.0, 0.0, 0.0;
    ( Coastal_lake, 0_to_0.25, 0.25_to_0.50, 0_to_5, 0.25_to_0.50, 0_to_0.25, 0.50_to_0.75 ) 0.0, 0.0, 0.21, 0.78, 0.01, 0.0, 0.0, 0.0, 0.0, 0.0;
    ( Coastal_lake, 0_to_0.25, 0.25_to_0.50, 0_to_5, 0.25_to_0.50, 0_to_0.25, 0.75_to_1 ) 0.0, 0.0, 0.39, 0.61, 0.0, 0.0, 0.0, 0.0, 0.0, 0.0;
    ( Coastal_lake, 0_to_0.25, 0.25_to_0.50, 0_to_5, 0.25_to_0.50, 0.25_to_0.50, 0_to_0.25 ) 0.0, 0.0, 0.22, 0.78, 0.0, 0.0, 0.0, 0.0, 0.0, 0.0;
    ( Coastal_lake, 0_to_0.25, 0.25_to_0.50, 0_to_5, 0.25_to_0.50, 0.25_to_0.50, 0.25_to_0.50 ) 0.0, 0.0, 0.02, 0.73, 0.25, 0.0, 0.0, 0.0, 0.0, 0.0;
    ( Coastal_lake, 0_to_0.25, 0.25_to_0.50, 0_to_5, 0.25_to_0.50, 0.25_to_0.50, 0.50_to_0.75 ) 0.0, 0.0, 0.03, 0.75, 0.22, 0.0, 0.0, 0.0, 0.0, 0.0;
    ( Coastal_lake, 0_to_0.25, 0.25_to_0.50, 0_to_5, 0.25_to_0.50, 0.25_to_0.50, 0.75_to_1 ) 0.0, 0.0, 0.0, 0.76, 0.24, 0.0, 0.0, 0.0, 0.0, 0.0;
    ( Coastal_lake, 0_to_0.25, 0.25_to_0.50, 0_to_5, 0.25_to_0.50, 0.50_to_0.75, 0_to_0.25 ) 0.0, 0.01, 0.81, 0.18, 0.0, 0.0, 0.0, 0.0, 0.0, 0.0;
    ( Coastal_lake, 0_to_0.25, 0.25_to_0.50, 0_to_5, 0.25_to_0.50, 0.50_to_0.75, 0.25_to_0.50 ) 0.02, 0.62, 0.36, 0.0, 0.0, 0.0, 0.0, 0.0, 0.0, 0.0;
    ( Coastal_lake, 0_to_0.25, 0.25_to_0.50, 0_to_5, 0.25_to_0.50, 0.50_to_0.75, 0.50_to_0.75 ) 0.0, 0.0, 0.8200000000000001, 0.18, 0.0, 0.0, 0.0, 0.0, 0.0, 0.0;
    ( Coastal_lake, 0_to_0.25, 0.25_to_0.50, 0_to_5, 0.25_to_0.50, 0.50_to_0.75, 0.75_to_1 ) 0.0, 0.0, 0.24, 0.75, 0.01, 0.0, 0.0, 0.0, 0.0, 0.0;
    ( Coastal_lake, 0_to_0.25, 0.25_to_0.50, 0_to_5, 0.25_to_0.50, 0.75_to_1, 0_to_0.25 ) 0.0, 0.1, 0.85, 0.05, 0.0, 0.0, 0.0, 0.0, 0.0, 0.0;
    ( Coastal_lake, 0_to_0.25, 0.25_to_0.50, 0_to_5, 0.25_to_0.50, 0.75_to_1, 0.25_to_0.50 ) 0.0, 0.0, 0.21, 0.77, 0.02, 0.0, 0.0, 0.0, 0.0, 0.0;
    ( Coastal_lake, 0_to_0.25, 0.25_to_0.50, 0_to_5, 0.25_to_0.50, 0.75_to_1, 0.50_to_0.75 ) 0.0, 0.0, 0.01, 0.77, 0.22, 0.0, 0.0, 0.0, 0.0, 0.0;
    ( Coastal_lake, 0_to_0.25, 0.25_to_0.50, 0_to_5, 0.25_to_0.50, 0.75_to_1, 0.75_to_1 ) 0.0, 0.0, 0.43, 0.5700000000000001, 0.0, 0.0, 0.0, 0.0, 0.0, 0.0;
    ( Coastal_lake, 0_to_0.25, 0.25_to_0.50, 0_to_5, 0.50_to_0.75, 0_to_0.25, 0_to_0.25 ) 0.0, 0.0, 0.0, 0.78, 0.22, 0.0, 0.0, 0.0, 0.0, 0.0;
    ( Coastal_lake, 0_to_0.25, 0.25_to_0.50, 0_to_5, 0.50_to_0.75, 0_to_0.25, 0.25_to_0.50 ) 0.0, 0.0, 0.0, 0.21, 0.78, 0.01, 0.0, 0.0, 0.0, 0.0;
    ( Coastal_lake, 0_to_0.25, 0.25_to_0.50, 0_to_5, 0.50_to_0.75, 0_to_0.25, 0.50_to_0.75 ) 0.0, 0.0, 0.0, 0.73, 0.27, 0.0, 0.0, 0.0, 0.0, 0.0;
    ( Coastal_lake, 0_to_0.25, 0.25_to_0.50, 0_to_5, 0.50_to_0.75, 0_to_0.25, 0.75_to_1 ) 0.0, 0.0, 0.0, 0.19, 0.8, 0.01, 0.0, 0.0, 0.0, 0.0;
    ( Coastal_lake, 0_to_0.25, 0.25_to_0.50, 0_to_5, 0.50_to_0.75, 0.25_to_0.50, 0_to_0.25 ) 0.0, 0.0, 0.2, 0.8, 0.0, 0.0, 0.0, 0.0, 0.0, 0.0;
    ( Coastal_lake, 0_to_0.25, 0.25_to_0.50, 0_to_5, 0.50_to_0.75, 0.25_to_0.50, 0.25_to_0.50 ) 0.01, 0.61, 0.38, 0.0, 0.0, 0.0, 0.0, 0.0, 0.0, 0.0;
    ( Coastal_lake, 0_to_0.25, 0.25_to_0.50, 0_to_5, 0.50_to_0.75, 0.25_to_0.50, 0.50_to_0.75 ) 0.0, 0.0, 0.21, 0.79, 0.0, 0.0, 0.0, 0.0, 0.0, 0.0;
    ( Coastal_lake, 0_to_0.25, 0.25_to_0.50, 0_to_5, 0.50_to_0.75, 0.25_to_0.50, 0.75_to_1 ) 0.0, 0.0, 0.0, 0.78, 0.22, 0.0, 0.0, 0.0, 0.0, 0.0;
    ( Coastal_lake, 0_to_0.25, 0.25_to_0.50, 0_to_5, 0.50_to_0.75, 0.50_to_0.75, 0_to_0.25 ) 0.0, 0.05, 0.85, 0.1, 0.0, 0.0, 0.0, 0.0, 0.0, 0.0;
    ( Coastal_lake, 0_to_0.25, 0.25_to_0.50, 0_to_5, 0.50_to_0.75, 0.50_to_0.75, 0.25_to_0.50 ) 0.0, 0.0, 0.0, 0.74, 0.26, 0.0, 0.0, 0.0, 0.0, 0.0;
    ( Coastal_lake, 0_to_0.25, 0.25_to_0.50, 0_to_5, 0.50_to_0.75, 0.50_to_0.75, 0.50_to_0.75 ) 0.0, 0.0, 0.0, 0.2, 0.79, 0.01, 0.0, 0.0, 0.0, 0.0;
    ( Coastal_lake, 0_to_0.25, 0.25_to_0.50, 0_to_5, 0.50_to_0.75, 0.50_to_0.75, 0.75_to_1 ) 0.0, 0.0, 0.33, 0.66, 0.01, 0.0, 0.0, 0.0, 0.0, 0.0;
    ( Coastal_lake, 0_to_0.25, 0.25_to_0.50, 0_to_5, 0.50_to_0.75, 0.75_to_1, 0_to_0.25 ) 0.0, 0.0, 0.0, 0.16, 0.84, 0.0, 0.0, 0.0, 0.0, 0.0;
    ( Coastal_lake, 0_to_0.25, 0.25_to_0.50, 0_to_5, 0.50_to_0.75, 0.75_to_1, 0.25_to_0.50 ) 0.0, 0.0, 0.0, 0.01, 0.72, 0.27, 0.0, 0.0, 0.0, 0.0;
    ( Coastal_lake, 0_to_0.25, 0.25_to_0.50, 0_to_5, 0.50_to_0.75, 0.75_to_1, 0.50_to_0.75 ) 0.0, 0.0, 0.01, 0.8, 0.19, 0.0, 0.0, 0.0, 0.0, 0.0;
    ( Coastal_lake, 0_to_0.25, 0.25_to_0.50, 0_to_5, 0.50_to_0.75, 0.75_to_1, 0.75_to_1 ) 0.0, 0.0, 0.0, 0.01, 0.71, 0.28, 0.0, 0.0, 0.0, 0.0;
    ( Coastal_lake, 0_to_0.25, 0.25_to_0.50, 0_to_5, 0.75_to_1, 0_to_0.25, 0_to_0.25 ) 0.02, 0.81, 0.17, 0.0, 0.0, 0.0, 0.0, 0.0, 0.0, 0.0;
    ( Coastal_lake, 0_to_0.25, 0.25_to_0.50, 0_to_5, 0.75_to_1, 0_to_0.25, 0.25_to_0.50 ) 0.0, 0.67, 0.33, 0.0, 0.0, 0.0, 0.0, 0.0, 0.0, 0.0;
    ( Coastal_lake, 0_to_0.25, 0.25_to_0.50, 0_to_5, 0.75_to_1, 0_to_0.25, 0.50_to_0.75 ) 0.0, 0.8300000000000001, 0.17, 0.0, 0.0, 0.0, 0.0, 0.0, 0.0, 0.0;
    ( Coastal_lake, 0_to_0.25, 0.25_to_0.50, 0_to_5, 0.75_to_1, 0_to_0.25, 0.75_to_1 ) 0.0, 0.21, 0.77, 0.02, 0.0, 0.0, 0.0, 0.0, 0.0, 0.0;
    ( Coastal_lake, 0_to_0.25, 0.25_to_0.50, 0_to_5, 0.75_to_1, 0.25_to_0.50, 0_to_0.25 ) 0.0, 0.07, 0.8399999999999999, 0.09, 0.0, 0.0, 0.0, 0.0, 0.0, 0.0;
    ( Coastal_lake, 0_to_0.25, 0.25_to_0.50, 0_to_5, 0.75_to_1, 0.25_to_0.50, 0.25_to_0.50 ) 0.0, 0.28, 0.71, 0.01, 0.0, 0.0, 0.0, 0.0, 0.0, 0.0;
    ( Coastal_lake, 0_to_0.25, 0.25_to_0.50, 0_to_5, 0.75_to_1, 0.25_to_0.50, 0.50_to_0.75 ) 0.0, 0.0, 0.73, 0.27, 0.0, 0.0, 0.0, 0.0, 0.0, 0.0;
    ( Coastal_lake, 0_to_0.25, 0.25_to_0.50, 0_to_5, 0.75_to_1, 0.25_to_0.50, 0.75_to_1 ) 0.0, 0.0, 0.33, 0.65, 0.02, 0.0, 0.0, 0.0, 0.0, 0.0;
    ( Coastal_lake, 0_to_0.25, 0.25_to_0.50, 0_to_5, 0.75_to_1, 0.50_to_0.75, 0_to_0.25 ) 0.0, 0.03, 0.76, 0.21, 0.0, 0.0, 0.0, 0.0, 0.0, 0.0;
    ( Coastal_lake, 0_to_0.25, 0.25_to_0.50, 0_to_5, 0.75_to_1, 0.50_to_0.75, 0.25_to_0.50 ) 0.0, 0.0, 0.24, 0.75, 0.01, 0.0, 0.0, 0.0, 0.0, 0.0;
    ( Coastal_lake, 0_to_0.25, 0.25_to_0.50, 0_to_5, 0.75_to_1, 0.50_to_0.75, 0.50_to_0.75 ) 0.0, 0.0, 0.01, 0.78, 0.21, 0.0, 0.0, 0.0, 0.0, 0.0;
    ( Coastal_lake, 0_to_0.25, 0.25_to_0.50, 0_to_5, 0.75_to_1, 0.50_to_0.75, 0.75_to_1 ) 0.0, 0.0, 0.19, 0.8, 0.01, 0.0, 0.0, 0.0, 0.0, 0.0;
    ( Coastal_lake, 0_to_0.25, 0.25_to_0.50, 0_to_5, 0.75_to_1, 0.75_to_1, 0_to_0.25 ) 0.0, 0.21, 0.79, 0.0, 0.0, 0.0, 0.0, 0.0, 0.0, 0.0;
    ( Coastal_lake, 0_to_0.25, 0.25_to_0.50, 0_to_5, 0.75_to_1, 0.75_to_1, 0.25_to_0.50 ) 0.01, 0.62, 0.37, 0.0, 0.0, 0.0, 0.0, 0.0, 0.0, 0.0;
    ( Coastal_lake, 0_to_0.25, 0.25_to_0.50, 0_to_5, 0.75_to_1, 0.75_to_1, 0.50_to_0.75 ) 0.0, 0.22, 0.78, 0.0, 0.0, 0.0, 0.0, 0.0, 0.0, 0.0;
    ( Coastal_lake, 0_to_0.25, 0.25_to_0.50, 0_to_5, 0.75_to_1, 0.75_to_1, 0.75_to_1 ) 0.0, 0.0, 0.78, 0.22, 0.0, 0.0, 0.0, 0.0, 0.0, 0.0;
    ( Coastal_lake, 0_to_0.25, 0.25_to_0.50, 5_to_30, 0_to_0.25, 0_to_0.25, 0_to_0.25 ) 0.0, 0.07, 0.86, 0.07, 0.0, 0.0, 0.0, 0.0, 0.0, 0.0;
    ( Coastal_lake, 0_to_0.25, 0.25_to_0.50, 5_to_30, 0_to_0.25, 0_to_0.25, 0.25_to_0.50 ) 0.0, 0.0, 0.8, 0.2, 0.0, 0.0, 0.0, 0.0, 0.0, 0.0;
    ( Coastal_lake, 0_to_0.25, 0.25_to_0.50, 5_to_30, 0_to_0.25, 0_to_0.25, 0.50_to_0.75 ) 0.0, 0.0, 0.23, 0.76, 0.01, 0.0, 0.0, 0.0, 0.0, 0.0;
    ( Coastal_lake, 0_to_0.25, 0.25_to_0.50, 5_to_30, 0_to_0.25, 0_to_0.25, 0.75_to_1 ) 0.0, 0.0, 0.39, 0.61, 0.0, 0.0, 0.0, 0.0, 0.0, 0.0;
    ( Coastal_lake, 0_to_0.25, 0.25_to_0.50, 5_to_30, 0_to_0.25, 0.25_to_0.50, 0_to_0.25 ) 0.0, 0.0, 0.24, 0.75, 0.01, 0.0, 0.0, 0.0, 0.0, 0.0;
    ( Coastal_lake, 0_to_0.25, 0.25_to_0.50, 5_to_30, 0_to_0.25, 0.25_to_0.50, 0.25_to_0.50 ) 0.0, 0.0, 0.05, 0.75, 0.2, 0.0, 0.0, 0.0, 0.0, 0.0;
    ( Coastal_lake, 0_to_0.25, 0.25_to_0.50, 5_to_30, 0_to_0.25, 0.25_to_0.50, 0.50_to_0.75 ) 0.0, 0.0, 0.01, 0.75, 0.24, 0.0, 0.0, 0.0, 0.0, 0.0;
    ( Coastal_lake, 0_to_0.25, 0.25_to_0.50, 5_to_30, 0_to_0.25, 0.25_to_0.50, 0.75_to_1 ) 0.0, 0.0, 0.0, 0.75, 0.25, 0.0, 0.0, 0.0, 0.0, 0.0;
    ( Coastal_lake, 0_to_0.25, 0.25_to_0.50, 5_to_30, 0_to_0.25, 0.50_to_0.75, 0_to_0.25 ) 0.0, 0.0, 0.79, 0.21, 0.0, 0.0, 0.0, 0.0, 0.0, 0.0;
    ( Coastal_lake, 0_to_0.25, 0.25_to_0.50, 5_to_30, 0_to_0.25, 0.50_to_0.75, 0.25_to_0.50 ) 0.01, 0.52, 0.47000000000000003, 0.0, 0.0, 0.0, 0.0, 0.0, 0.0, 0.0;
    ( Coastal_lake, 0_to_0.25, 0.25_to_0.50, 5_to_30, 0_to_0.25, 0.50_to_0.75, 0.50_to_0.75 ) 0.0, 0.01, 0.72, 0.27, 0.0, 0.0, 0.0, 0.0, 0.0, 0.0;
    ( Coastal_lake, 0_to_0.25, 0.25_to_0.50, 5_to_30, 0_to_0.25, 0.50_to_0.75, 0.75_to_1 ) 0.0, 0.0, 0.23, 0.76, 0.01, 0.0, 0.0, 0.0, 0.0, 0.0;
    ( Coastal_lake, 0_to_0.25, 0.25_to_0.50, 5_to_30, 0_to_0.25, 0.75_to_1, 0_to_0.25 ) 0.0, 0.07, 0.77, 0.16, 0.0, 0.0, 0.0, 0.0, 0.0, 0.0;
    ( Coastal_lake, 0_to_0.25, 0.25_to_0.50, 5_to_30, 0_to_0.25, 0.75_to_1, 0.25_to_0.50 ) 0.0, 0.0, 0.16, 0.8, 0.04, 0.0, 0.0, 0.0, 0.0, 0.0;
    ( Coastal_lake, 0_to_0.25, 0.25_to_0.50, 5_to_30, 0_to_0.25, 0.75_to_1, 0.50_to_0.75 ) 0.0, 0.0, 0.01, 0.6900000000000001, 0.3, 0.0, 0.0, 0.0, 0.0, 0.0;
    ( Coastal_lake, 0_to_0.25, 0.25_to_0.50, 5_to_30, 0_to_0.25, 0.75_to_1, 0.75_to_1 ) 0.0, 0.0, 0.34, 0.66, 0.0, 0.0, 0.0, 0.0, 0.0, 0.0;
    ( Coastal_lake, 0_to_0.25, 0.25_to_0.50, 5_to_30, 0.25_to_0.50, 0_to_0.25, 0_to_0.25 ) 0.0, 0.0, 0.0, 0.79, 0.21, 0.0, 0.0, 0.0, 0.0, 0.0;
    ( Coastal_lake, 0_to_0.25, 0.25_to_0.50, 5_to_30, 0.25_to_0.50, 0_to_0.25, 0.25_to_0.50 ) 0.0, 0.0, 0.0, 0.24, 0.76, 0.0, 0.0, 0.0, 0.0, 0.0;
    ( Coastal_lake, 0_to_0.25, 0.25_to_0.50, 5_to_30, 0.25_to_0.50, 0_to_0.25, 0.50_to_0.75 ) 0.0, 0.0, 0.04, 0.75, 0.21, 0.0, 0.0, 0.0, 0.0, 0.0;
    ( Coastal_lake, 0_to_0.25, 0.25_to_0.50, 5_to_30, 0.25_to_0.50, 0_to_0.25, 0.75_to_1 ) 0.0, 0.0, 0.0, 0.17, 0.8300000000000001, 0.0, 0.0, 0.0, 0.0, 0.0;
    ( Coastal_lake, 0_to_0.25, 0.25_to_0.50, 5_to_30, 0.25_to_0.50, 0.25_to_0.50, 0_to_0.25 ) 0.0, 0.0, 0.18, 0.8200000000000001, 0.0, 0.0, 0.0, 0.0, 0.0, 0.0;
    ( Coastal_lake, 0_to_0.25, 0.25_to_0.50, 5_to_30, 0.25_to_0.50, 0.25_to_0.50, 0.25_to_0.50 ) 0.0, 0.7000000000000001, 0.3, 0.0, 0.0, 0.0, 0.0, 0.0, 0.0, 0.0;
    ( Coastal_lake, 0_to_0.25, 0.25_to_0.50, 5_to_30, 0.25_to_0.50, 0.25_to_0.50, 0.50_to_0.75 ) 0.0, 0.0, 0.19, 0.8, 0.01, 0.0, 0.0, 0.0, 0.0, 0.0;
    ( Coastal_lake, 0_to_0.25, 0.25_to_0.50, 5_to_30, 0.25_to_0.50, 0.25_to_0.50, 0.75_to_1 ) 0.0, 0.0, 0.0, 0.75, 0.25, 0.0, 0.0, 0.0, 0.0, 0.0;
    ( Coastal_lake, 0_to_0.25, 0.25_to_0.50, 5_to_30, 0.25_to_0.50, 0.50_to_0.75, 0_to_0.25 ) 0.0, 0.05999999999999999, 0.8599999999999999, 0.08, 0.0, 0.0, 0.0, 0.0, 0.0, 0.0;
    ( Coastal_lake, 0_to_0.25, 0.25_to_0.50, 5_to_30, 0.25_to_0.50, 0.50_to_0.75, 0.25_to_0.50 ) 0.0, 0.0, 0.0, 0.75, 0.25, 0.0, 0.0, 0.0, 0.0, 0.0;
    ( Coastal_lake, 0_to_0.25, 0.25_to_0.50, 5_to_30, 0.25_to_0.50, 0.50_to_0.75, 0.50_to_0.75 ) 0.0, 0.0, 0.0, 0.21, 0.78, 0.01, 0.0, 0.0, 0.0, 0.0;
    ( Coastal_lake, 0_to_0.25, 0.25_to_0.50, 5_to_30, 0.25_to_0.50, 0.50_to_0.75, 0.75_to_1 ) 0.0, 0.0, 0.39, 0.61, 0.0, 0.0, 0.0, 0.0, 0.0, 0.0;
    ( Coastal_lake, 0_to_0.25, 0.25_to_0.50, 5_to_30, 0.25_to_0.50, 0.75_to_1, 0_to_0.25 ) 0.0, 0.0, 0.0, 0.2, 0.8, 0.0, 0.0, 0.0, 0.0, 0.0;
    ( Coastal_lake, 0_to_0.25, 0.25_to_0.50, 5_to_30, 0.25_to_0.50, 0.75_to_1, 0.25_to_0.50 ) 0.0, 0.0, 0.0, 0.0, 0.8300000000000001, 0.17, 0.0, 0.0, 0.0, 0.0;
    ( Coastal_lake, 0_to_0.25, 0.25_to_0.50, 5_to_30, 0.25_to_0.50, 0.75_to_1, 0.50_to_0.75 ) 0.0, 0.0, 0.01, 0.72, 0.27, 0.0, 0.0, 0.0, 0.0, 0.0;
    ( Coastal_lake, 0_to_0.25, 0.25_to_0.50, 5_to_30, 0.25_to_0.50, 0.75_to_1, 0.75_to_1 ) 0.0, 0.0, 0.0, 0.01, 0.79, 0.2, 0.0, 0.0, 0.0, 0.0;
    ( Coastal_lake, 0_to_0.25, 0.25_to_0.50, 5_to_30, 0.50_to_0.75, 0_to_0.25, 0_to_0.25 ) 0.2, 0.76, 0.04, 0.0, 0.0, 0.0, 0.0, 0.0, 0.0, 0.0;
    ( Coastal_lake, 0_to_0.25, 0.25_to_0.50, 5_to_30, 0.50_to_0.75, 0_to_0.25, 0.25_to_0.50 ) 0.0, 0.08, 0.85, 0.07, 0.0, 0.0, 0.0, 0.0, 0.0, 0.0;
    ( Coastal_lake, 0_to_0.25, 0.25_to_0.50, 5_to_30, 0.50_to_0.75, 0_to_0.25, 0.50_to_0.75 ) 0.26, 0.6900000000000001, 0.05, 0.0, 0.0, 0.0, 0.0, 0.0, 0.0, 0.0;
    ( Coastal_lake, 0_to_0.25, 0.25_to_0.50, 5_to_30, 0.50_to_0.75, 0_to_0.25, 0.75_to_1 ) 0.0, 0.64, 0.36, 0.0, 0.0, 0.0, 0.0, 0.0, 0.0, 0.0;
    ( Coastal_lake, 0_to_0.25, 0.25_to_0.50, 5_to_30, 0.50_to_0.75, 0.25_to_0.50, 0_to_0.25 ) 0.0, 0.0, 0.34, 0.66, 0.0, 0.0, 0.0, 0.0, 0.0, 0.0;
    ( Coastal_lake, 0_to_0.25, 0.25_to_0.50, 5_to_30, 0.50_to_0.75, 0.25_to_0.50, 0.25_to_0.50 ) 0.0, 0.62, 0.38, 0.0, 0.0, 0.0, 0.0, 0.0, 0.0, 0.0;
    ( Coastal_lake, 0_to_0.25, 0.25_to_0.50, 5_to_30, 0.50_to_0.75, 0.25_to_0.50, 0.50_to_0.75 ) 0.0, 0.1, 0.77, 0.13, 0.0, 0.0, 0.0, 0.0, 0.0, 0.0;
    ( Coastal_lake, 0_to_0.25, 0.25_to_0.50, 5_to_30, 0.50_to_0.75, 0.25_to_0.50, 0.75_to_1 ) 0.0, 0.0, 0.01, 0.74, 0.25, 0.0, 0.0, 0.0, 0.0, 0.0;
    ( Coastal_lake, 0_to_0.25, 0.25_to_0.50, 5_to_30, 0.50_to_0.75, 0.50_to_0.75, 0_to_0.25 ) 0.0, 0.07, 0.81, 0.12, 0.0, 0.0, 0.0, 0.0, 0.0, 0.0;
    ( Coastal_lake, 0_to_0.25, 0.25_to_0.50, 5_to_30, 0.50_to_0.75, 0.50_to_0.75, 0.25_to_0.50 ) 0.0, 0.0, 0.33, 0.66, 0.01, 0.0, 0.0, 0.0, 0.0, 0.0;
    ( Coastal_lake, 0_to_0.25, 0.25_to_0.50, 5_to_30, 0.50_to_0.75, 0.50_to_0.75, 0.50_to_0.75 ) 0.0, 0.0, 0.0, 0.18, 0.77, 0.05, 0.0, 0.0, 0.0, 0.0;
    ( Coastal_lake, 0_to_0.25, 0.25_to_0.50, 5_to_30, 0.50_to_0.75, 0.50_to_0.75, 0.75_to_1 ) 0.0, 0.0, 0.38, 0.61, 0.01, 0.0, 0.0, 0.0, 0.0, 0.0;
    ( Coastal_lake, 0_to_0.25, 0.25_to_0.50, 5_to_30, 0.50_to_0.75, 0.75_to_1, 0_to_0.25 ) 0.0, 0.62, 0.38, 0.0, 0.0, 0.0, 0.0, 0.0, 0.0, 0.0;
    ( Coastal_lake, 0_to_0.25, 0.25_to_0.50, 5_to_30, 0.50_to_0.75, 0.75_to_1, 0.25_to_0.50 ) 0.0, 0.05999999999999999, 0.8399999999999999, 0.09999999999999999, 0.0, 0.0, 0.0, 0.0, 0.0, 0.0;
    ( Coastal_lake, 0_to_0.25, 0.25_to_0.50, 5_to_30, 0.50_to_0.75, 0.75_to_1, 0.50_to_0.75 ) 0.0, 0.68, 0.32, 0.0, 0.0, 0.0, 0.0, 0.0, 0.0, 0.0;
    ( Coastal_lake, 0_to_0.25, 0.25_to_0.50, 5_to_30, 0.50_to_0.75, 0.75_to_1, 0.75_to_1 ) 0.0, 0.14, 0.81, 0.05, 0.0, 0.0, 0.0, 0.0, 0.0, 0.0;
    ( Coastal_lake, 0_to_0.25, 0.25_to_0.50, 5_to_30, 0.75_to_1, 0_to_0.25, 0_to_0.25 ) 0.0, 0.0, 0.44, 0.55, 0.01, 0.0, 0.0, 0.0, 0.0, 0.0;
    ( Coastal_lake, 0_to_0.25, 0.25_to_0.50, 5_to_30, 0.75_to_1, 0_to_0.25, 0.25_to_0.50 ) 0.0, 0.13, 0.8, 0.07, 0.0, 0.0, 0.0, 0.0, 0.0, 0.0;
    ( Coastal_lake, 0_to_0.25, 0.25_to_0.50, 5_to_30, 0.75_to_1, 0_to_0.25, 0.50_to_0.75 ) 0.0, 0.0, 0.41000000000000003, 0.59, 0.0, 0.0, 0.0, 0.0, 0.0, 0.0;
    ( Coastal_lake, 0_to_0.25, 0.25_to_0.50, 5_to_30, 0.75_to_1, 0_to_0.25, 0.75_to_1 ) 0.0, 0.0, 0.01, 0.78, 0.21, 0.0, 0.0, 0.0, 0.0, 0.0;
    ( Coastal_lake, 0_to_0.25, 0.25_to_0.50, 5_to_30, 0.75_to_1, 0.25_to_0.50, 0_to_0.25 ) 0.0, 0.0, 0.38, 0.6, 0.02, 0.0, 0.0, 0.0, 0.0, 0.0;
    ( Coastal_lake, 0_to_0.25, 0.25_to_0.50, 5_to_30, 0.75_to_1, 0.25_to_0.50, 0.25_to_0.50 ) 0.0, 0.0, 0.02, 0.72, 0.26, 0.0, 0.0, 0.0, 0.0, 0.0;
    ( Coastal_lake, 0_to_0.25, 0.25_to_0.50, 5_to_30, 0.75_to_1, 0.25_to_0.50, 0.50_to_0.75 ) 0.0, 0.0, 0.0, 0.11, 0.84, 0.05, 0.0, 0.0, 0.0, 0.0;
    ( Coastal_lake, 0_to_0.25, 0.25_to_0.50, 5_to_30, 0.75_to_1, 0.25_to_0.50, 0.75_to_1 ) 0.0, 0.0, 0.01, 0.6900000000000001, 0.3, 0.0, 0.0, 0.0, 0.0, 0.0;
    ( Coastal_lake, 0_to_0.25, 0.25_to_0.50, 5_to_30, 0.75_to_1, 0.50_to_0.75, 0_to_0.25 ) 0.0, 0.07, 0.86, 0.07, 0.0, 0.0, 0.0, 0.0, 0.0, 0.0;
    ( Coastal_lake, 0_to_0.25, 0.25_to_0.50, 5_to_30, 0.75_to_1, 0.50_to_0.75, 0.25_to_0.50 ) 0.0, 0.09, 0.81, 0.1, 0.0, 0.0, 0.0, 0.0, 0.0, 0.0;
    ( Coastal_lake, 0_to_0.25, 0.25_to_0.50, 5_to_30, 0.75_to_1, 0.50_to_0.75, 0.50_to_0.75 ) 0.0, 0.06, 0.81, 0.13, 0.0, 0.0, 0.0, 0.0, 0.0, 0.0;
    ( Coastal_lake, 0_to_0.25, 0.25_to_0.50, 5_to_30, 0.75_to_1, 0.50_to_0.75, 0.75_to_1 ) 0.0, 0.0, 0.32, 0.68, 0.0, 0.0, 0.0, 0.0, 0.0, 0.0;
    ( Coastal_lake, 0_to_0.25, 0.25_to_0.50, 5_to_30, 0.75_to_1, 0.75_to_1, 0_to_0.25 ) 0.0, 0.0, 0.41000000000000003, 0.59, 0.0, 0.0, 0.0, 0.0, 0.0, 0.0;
    ( Coastal_lake, 0_to_0.25, 0.25_to_0.50, 5_to_30, 0.75_to_1, 0.75_to_1, 0.25_to_0.50 ) 0.0, 0.0, 0.36, 0.63, 0.01, 0.0, 0.0, 0.0, 0.0, 0.0;
    ( Coastal_lake, 0_to_0.25, 0.25_to_0.50, 5_to_30, 0.75_to_1, 0.75_to_1, 0.50_to_0.75 ) 0.0, 0.0, 0.01, 0.73, 0.26, 0.0, 0.0, 0.0, 0.0, 0.0;
    ( Coastal_lake, 0_to_0.25, 0.25_to_0.50, 5_to_30, 0.75_to_1, 0.75_to_1, 0.75_to_1 ) 0.0, 0.0, 0.01, 0.73, 0.26, 0.0, 0.0, 0.0, 0.0, 0.0;
    ( Coastal_lake, 0_to_0.25, 0.25_to_0.50, 30_to_36, 0_to_0.25, 0_to_0.25, 0_to_0.25 ) 0.0, 0.0, 0.01, 0.76, 0.23, 0.0, 0.0, 0.0, 0.0, 0.0;
    ( Coastal_lake, 0_to_0.25, 0.25_to_0.50, 30_to_36, 0_to_0.25, 0_to_0.25, 0.25_to_0.50 ) 0.0, 0.0, 0.0, 0.17, 0.8300000000000001, 0.0, 0.0, 0.0, 0.0, 0.0;
    ( Coastal_lake, 0_to_0.25, 0.25_to_0.50, 30_to_36, 0_to_0.25, 0_to_0.25, 0.50_to_0.75 ) 0.0, 0.0, 0.0, 0.17, 0.78, 0.05, 0.0, 0.0, 0.0, 0.0;
    ( Coastal_lake, 0_to_0.25, 0.25_to_0.50, 30_to_36, 0_to_0.25, 0_to_0.25, 0.75_to_1 ) 0.0, 0.0, 0.0, 0.23, 0.72, 0.05, 0.0, 0.0, 0.0, 0.0;
    ( Coastal_lake, 0_to_0.25, 0.25_to_0.50, 30_to_36, 0_to_0.25, 0.25_to_0.50, 0_to_0.25 ) 0.0, 0.0, 0.33, 0.67, 0.0, 0.0, 0.0, 0.0, 0.0, 0.0;
    ( Coastal_lake, 0_to_0.25, 0.25_to_0.50, 30_to_36, 0_to_0.25, 0.25_to_0.50, 0.25_to_0.50 ) 0.0, 0.05999999999999999, 0.8599999999999999, 0.08, 0.0, 0.0, 0.0, 0.0, 0.0, 0.0;
    ( Coastal_lake, 0_to_0.25, 0.25_to_0.50, 30_to_36, 0_to_0.25, 0.25_to_0.50, 0.50_to_0.75 ) 0.0, 0.0, 0.3, 0.6900000000000001, 0.01, 0.0, 0.0, 0.0, 0.0, 0.0;
    ( Coastal_lake, 0_to_0.25, 0.25_to_0.50, 30_to_36, 0_to_0.25, 0.25_to_0.50, 0.75_to_1 ) 0.0, 0.0, 0.03, 0.68, 0.29, 0.0, 0.0, 0.0, 0.0, 0.0;
    ( Coastal_lake, 0_to_0.25, 0.25_to_0.50, 30_to_36, 0_to_0.25, 0.50_to_0.75, 0_to_0.25 ) 0.0, 0.0, 0.32, 0.67, 0.01, 0.0, 0.0, 0.0, 0.0, 0.0;
    ( Coastal_lake, 0_to_0.25, 0.25_to_0.50, 30_to_36, 0_to_0.25, 0.50_to_0.75, 0.25_to_0.50 ) 0.0, 0.0, 0.02, 0.77, 0.21, 0.0, 0.0, 0.0, 0.0, 0.0;
    ( Coastal_lake, 0_to_0.25, 0.25_to_0.50, 30_to_36, 0_to_0.25, 0.50_to_0.75, 0.50_to_0.75 ) 0.0, 0.0, 0.0, 0.17, 0.78, 0.05, 0.0, 0.0, 0.0, 0.0;
    ( Coastal_lake, 0_to_0.25, 0.25_to_0.50, 30_to_36, 0_to_0.25, 0.50_to_0.75, 0.75_to_1 ) 0.0, 0.0, 0.0, 0.72, 0.28, 0.0, 0.0, 0.0, 0.0, 0.0;
    ( Coastal_lake, 0_to_0.25, 0.25_to_0.50, 30_to_36, 0_to_0.25, 0.75_to_1, 0_to_0.25 ) 0.0, 0.0, 0.0, 0.12, 0.85, 0.03, 0.0, 0.0, 0.0, 0.0;
    ( Coastal_lake, 0_to_0.25, 0.25_to_0.50, 30_to_36, 0_to_0.25, 0.75_to_1, 0.25_to_0.50 ) 0.0, 0.0, 0.0, 0.0, 0.43, 0.5700000000000001, 0.0, 0.0, 0.0, 0.0;
    ( Coastal_lake, 0_to_0.25, 0.25_to_0.50, 30_to_36, 0_to_0.25, 0.75_to_1, 0.50_to_0.75 ) 0.0, 0.0, 0.0, 0.1, 0.86, 0.04, 0.0, 0.0, 0.0, 0.0;
    ( Coastal_lake, 0_to_0.25, 0.25_to_0.50, 30_to_36, 0_to_0.25, 0.75_to_1, 0.75_to_1 ) 0.0, 0.0, 0.0, 0.0, 0.52, 0.48, 0.0, 0.0, 0.0, 0.0;
    ( Coastal_lake, 0_to_0.25, 0.25_to_0.50, 30_to_36, 0.25_to_0.50, 0_to_0.25, 0_to_0.25 ) 0.0, 0.21, 0.79, 0.0, 0.0, 0.0, 0.0, 0.0, 0.0, 0.0;
    ( Coastal_lake, 0_to_0.25, 0.25_to_0.50, 30_to_36, 0.25_to_0.50, 0_to_0.25, 0.25_to_0.50 ) 0.0, 0.1, 0.77, 0.13, 0.0, 0.0, 0.0, 0.0, 0.0, 0.0;
    ( Coastal_lake, 0_to_0.25, 0.25_to_0.50, 30_to_36, 0.25_to_0.50, 0_to_0.25, 0.50_to_0.75 ) 0.0, 0.22, 0.77, 0.01, 0.0, 0.0, 0.0, 0.0, 0.0, 0.0;
    ( Coastal_lake, 0_to_0.25, 0.25_to_0.50, 30_to_36, 0.25_to_0.50, 0_to_0.25, 0.75_to_1 ) 0.0, 0.0, 0.79, 0.21, 0.0, 0.0, 0.0, 0.0, 0.0, 0.0;
    ( Coastal_lake, 0_to_0.25, 0.25_to_0.50, 30_to_36, 0.25_to_0.50, 0.25_to_0.50, 0_to_0.25 ) 0.0, 0.0, 0.39, 0.61, 0.0, 0.0, 0.0, 0.0, 0.0, 0.0;
    ( Coastal_lake, 0_to_0.25, 0.25_to_0.50, 30_to_36, 0.25_to_0.50, 0.25_to_0.50, 0.25_to_0.50 ) 0.0, 0.01, 0.74, 0.25, 0.0, 0.0, 0.0, 0.0, 0.0, 0.0;
    ( Coastal_lake, 0_to_0.25, 0.25_to_0.50, 30_to_36, 0.25_to_0.50, 0.25_to_0.50, 0.50_to_0.75 ) 0.0, 0.0, 0.24, 0.73, 0.03, 0.0, 0.0, 0.0, 0.0, 0.0;
    ( Coastal_lake, 0_to_0.25, 0.25_to_0.50, 30_to_36, 0.25_to_0.50, 0.25_to_0.50, 0.75_to_1 ) 0.0, 0.0, 0.0, 0.7000000000000001, 0.3, 0.0, 0.0, 0.0, 0.0, 0.0;
    ( Coastal_lake, 0_to_0.25, 0.25_to_0.50, 30_to_36, 0.25_to_0.50, 0.50_to_0.75, 0_to_0.25 ) 0.0, 0.0, 0.22, 0.78, 0.0, 0.0, 0.0, 0.0, 0.0, 0.0;
    ( Coastal_lake, 0_to_0.25, 0.25_to_0.50, 30_to_36, 0.25_to_0.50, 0.50_to_0.75, 0.25_to_0.50 ) 0.0, 0.0, 0.01, 0.75, 0.24, 0.0, 0.0, 0.0, 0.0, 0.0;
    ( Coastal_lake, 0_to_0.25, 0.25_to_0.50, 30_to_36, 0.25_to_0.50, 0.50_to_0.75, 0.50_to_0.75 ) 0.0, 0.0, 0.0, 0.21, 0.76, 0.03, 0.0, 0.0, 0.0, 0.0;
    ( Coastal_lake, 0_to_0.25, 0.25_to_0.50, 30_to_36, 0.25_to_0.50, 0.50_to_0.75, 0.75_to_1 ) 0.0, 0.0, 0.01, 0.78, 0.21, 0.0, 0.0, 0.0, 0.0, 0.0;
    ( Coastal_lake, 0_to_0.25, 0.25_to_0.50, 30_to_36, 0.25_to_0.50, 0.75_to_1, 0_to_0.25 ) 0.0, 0.0, 0.78, 0.22, 0.0, 0.0, 0.0, 0.0, 0.0, 0.0;
    ( Coastal_lake, 0_to_0.25, 0.25_to_0.50, 30_to_36, 0.25_to_0.50, 0.75_to_1, 0.25_to_0.50 ) 0.0, 0.1, 0.8300000000000001, 0.07, 0.0, 0.0, 0.0, 0.0, 0.0, 0.0;
    ( Coastal_lake, 0_to_0.25, 0.25_to_0.50, 30_to_36, 0.25_to_0.50, 0.75_to_1, 0.50_to_0.75 ) 0.0, 0.01, 0.75, 0.24, 0.0, 0.0, 0.0, 0.0, 0.0, 0.0;
    ( Coastal_lake, 0_to_0.25, 0.25_to_0.50, 30_to_36, 0.25_to_0.50, 0.75_to_1, 0.75_to_1 ) 0.0, 0.0, 0.17, 0.8300000000000001, 0.0, 0.0, 0.0, 0.0, 0.0, 0.0;
    ( Coastal_lake, 0_to_0.25, 0.25_to_0.50, 30_to_36, 0.50_to_0.75, 0_to_0.25, 0_to_0.25 ) 0.0, 0.0, 0.38, 0.62, 0.0, 0.0, 0.0, 0.0, 0.0, 0.0;
    ( Coastal_lake, 0_to_0.25, 0.25_to_0.50, 30_to_36, 0.50_to_0.75, 0_to_0.25, 0.25_to_0.50 ) 0.0, 0.0, 0.27, 0.72, 0.01, 0.0, 0.0, 0.0, 0.0, 0.0;
    ( Coastal_lake, 0_to_0.25, 0.25_to_0.50, 30_to_36, 0.50_to_0.75, 0_to_0.25, 0.50_to_0.75 ) 0.0, 0.0, 0.0, 0.76, 0.24, 0.0, 0.0, 0.0, 0.0, 0.0;
    ( Coastal_lake, 0_to_0.25, 0.25_to_0.50, 30_to_36, 0.50_to_0.75, 0_to_0.25, 0.75_to_1 ) 0.0, 0.0, 0.02, 0.76, 0.22, 0.0, 0.0, 0.0, 0.0, 0.0;
    ( Coastal_lake, 0_to_0.25, 0.25_to_0.50, 30_to_36, 0.50_to_0.75, 0.25_to_0.50, 0_to_0.25 ) 0.0, 0.0, 0.0, 0.8, 0.2, 0.0, 0.0, 0.0, 0.0, 0.0;
    ( Coastal_lake, 0_to_0.25, 0.25_to_0.50, 30_to_36, 0.50_to_0.75, 0.25_to_0.50, 0.25_to_0.50 ) 0.0, 0.0, 0.0, 0.25, 0.75, 0.0, 0.0, 0.0, 0.0, 0.0;
    ( Coastal_lake, 0_to_0.25, 0.25_to_0.50, 30_to_36, 0.50_to_0.75, 0.25_to_0.50, 0.50_to_0.75 ) 0.0, 0.0, 0.0, 0.16, 0.79, 0.05, 0.0, 0.0, 0.0, 0.0;
    ( Coastal_lake, 0_to_0.25, 0.25_to_0.50, 30_to_36, 0.50_to_0.75, 0.25_to_0.50, 0.75_to_1 ) 0.0, 0.0, 0.0, 0.24, 0.75, 0.01, 0.0, 0.0, 0.0, 0.0;
    ( Coastal_lake, 0_to_0.25, 0.25_to_0.50, 30_to_36, 0.50_to_0.75, 0.50_to_0.75, 0_to_0.25 ) 0.0, 0.0, 0.25, 0.75, 0.0, 0.0, 0.0, 0.0, 0.0, 0.0;
    ( Coastal_lake, 0_to_0.25, 0.25_to_0.50, 30_to_36, 0.50_to_0.75, 0.50_to_0.75, 0.25_to_0.50 ) 0.0, 0.05, 0.85, 0.1, 0.0, 0.0, 0.0, 0.0, 0.0, 0.0;
    ( Coastal_lake, 0_to_0.25, 0.25_to_0.50, 30_to_36, 0.50_to_0.75, 0.50_to_0.75, 0.50_to_0.75 ) 0.0, 0.0, 0.23, 0.77, 0.0, 0.0, 0.0, 0.0, 0.0, 0.0;
    ( Coastal_lake, 0_to_0.25, 0.25_to_0.50, 30_to_36, 0.50_to_0.75, 0.50_to_0.75, 0.75_to_1 ) 0.0, 0.0, 0.01, 0.74, 0.25, 0.0, 0.0, 0.0, 0.0, 0.0;
    ( Coastal_lake, 0_to_0.25, 0.25_to_0.50, 30_to_36, 0.50_to_0.75, 0.75_to_1, 0_to_0.25 ) 0.0, 0.0, 0.31, 0.6900000000000001, 0.0, 0.0, 0.0, 0.0, 0.0, 0.0;
    ( Coastal_lake, 0_to_0.25, 0.25_to_0.50, 30_to_36, 0.50_to_0.75, 0.75_to_1, 0.25_to_0.50 ) 0.0, 0.0, 0.02, 0.81, 0.17, 0.0, 0.0, 0.0, 0.0, 0.0;
    ( Coastal_lake, 0_to_0.25, 0.25_to_0.50, 30_to_36, 0.50_to_0.75, 0.75_to_1, 0.50_to_0.75 ) 0.0, 0.0, 0.0, 0.2, 0.8, 0.0, 0.0, 0.0, 0.0, 0.0;
    ( Coastal_lake, 0_to_0.25, 0.25_to_0.50, 30_to_36, 0.50_to_0.75, 0.75_to_1, 0.75_to_1 ) 0.0, 0.0, 0.04, 0.6900000000000001, 0.27, 0.0, 0.0, 0.0, 0.0, 0.0;
    ( Coastal_lake, 0_to_0.25, 0.25_to_0.50, 30_to_36, 0.75_to_1, 0_to_0.25, 0_to_0.25 ) 0.0, 0.0, 0.0, 0.16, 0.84, 0.0, 0.0, 0.0, 0.0, 0.0;
    ( Coastal_lake, 0_to_0.25, 0.25_to_0.50, 30_to_36, 0.75_to_1, 0_to_0.25, 0.25_to_0.50 ) 0.0, 0.0, 0.0, 0.02, 0.71, 0.27, 0.0, 0.0, 0.0, 0.0;
    ( Coastal_lake, 0_to_0.25, 0.25_to_0.50, 30_to_36, 0.75_to_1, 0_to_0.25, 0.50_to_0.75 ) 0.0, 0.0, 0.0, 0.2, 0.76, 0.04, 0.0, 0.0, 0.0, 0.0;
    ( Coastal_lake, 0_to_0.25, 0.25_to_0.50, 30_to_36, 0.75_to_1, 0_to_0.25, 0.75_to_1 ) 0.0, 0.0, 0.0, 0.01, 0.81, 0.18, 0.0, 0.0, 0.0, 0.0;
    ( Coastal_lake, 0_to_0.25, 0.25_to_0.50, 30_to_36, 0.75_to_1, 0.25_to_0.50, 0_to_0.25 ) 0.0, 0.0, 0.01, 0.77, 0.22, 0.0, 0.0, 0.0, 0.0, 0.0;
    ( Coastal_lake, 0_to_0.25, 0.25_to_0.50, 30_to_36, 0.75_to_1, 0.25_to_0.50, 0.25_to_0.50 ) 0.0, 0.07, 0.81, 0.12, 0.0, 0.0, 0.0, 0.0, 0.0, 0.0;
    ( Coastal_lake, 0_to_0.25, 0.25_to_0.50, 30_to_36, 0.75_to_1, 0.25_to_0.50, 0.50_to_0.75 ) 0.0, 0.0, 0.0, 0.6900000000000001, 0.31, 0.0, 0.0, 0.0, 0.0, 0.0;
    ( Coastal_lake, 0_to_0.25, 0.25_to_0.50, 30_to_36, 0.75_to_1, 0.25_to_0.50, 0.75_to_1 ) 0.0, 0.0, 0.0, 0.29, 0.71, 0.0, 0.0, 0.0, 0.0, 0.0;
    ( Coastal_lake, 0_to_0.25, 0.25_to_0.50, 30_to_36, 0.75_to_1, 0.50_to_0.75, 0_to_0.25 ) 0.0, 0.0, 0.36, 0.63, 0.01, 0.0, 0.0, 0.0, 0.0, 0.0;
    ( Coastal_lake, 0_to_0.25, 0.25_to_0.50, 30_to_36, 0.75_to_1, 0.50_to_0.75, 0.25_to_0.50 ) 0.0, 0.0, 0.0, 0.25, 0.74, 0.01, 0.0, 0.0, 0.0, 0.0;
    ( Coastal_lake, 0_to_0.25, 0.25_to_0.50, 30_to_36, 0.75_to_1, 0.50_to_0.75, 0.50_to_0.75 ) 0.0, 0.0, 0.0, 0.01, 0.8200000000000001, 0.17, 0.0, 0.0, 0.0, 0.0;
    ( Coastal_lake, 0_to_0.25, 0.25_to_0.50, 30_to_36, 0.75_to_1, 0.50_to_0.75, 0.75_to_1 ) 0.0, 0.0, 0.03, 0.6900000000000001, 0.28, 0.0, 0.0, 0.0, 0.0, 0.0;
    ( Coastal_lake, 0_to_0.25, 0.25_to_0.50, 30_to_36, 0.75_to_1, 0.75_to_1, 0_to_0.25 ) 0.0, 0.0, 0.0, 0.02, 0.76, 0.22, 0.0, 0.0, 0.0, 0.0;
    ( Coastal_lake, 0_to_0.25, 0.25_to_0.50, 30_to_36, 0.75_to_1, 0.75_to_1, 0.25_to_0.50 ) 0.0, 0.0, 0.0, 0.0, 0.33, 0.67, 0.0, 0.0, 0.0, 0.0;
    ( Coastal_lake, 0_to_0.25, 0.25_to_0.50, 30_to_36, 0.75_to_1, 0.75_to_1, 0.50_to_0.75 ) 0.0, 0.0, 0.0, 0.16, 0.81, 0.03, 0.0, 0.0, 0.0, 0.0;
    ( Coastal_lake, 0_to_0.25, 0.25_to_0.50, 30_to_36, 0.75_to_1, 0.75_to_1, 0.75_to_1 ) 0.0, 0.0, 0.0, 0.0, 0.27, 0.73, 0.0, 0.0, 0.0, 0.0;
    ( Coastal_lake, 0_to_0.25, 0.50_to_0.75, 0_to_5, 0_to_0.25, 0_to_0.25, 0_to_0.25 ) 0.0, 0.17, 0.8200000000000001, 0.01, 0.0, 0.0, 0.0, 0.0, 0.0, 0.0;
    ( Coastal_lake, 0_to_0.25, 0.50_to_0.75, 0_to_5, 0_to_0.25, 0_to_0.25, 0.25_to_0.50 ) 0.0, 0.05, 0.9, 0.05, 0.0, 0.0, 0.0, 0.0, 0.0, 0.0;
    ( Coastal_lake, 0_to_0.25, 0.50_to_0.75, 0_to_5, 0_to_0.25, 0_to_0.25, 0.50_to_0.75 ) 0.0, 0.21, 0.79, 0.0, 0.0, 0.0, 0.0, 0.0, 0.0, 0.0;
    ( Coastal_lake, 0_to_0.25, 0.50_to_0.75, 0_to_5, 0_to_0.25, 0_to_0.25, 0.75_to_1 ) 0.0, 0.03, 0.7000000000000001, 0.27, 0.0, 0.0, 0.0, 0.0, 0.0, 0.0;
    ( Coastal_lake, 0_to_0.25, 0.50_to_0.75, 0_to_5, 0_to_0.25, 0.25_to_0.50, 0_to_0.25 ) 0.0, 0.0, 0.34, 0.66, 0.0, 0.0, 0.0, 0.0, 0.0, 0.0;
    ( Coastal_lake, 0_to_0.25, 0.50_to_0.75, 0_to_5, 0_to_0.25, 0.25_to_0.50, 0.25_to_0.50 ) 0.0, 0.0, 0.75, 0.25, 0.0, 0.0, 0.0, 0.0, 0.0, 0.0;
    ( Coastal_lake, 0_to_0.25, 0.50_to_0.75, 0_to_5, 0_to_0.25, 0.25_to_0.50, 0.50_to_0.75 ) 0.0, 0.0, 0.25, 0.74, 0.01, 0.0, 0.0, 0.0, 0.0, 0.0;
    ( Coastal_lake, 0_to_0.25, 0.50_to_0.75, 0_to_5, 0_to_0.25, 0.25_to_0.50, 0.75_to_1 ) 0.0, 0.0, 0.01, 0.68, 0.31, 0.0, 0.0, 0.0, 0.0, 0.0;
    ( Coastal_lake, 0_to_0.25, 0.50_to_0.75, 0_to_5, 0_to_0.25, 0.50_to_0.75, 0_to_0.25 ) 0.0, 0.0, 0.22, 0.77, 0.01, 0.0, 0.0, 0.0, 0.0, 0.0;
    ( Coastal_lake, 0_to_0.25, 0.50_to_0.75, 0_to_5, 0_to_0.25, 0.50_to_0.75, 0.25_to_0.50 ) 0.0, 0.0, 0.0, 0.7000000000000001, 0.3, 0.0, 0.0, 0.0, 0.0, 0.0;
    ( Coastal_lake, 0_to_0.25, 0.50_to_0.75, 0_to_5, 0_to_0.25, 0.50_to_0.75, 0.50_to_0.75 ) 0.0, 0.0, 0.0, 0.21, 0.78, 0.01, 0.0, 0.0, 0.0, 0.0;
    ( Coastal_lake, 0_to_0.25, 0.50_to_0.75, 0_to_5, 0_to_0.25, 0.50_to_0.75, 0.75_to_1 ) 0.0, 0.0, 0.0, 0.76, 0.24, 0.0, 0.0, 0.0, 0.0, 0.0;
    ( Coastal_lake, 0_to_0.25, 0.50_to_0.75, 0_to_5, 0_to_0.25, 0.75_to_1, 0_to_0.25 ) 0.0, 0.0, 0.85, 0.15, 0.0, 0.0, 0.0, 0.0, 0.0, 0.0;
    ( Coastal_lake, 0_to_0.25, 0.50_to_0.75, 0_to_5, 0_to_0.25, 0.75_to_1, 0.25_to_0.50 ) 0.0, 0.07, 0.8200000000000001, 0.11, 0.0, 0.0, 0.0, 0.0, 0.0, 0.0;
    ( Coastal_lake, 0_to_0.25, 0.50_to_0.75, 0_to_5, 0_to_0.25, 0.75_to_1, 0.50_to_0.75 ) 0.0, 0.0, 0.79, 0.21, 0.0, 0.0, 0.0, 0.0, 0.0, 0.0;
    ( Coastal_lake, 0_to_0.25, 0.50_to_0.75, 0_to_5, 0_to_0.25, 0.75_to_1, 0.75_to_1 ) 0.0, 0.0, 0.2, 0.8, 0.0, 0.0, 0.0, 0.0, 0.0, 0.0;
    ( Coastal_lake, 0_to_0.25, 0.50_to_0.75, 0_to_5, 0.25_to_0.50, 0_to_0.25, 0_to_0.25 ) 0.0, 0.0, 0.42, 0.58, 0.0, 0.0, 0.0, 0.0, 0.0, 0.0;
    ( Coastal_lake, 0_to_0.25, 0.50_to_0.75, 0_to_5, 0.25_to_0.50, 0_to_0.25, 0.25_to_0.50 ) 0.0, 0.0, 0.29, 0.68, 0.03, 0.0, 0.0, 0.0, 0.0, 0.0;
    ( Coastal_lake, 0_to_0.25, 0.50_to_0.75, 0_to_5, 0.25_to_0.50, 0_to_0.25, 0.50_to_0.75 ) 0.0, 0.0, 0.0, 0.84, 0.16, 0.0, 0.0, 0.0, 0.0, 0.0;
    ( Coastal_lake, 0_to_0.25, 0.50_to_0.75, 0_to_5, 0.25_to_0.50, 0_to_0.25, 0.75_to_1 ) 0.0, 0.0, 0.01, 0.73, 0.26, 0.0, 0.0, 0.0, 0.0, 0.0;
    ( Coastal_lake, 0_to_0.25, 0.50_to_0.75, 0_to_5, 0.25_to_0.50, 0.25_to_0.50, 0_to_0.25 ) 0.0, 0.0, 0.01, 0.79, 0.2, 0.0, 0.0, 0.0, 0.0, 0.0;
    ( Coastal_lake, 0_to_0.25, 0.50_to_0.75, 0_to_5, 0.25_to_0.50, 0.25_to_0.50, 0.25_to_0.50 ) 0.0, 0.0, 0.0, 0.21, 0.79, 0.0, 0.0, 0.0, 0.0, 0.0;
    ( Coastal_lake, 0_to_0.25, 0.50_to_0.75, 0_to_5, 0.25_to_0.50, 0.25_to_0.50, 0.50_to_0.75 ) 0.0, 0.0, 0.0, 0.13, 0.8, 0.07, 0.0, 0.0, 0.0, 0.0;
    ( Coastal_lake, 0_to_0.25, 0.50_to_0.75, 0_to_5, 0.25_to_0.50, 0.25_to_0.50, 0.75_to_1 ) 0.0, 0.0, 0.0, 0.21, 0.78, 0.01, 0.0, 0.0, 0.0, 0.0;
    ( Coastal_lake, 0_to_0.25, 0.50_to_0.75, 0_to_5, 0.25_to_0.50, 0.50_to_0.75, 0_to_0.25 ) 0.0, 0.0, 0.16, 0.8300000000000001, 0.01, 0.0, 0.0, 0.0, 0.0, 0.0;
    ( Coastal_lake, 0_to_0.25, 0.50_to_0.75, 0_to_5, 0.25_to_0.50, 0.50_to_0.75, 0.25_to_0.50 ) 0.0, 0.07, 0.8399999999999999, 0.09, 0.0, 0.0, 0.0, 0.0, 0.0, 0.0;
    ( Coastal_lake, 0_to_0.25, 0.50_to_0.75, 0_to_5, 0.25_to_0.50, 0.50_to_0.75, 0.50_to_0.75 ) 0.0, 0.0, 0.21, 0.75, 0.04, 0.0, 0.0, 0.0, 0.0, 0.0;
    ( Coastal_lake, 0_to_0.25, 0.50_to_0.75, 0_to_5, 0.25_to_0.50, 0.50_to_0.75, 0.75_to_1 ) 0.0, 0.0, 0.01, 0.8300000000000001, 0.16, 0.0, 0.0, 0.0, 0.0, 0.0;
    ( Coastal_lake, 0_to_0.25, 0.50_to_0.75, 0_to_5, 0.25_to_0.50, 0.75_to_1, 0_to_0.25 ) 0.0, 0.0, 0.38, 0.61, 0.01, 0.0, 0.0, 0.0, 0.0, 0.0;
    ( Coastal_lake, 0_to_0.25, 0.50_to_0.75, 0_to_5, 0.25_to_0.50, 0.75_to_1, 0.25_to_0.50 ) 0.0, 0.0, 0.02, 0.8300000000000001, 0.15, 0.0, 0.0, 0.0, 0.0, 0.0;
    ( Coastal_lake, 0_to_0.25, 0.50_to_0.75, 0_to_5, 0.25_to_0.50, 0.75_to_1, 0.50_to_0.75 ) 0.0, 0.0, 0.0, 0.25, 0.74, 0.01, 0.0, 0.0, 0.0, 0.0;
    ( Coastal_lake, 0_to_0.25, 0.50_to_0.75, 0_to_5, 0.25_to_0.50, 0.75_to_1, 0.75_to_1 ) 0.0, 0.0, 0.01, 0.81, 0.18, 0.0, 0.0, 0.0, 0.0, 0.0;
    ( Coastal_lake, 0_to_0.25, 0.50_to_0.75, 0_to_5, 0.50_to_0.75, 0_to_0.25, 0_to_0.25 ) 0.0, 0.0, 0.0, 0.23, 0.77, 0.0, 0.0, 0.0, 0.0, 0.0;
    ( Coastal_lake, 0_to_0.25, 0.50_to_0.75, 0_to_5, 0.50_to_0.75, 0_to_0.25, 0.25_to_0.50 ) 0.0, 0.0, 0.0, 0.02, 0.8, 0.18, 0.0, 0.0, 0.0, 0.0;
    ( Coastal_lake, 0_to_0.25, 0.50_to_0.75, 0_to_5, 0.50_to_0.75, 0_to_0.25, 0.50_to_0.75 ) 0.0, 0.0, 0.0, 0.14, 0.85, 0.01, 0.0, 0.0, 0.0, 0.0;
    ( Coastal_lake, 0_to_0.25, 0.50_to_0.75, 0_to_5, 0.50_to_0.75, 0_to_0.25, 0.75_to_1 ) 0.0, 0.0, 0.0, 0.0, 0.81, 0.19, 0.0, 0.0, 0.0, 0.0;
    ( Coastal_lake, 0_to_0.25, 0.50_to_0.75, 0_to_5, 0.50_to_0.75, 0.25_to_0.50, 0_to_0.25 ) 0.0, 0.0, 0.01, 0.76, 0.23, 0.0, 0.0, 0.0, 0.0, 0.0;
    ( Coastal_lake, 0_to_0.25, 0.50_to_0.75, 0_to_5, 0.50_to_0.75, 0.25_to_0.50, 0.25_to_0.50 ) 0.0, 0.08, 0.87, 0.05, 0.0, 0.0, 0.0, 0.0, 0.0, 0.0;
    ( Coastal_lake, 0_to_0.25, 0.50_to_0.75, 0_to_5, 0.50_to_0.75, 0.25_to_0.50, 0.50_to_0.75 ) 0.0, 0.0, 0.01, 0.71, 0.28, 0.0, 0.0, 0.0, 0.0, 0.0;
    ( Coastal_lake, 0_to_0.25, 0.50_to_0.75, 0_to_5, 0.50_to_0.75, 0.25_to_0.50, 0.75_to_1 ) 0.0, 0.0, 0.0, 0.22, 0.78, 0.0, 0.0, 0.0, 0.0, 0.0;
    ( Coastal_lake, 0_to_0.25, 0.50_to_0.75, 0_to_5, 0.50_to_0.75, 0.50_to_0.75, 0_to_0.25 ) 0.0, 0.0, 0.41000000000000003, 0.56, 0.03, 0.0, 0.0, 0.0, 0.0, 0.0;
    ( Coastal_lake, 0_to_0.25, 0.50_to_0.75, 0_to_5, 0.50_to_0.75, 0.50_to_0.75, 0.25_to_0.50 ) 0.0, 0.0, 0.0, 0.25, 0.74, 0.01, 0.0, 0.0, 0.0, 0.0;
    ( Coastal_lake, 0_to_0.25, 0.50_to_0.75, 0_to_5, 0.50_to_0.75, 0.50_to_0.75, 0.50_to_0.75 ) 0.0, 0.0, 0.0, 0.01, 0.78, 0.21, 0.0, 0.0, 0.0, 0.0;
    ( Coastal_lake, 0_to_0.25, 0.50_to_0.75, 0_to_5, 0.50_to_0.75, 0.50_to_0.75, 0.75_to_1 ) 0.0, 0.0, 0.04, 0.62, 0.34, 0.0, 0.0, 0.0, 0.0, 0.0;
    ( Coastal_lake, 0_to_0.25, 0.50_to_0.75, 0_to_5, 0.50_to_0.75, 0.75_to_1, 0_to_0.25 ) 0.0, 0.0, 0.0, 0.01, 0.74, 0.25, 0.0, 0.0, 0.0, 0.0;
    ( Coastal_lake, 0_to_0.25, 0.50_to_0.75, 0_to_5, 0.50_to_0.75, 0.75_to_1, 0.25_to_0.50 ) 0.0, 0.0, 0.0, 0.0, 0.25, 0.73, 0.02, 0.0, 0.0, 0.0;
    ( Coastal_lake, 0_to_0.25, 0.50_to_0.75, 0_to_5, 0.50_to_0.75, 0.75_to_1, 0.50_to_0.75 ) 0.0, 0.0, 0.0, 0.1, 0.85, 0.05, 0.0, 0.0, 0.0, 0.0;
    ( Coastal_lake, 0_to_0.25, 0.50_to_0.75, 0_to_5, 0.50_to_0.75, 0.75_to_1, 0.75_to_1 ) 0.0, 0.0, 0.0, 0.0, 0.22, 0.77, 0.01, 0.0, 0.0, 0.0;
    ( Coastal_lake, 0_to_0.25, 0.50_to_0.75, 0_to_5, 0.75_to_1, 0_to_0.25, 0_to_0.25 ) 0.14, 0.8300000000000001, 0.03, 0.0, 0.0, 0.0, 0.0, 0.0, 0.0, 0.0;
    ( Coastal_lake, 0_to_0.25, 0.50_to_0.75, 0_to_5, 0.75_to_1, 0_to_0.25, 0.25_to_0.50 ) 0.0, 0.0, 0.34, 0.64, 0.02, 0.0, 0.0, 0.0, 0.0, 0.0;
    ( Coastal_lake, 0_to_0.25, 0.50_to_0.75, 0_to_5, 0.75_to_1, 0_to_0.25, 0.50_to_0.75 ) 0.27, 0.72, 0.01, 0.0, 0.0, 0.0, 0.0, 0.0, 0.0, 0.0;
    ( Coastal_lake, 0_to_0.25, 0.50_to_0.75, 0_to_5, 0.75_to_1, 0_to_0.25, 0.75_to_1 ) 0.0, 0.72, 0.28, 0.0, 0.0, 0.0, 0.0, 0.0, 0.0, 0.0;
    ( Coastal_lake, 0_to_0.25, 0.50_to_0.75, 0_to_5, 0.75_to_1, 0.25_to_0.50, 0_to_0.25 ) 0.0, 0.0, 0.01, 0.68, 0.31, 0.0, 0.0, 0.0, 0.0, 0.0;
    ( Coastal_lake, 0_to_0.25, 0.50_to_0.75, 0_to_5, 0.75_to_1, 0.25_to_0.50, 0.25_to_0.50 ) 0.0, 0.67, 0.33, 0.0, 0.0, 0.0, 0.0, 0.0, 0.0, 0.0;
    ( Coastal_lake, 0_to_0.25, 0.50_to_0.75, 0_to_5, 0.75_to_1, 0.25_to_0.50, 0.50_to_0.75 ) 0.0, 0.13, 0.78, 0.09, 0.0, 0.0, 0.0, 0.0, 0.0, 0.0;
    ( Coastal_lake, 0_to_0.25, 0.50_to_0.75, 0_to_5, 0.75_to_1, 0.25_to_0.50, 0.75_to_1 ) 0.0, 0.0, 0.0, 0.18, 0.78, 0.04, 0.0, 0.0, 0.0, 0.0;
    ( Coastal_lake, 0_to_0.25, 0.50_to_0.75, 0_to_5, 0.75_to_1, 0.50_to_0.75, 0_to_0.25 ) 0.0, 0.1, 0.85, 0.05, 0.0, 0.0, 0.0, 0.0, 0.0, 0.0;
    ( Coastal_lake, 0_to_0.25, 0.50_to_0.75, 0_to_5, 0.75_to_1, 0.50_to_0.75, 0.25_to_0.50 ) 0.0, 0.0, 0.37, 0.63, 0.0, 0.0, 0.0, 0.0, 0.0, 0.0;
    ( Coastal_lake, 0_to_0.25, 0.50_to_0.75, 0_to_5, 0.75_to_1, 0.50_to_0.75, 0.50_to_0.75 ) 0.0, 0.0, 0.0, 0.0, 0.4, 0.6, 0.0, 0.0, 0.0, 0.0;
    ( Coastal_lake, 0_to_0.25, 0.50_to_0.75, 0_to_5, 0.75_to_1, 0.50_to_0.75, 0.75_to_1 ) 0.0, 0.0, 0.51, 0.48, 0.01, 0.0, 0.0, 0.0, 0.0, 0.0;
    ( Coastal_lake, 0_to_0.25, 0.50_to_0.75, 0_to_5, 0.75_to_1, 0.75_to_1, 0_to_0.25 ) 0.02, 0.58, 0.4, 0.0, 0.0, 0.0, 0.0, 0.0, 0.0, 0.0;
    ( Coastal_lake, 0_to_0.25, 0.50_to_0.75, 0_to_5, 0.75_to_1, 0.75_to_1, 0.25_to_0.50 ) 0.0, 0.0, 0.37, 0.63, 0.0, 0.0, 0.0, 0.0, 0.0, 0.0;
    ( Coastal_lake, 0_to_0.25, 0.50_to_0.75, 0_to_5, 0.75_to_1, 0.75_to_1, 0.50_to_0.75 ) 0.0, 0.66, 0.34, 0.0, 0.0, 0.0, 0.0, 0.0, 0.0, 0.0;
    ( Coastal_lake, 0_to_0.25, 0.50_to_0.75, 0_to_5, 0.75_to_1, 0.75_to_1, 0.75_to_1 ) 0.0, 0.1, 0.78, 0.12, 0.0, 0.0, 0.0, 0.0, 0.0, 0.0;
    ( Coastal_lake, 0_to_0.25, 0.50_to_0.75, 5_to_30, 0_to_0.25, 0_to_0.25, 0_to_0.25 ) 0.0, 0.0, 0.0, 0.73, 0.27, 0.0, 0.0, 0.0, 0.0, 0.0;
    ( Coastal_lake, 0_to_0.25, 0.50_to_0.75, 5_to_30, 0_to_0.25, 0_to_0.25, 0.25_to_0.50 ) 0.0, 0.09, 0.81, 0.1, 0.0, 0.0, 0.0, 0.0, 0.0, 0.0;
    ( Coastal_lake, 0_to_0.25, 0.50_to_0.75, 5_to_30, 0_to_0.25, 0_to_0.25, 0.50_to_0.75 ) 0.0, 0.0, 0.35000000000000003, 0.65, 0.0, 0.0, 0.0, 0.0, 0.0, 0.0;
    ( Coastal_lake, 0_to_0.25, 0.50_to_0.75, 5_to_30, 0_to_0.25, 0_to_0.25, 0.75_to_1 ) 0.0, 0.0, 0.0, 0.13, 0.8, 0.07, 0.0, 0.0, 0.0, 0.0;
    ( Coastal_lake, 0_to_0.25, 0.50_to_0.75, 5_to_30, 0_to_0.25, 0.25_to_0.50, 0_to_0.25 ) 0.0, 0.0, 0.41000000000000003, 0.59, 0.0, 0.0, 0.0, 0.0, 0.0, 0.0;
    ( Coastal_lake, 0_to_0.25, 0.50_to_0.75, 5_to_30, 0_to_0.25, 0.25_to_0.50, 0.25_to_0.50 ) 0.0, 0.0, 0.01, 0.72, 0.27, 0.0, 0.0, 0.0, 0.0, 0.0;
    ( Coastal_lake, 0_to_0.25, 0.50_to_0.75, 5_to_30, 0_to_0.25, 0.25_to_0.50, 0.50_to_0.75 ) 0.0, 0.0, 0.0, 0.0, 0.43, 0.5700000000000001, 0.0, 0.0, 0.0, 0.0;
    ( Coastal_lake, 0_to_0.25, 0.50_to_0.75, 5_to_30, 0_to_0.25, 0.25_to_0.50, 0.75_to_1 ) 0.0, 0.0, 0.01, 0.76, 0.23, 0.0, 0.0, 0.0, 0.0, 0.0;
    ( Coastal_lake, 0_to_0.25, 0.50_to_0.75, 5_to_30, 0_to_0.25, 0.50_to_0.75, 0_to_0.25 ) 0.0, 0.09, 0.84, 0.07, 0.0, 0.0, 0.0, 0.0, 0.0, 0.0;
    ( Coastal_lake, 0_to_0.25, 0.50_to_0.75, 5_to_30, 0_to_0.25, 0.50_to_0.75, 0.25_to_0.50 ) 0.0, 0.0, 0.31, 0.6900000000000001, 0.0, 0.0, 0.0, 0.0, 0.0, 0.0;
    ( Coastal_lake, 0_to_0.25, 0.50_to_0.75, 5_to_30, 0_to_0.25, 0.50_to_0.75, 0.50_to_0.75 ) 0.0, 0.04, 0.87, 0.09, 0.0, 0.0, 0.0, 0.0, 0.0, 0.0;
    ( Coastal_lake, 0_to_0.25, 0.50_to_0.75, 5_to_30, 0_to_0.25, 0.50_to_0.75, 0.75_to_1 ) 0.0, 0.0, 0.37, 0.63, 0.0, 0.0, 0.0, 0.0, 0.0, 0.0;
    ( Coastal_lake, 0_to_0.25, 0.50_to_0.75, 5_to_30, 0_to_0.25, 0.75_to_1, 0_to_0.25 ) 0.0, 0.0, 0.01, 0.67, 0.32, 0.0, 0.0, 0.0, 0.0, 0.0;
    ( Coastal_lake, 0_to_0.25, 0.50_to_0.75, 5_to_30, 0_to_0.25, 0.75_to_1, 0.25_to_0.50 ) 0.0, 0.0, 0.48, 0.52, 0.0, 0.0, 0.0, 0.0, 0.0, 0.0;
    ( Coastal_lake, 0_to_0.25, 0.50_to_0.75, 5_to_30, 0_to_0.25, 0.75_to_1, 0.50_to_0.75 ) 0.0, 0.0, 0.01, 0.76, 0.23, 0.0, 0.0, 0.0, 0.0, 0.0;
    ( Coastal_lake, 0_to_0.25, 0.50_to_0.75, 5_to_30, 0_to_0.25, 0.75_to_1, 0.75_to_1 ) 0.0, 0.0, 0.0, 0.16, 0.8200000000000001, 0.02, 0.0, 0.0, 0.0, 0.0;
    ( Coastal_lake, 0_to_0.25, 0.50_to_0.75, 5_to_30, 0.25_to_0.50, 0_to_0.25, 0_to_0.25 ) 0.0, 0.0, 0.03, 0.71, 0.26, 0.0, 0.0, 0.0, 0.0, 0.0;
    ( Coastal_lake, 0_to_0.25, 0.50_to_0.75, 5_to_30, 0.25_to_0.50, 0_to_0.25, 0.25_to_0.50 ) 0.0, 0.0, 0.0, 0.11, 0.86, 0.03, 0.0, 0.0, 0.0, 0.0;
    ( Coastal_lake, 0_to_0.25, 0.50_to_0.75, 5_to_30, 0.25_to_0.50, 0_to_0.25, 0.50_to_0.75 ) 0.0, 0.0, 0.0, 0.0, 0.5, 0.5, 0.0, 0.0, 0.0, 0.0;
    ( Coastal_lake, 0_to_0.25, 0.50_to_0.75, 5_to_30, 0.25_to_0.50, 0_to_0.25, 0.75_to_1 ) 0.0, 0.0, 0.0, 0.11, 0.8300000000000001, 0.06, 0.0, 0.0, 0.0, 0.0;
    ( Coastal_lake, 0_to_0.25, 0.50_to_0.75, 5_to_30, 0.25_to_0.50, 0.25_to_0.50, 0_to_0.25 ) 0.0, 0.0, 0.32, 0.65, 0.03, 0.0, 0.0, 0.0, 0.0, 0.0;
    ( Coastal_lake, 0_to_0.25, 0.50_to_0.75, 5_to_30, 0.25_to_0.50, 0.25_to_0.50, 0.25_to_0.50 ) 0.0, 0.0, 0.3, 0.7000000000000001, 0.0, 0.0, 0.0, 0.0, 0.0, 0.0;
    ( Coastal_lake, 0_to_0.25, 0.50_to_0.75, 5_to_30, 0.25_to_0.50, 0.25_to_0.50, 0.50_to_0.75 ) 0.0, 0.0, 0.39, 0.61, 0.0, 0.0, 0.0, 0.0, 0.0, 0.0;
    ( Coastal_lake, 0_to_0.25, 0.50_to_0.75, 5_to_30, 0.25_to_0.50, 0.25_to_0.50, 0.75_to_1 ) 0.0, 0.0, 0.02, 0.75, 0.23, 0.0, 0.0, 0.0, 0.0, 0.0;
    ( Coastal_lake, 0_to_0.25, 0.50_to_0.75, 5_to_30, 0.25_to_0.50, 0.50_to_0.75, 0_to_0.25 ) 0.0, 0.0, 0.01, 0.68, 0.31, 0.0, 0.0, 0.0, 0.0, 0.0;
    ( Coastal_lake, 0_to_0.25, 0.50_to_0.75, 5_to_30, 0.25_to_0.50, 0.50_to_0.75, 0.25_to_0.50 ) 0.0, 0.0, 0.02, 0.72, 0.26, 0.0, 0.0, 0.0, 0.0, 0.0;
    ( Coastal_lake, 0_to_0.25, 0.50_to_0.75, 5_to_30, 0.25_to_0.50, 0.50_to_0.75, 0.50_to_0.75 ) 0.0, 0.0, 0.0, 0.24, 0.72, 0.04, 0.0, 0.0, 0.0, 0.0;
    ( Coastal_lake, 0_to_0.25, 0.50_to_0.75, 5_to_30, 0.25_to_0.50, 0.50_to_0.75, 0.75_to_1 ) 0.0, 0.0, 0.0, 0.09, 0.84, 0.07, 0.0, 0.0, 0.0, 0.0;
    ( Coastal_lake, 0_to_0.25, 0.50_to_0.75, 5_to_30, 0.25_to_0.50, 0.75_to_1, 0_to_0.25 ) 0.0, 0.0, 0.0, 0.19, 0.78, 0.03, 0.0, 0.0, 0.0, 0.0;
    ( Coastal_lake, 0_to_0.25, 0.50_to_0.75, 5_to_30, 0.25_to_0.50, 0.75_to_1, 0.25_to_0.50 ) 0.0, 0.0, 0.0, 0.02, 0.48, 0.5, 0.0, 0.0, 0.0, 0.0;
    ( Coastal_lake, 0_to_0.25, 0.50_to_0.75, 5_to_30, 0.25_to_0.50, 0.75_to_1, 0.50_to_0.75 ) 0.0, 0.0, 0.0, 0.0, 0.5700000000000001, 0.43, 0.0, 0.0, 0.0, 0.0;
    ( Coastal_lake, 0_to_0.25, 0.50_to_0.75, 5_to_30, 0.25_to_0.50, 0.75_to_1, 0.75_to_1 ) 0.0, 0.0, 0.0, 0.0, 0.54, 0.46, 0.0, 0.0, 0.0, 0.0;
    ( Coastal_lake, 0_to_0.25, 0.50_to_0.75, 5_to_30, 0.50_to_0.75, 0_to_0.25, 0_to_0.25 ) 0.0, 0.0, 0.81, 0.19, 0.0, 0.0, 0.0, 0.0, 0.0, 0.0;
    ( Coastal_lake, 0_to_0.25, 0.50_to_0.75, 5_to_30, 0.50_to_0.75, 0_to_0.25, 0.25_to_0.50 ) 0.0, 0.0, 0.37, 0.62, 0.01, 0.0, 0.0, 0.0, 0.0, 0.0;
    ( Coastal_lake, 0_to_0.25, 0.50_to_0.75, 5_to_30, 0.50_to_0.75, 0_to_0.25, 0.50_to_0.75 ) 0.0, 0.0, 0.84, 0.16, 0.0, 0.0, 0.0, 0.0, 0.0, 0.0;
    ( Coastal_lake, 0_to_0.25, 0.50_to_0.75, 5_to_30, 0.50_to_0.75, 0_to_0.25, 0.75_to_1 ) 0.0, 0.0, 0.25, 0.75, 0.0, 0.0, 0.0, 0.0, 0.0, 0.0;
    ( Coastal_lake, 0_to_0.25, 0.50_to_0.75, 5_to_30, 0.50_to_0.75, 0.25_to_0.50, 0_to_0.25 ) 0.0, 0.0, 0.01, 0.71, 0.28, 0.0, 0.0, 0.0, 0.0, 0.0;
    ( Coastal_lake, 0_to_0.25, 0.50_to_0.75, 5_to_30, 0.50_to_0.75, 0.25_to_0.50, 0.25_to_0.50 ) 0.0, 0.0, 0.2, 0.79, 0.01, 0.0, 0.0, 0.0, 0.0, 0.0;
    ( Coastal_lake, 0_to_0.25, 0.50_to_0.75, 5_to_30, 0.50_to_0.75, 0.25_to_0.50, 0.50_to_0.75 ) 0.0, 0.0, 0.01, 0.79, 0.2, 0.0, 0.0, 0.0, 0.0, 0.0;
    ( Coastal_lake, 0_to_0.25, 0.50_to_0.75, 5_to_30, 0.50_to_0.75, 0.25_to_0.50, 0.75_to_1 ) 0.0, 0.0, 0.0, 0.13, 0.78, 0.09, 0.0, 0.0, 0.0, 0.0;
    ( Coastal_lake, 0_to_0.25, 0.50_to_0.75, 5_to_30, 0.50_to_0.75, 0.50_to_0.75, 0_to_0.25 ) 0.0, 0.0, 0.0, 0.78, 0.22, 0.0, 0.0, 0.0, 0.0, 0.0;
    ( Coastal_lake, 0_to_0.25, 0.50_to_0.75, 5_to_30, 0.50_to_0.75, 0.50_to_0.75, 0.25_to_0.50 ) 0.0, 0.0, 0.0, 0.32, 0.68, 0.0, 0.0, 0.0, 0.0, 0.0;
    ( Coastal_lake, 0_to_0.25, 0.50_to_0.75, 5_to_30, 0.50_to_0.75, 0.50_to_0.75, 0.50_to_0.75 ) 0.0, 0.0, 0.0, 0.0, 0.5, 0.5, 0.0, 0.0, 0.0, 0.0;
    ( Coastal_lake, 0_to_0.25, 0.50_to_0.75, 5_to_30, 0.50_to_0.75, 0.50_to_0.75, 0.75_to_1 ) 0.0, 0.0, 0.0, 0.25, 0.74, 0.01, 0.0, 0.0, 0.0, 0.0;
    ( Coastal_lake, 0_to_0.25, 0.50_to_0.75, 5_to_30, 0.50_to_0.75, 0.75_to_1, 0_to_0.25 ) 0.0, 0.0, 0.23, 0.77, 0.0, 0.0, 0.0, 0.0, 0.0, 0.0;
    ( Coastal_lake, 0_to_0.25, 0.50_to_0.75, 5_to_30, 0.50_to_0.75, 0.75_to_1, 0.25_to_0.50 ) 0.0, 0.0, 0.34, 0.65, 0.01, 0.0, 0.0, 0.0, 0.0, 0.0;
    ( Coastal_lake, 0_to_0.25, 0.50_to_0.75, 5_to_30, 0.50_to_0.75, 0.75_to_1, 0.50_to_0.75 ) 0.0, 0.0, 0.26, 0.72, 0.02, 0.0, 0.0, 0.0, 0.0, 0.0;
    ( Coastal_lake, 0_to_0.25, 0.50_to_0.75, 5_to_30, 0.50_to_0.75, 0.75_to_1, 0.75_to_1 ) 0.0, 0.0, 0.02, 0.8200000000000001, 0.16, 0.0, 0.0, 0.0, 0.0, 0.0;
    ( Coastal_lake, 0_to_0.25, 0.50_to_0.75, 5_to_30, 0.75_to_1, 0_to_0.25, 0_to_0.25 ) 0.0, 0.0, 0.0, 0.77, 0.23, 0.0, 0.0, 0.0, 0.0, 0.0;
    ( Coastal_lake, 0_to_0.25, 0.50_to_0.75, 5_to_30, 0.75_to_1, 0_to_0.25, 0.25_to_0.50 ) 0.0, 0.0, 0.02, 0.73, 0.25, 0.0, 0.0, 0.0, 0.0, 0.0;
    ( Coastal_lake, 0_to_0.25, 0.50_to_0.75, 5_to_30, 0.75_to_1, 0_to_0.25, 0.50_to_0.75 ) 0.0, 0.0, 0.0, 0.25, 0.75, 0.0, 0.0, 0.0, 0.0, 0.0;
    ( Coastal_lake, 0_to_0.25, 0.50_to_0.75, 5_to_30, 0.75_to_1, 0_to_0.25, 0.75_to_1 ) 0.0, 0.0, 0.0, 0.18, 0.76, 0.06, 0.0, 0.0, 0.0, 0.0;
    ( Coastal_lake, 0_to_0.25, 0.50_to_0.75, 5_to_30, 0.75_to_1, 0.25_to_0.50, 0_to_0.25 ) 0.0, 0.0, 0.0, 0.2, 0.78, 0.02, 0.0, 0.0, 0.0, 0.0;
    ( Coastal_lake, 0_to_0.25, 0.50_to_0.75, 5_to_30, 0.75_to_1, 0.25_to_0.50, 0.25_to_0.50 ) 0.0, 0.0, 0.0, 0.0, 0.74, 0.26, 0.0, 0.0, 0.0, 0.0;
    ( Coastal_lake, 0_to_0.25, 0.50_to_0.75, 5_to_30, 0.75_to_1, 0.25_to_0.50, 0.50_to_0.75 ) 0.0, 0.0, 0.0, 0.0, 0.55, 0.45, 0.0, 0.0, 0.0, 0.0;
    ( Coastal_lake, 0_to_0.25, 0.50_to_0.75, 5_to_30, 0.75_to_1, 0.25_to_0.50, 0.75_to_1 ) 0.0, 0.0, 0.0, 0.0, 0.84, 0.16, 0.0, 0.0, 0.0, 0.0;
    ( Coastal_lake, 0_to_0.25, 0.50_to_0.75, 5_to_30, 0.75_to_1, 0.50_to_0.75, 0_to_0.25 ) 0.0, 0.0, 0.02, 0.61, 0.37, 0.0, 0.0, 0.0, 0.0, 0.0;
    ( Coastal_lake, 0_to_0.25, 0.50_to_0.75, 5_to_30, 0.75_to_1, 0.50_to_0.75, 0.25_to_0.50 ) 0.0, 0.0, 0.26, 0.74, 0.0, 0.0, 0.0, 0.0, 0.0, 0.0;
    ( Coastal_lake, 0_to_0.25, 0.50_to_0.75, 5_to_30, 0.75_to_1, 0.50_to_0.75, 0.50_to_0.75 ) 0.0, 0.0, 0.02, 0.8200000000000001, 0.16, 0.0, 0.0, 0.0, 0.0, 0.0;
    ( Coastal_lake, 0_to_0.25, 0.50_to_0.75, 5_to_30, 0.75_to_1, 0.50_to_0.75, 0.75_to_1 ) 0.0, 0.0, 0.0, 0.19, 0.81, 0.0, 0.0, 0.0, 0.0, 0.0;
    ( Coastal_lake, 0_to_0.25, 0.50_to_0.75, 5_to_30, 0.75_to_1, 0.75_to_1, 0_to_0.25 ) 0.0, 0.0, 0.04, 0.72, 0.24, 0.0, 0.0, 0.0, 0.0, 0.0;
    ( Coastal_lake, 0_to_0.25, 0.50_to_0.75, 5_to_30, 0.75_to_1, 0.75_to_1, 0.25_to_0.50 ) 0.0, 0.0, 0.0, 0.18, 0.81, 0.01, 0.0, 0.0, 0.0, 0.0;
    ( Coastal_lake, 0_to_0.25, 0.50_to_0.75, 5_to_30, 0.75_to_1, 0.75_to_1, 0.50_to_0.75 ) 0.0, 0.0, 0.0, 0.01, 0.8, 0.19, 0.0, 0.0, 0.0, 0.0;
    ( Coastal_lake, 0_to_0.25, 0.50_to_0.75, 5_to_30, 0.75_to_1, 0.75_to_1, 0.75_to_1 ) 0.0, 0.0, 0.0, 0.12, 0.84, 0.04, 0.0, 0.0, 0.0, 0.0;
    ( Coastal_lake, 0_to_0.25, 0.50_to_0.75, 30_to_36, 0_to_0.25, 0_to_0.25, 0_to_0.25 ) 0.0, 0.0, 0.0, 0.01, 0.79, 0.2, 0.0, 0.0, 0.0, 0.0;
    ( Coastal_lake, 0_to_0.25, 0.50_to_0.75, 30_to_36, 0_to_0.25, 0_to_0.25, 0.25_to_0.50 ) 0.0, 0.0, 0.0, 0.0, 0.24, 0.76, 0.0, 0.0, 0.0, 0.0;
    ( Coastal_lake, 0_to_0.25, 0.50_to_0.75, 30_to_36, 0_to_0.25, 0_to_0.25, 0.50_to_0.75 ) 0.0, 0.0, 0.0, 0.0, 0.53, 0.47000000000000003, 0.0, 0.0, 0.0, 0.0;
    ( Coastal_lake, 0_to_0.25, 0.50_to_0.75, 30_to_36, 0_to_0.25, 0_to_0.25, 0.75_to_1 ) 0.0, 0.0, 0.0, 0.0, 0.26, 0.71, 0.03, 0.0, 0.0, 0.0;
    ( Coastal_lake, 0_to_0.25, 0.50_to_0.75, 30_to_36, 0_to_0.25, 0.25_to_0.50, 0_to_0.25 ) 0.0, 0.0, 0.0, 0.25, 0.75, 0.0, 0.0, 0.0, 0.0, 0.0;
    ( Coastal_lake, 0_to_0.25, 0.50_to_0.75, 30_to_36, 0_to_0.25, 0.25_to_0.50, 0.25_to_0.50 ) 0.0, 0.0, 0.44, 0.55, 0.01, 0.0, 0.0, 0.0, 0.0, 0.0;
    ( Coastal_lake, 0_to_0.25, 0.50_to_0.75, 30_to_36, 0_to_0.25, 0.25_to_0.50, 0.50_to_0.75 ) 0.0, 0.0, 0.0, 0.19, 0.81, 0.0, 0.0, 0.0, 0.0, 0.0;
    ( Coastal_lake, 0_to_0.25, 0.50_to_0.75, 30_to_36, 0_to_0.25, 0.25_to_0.50, 0.75_to_1 ) 0.0, 0.0, 0.0, 0.02, 0.71, 0.27, 0.0, 0.0, 0.0, 0.0;
    ( Coastal_lake, 0_to_0.25, 0.50_to_0.75, 30_to_36, 0_to_0.25, 0.50_to_0.75, 0_to_0.25 ) 0.0, 0.0, 0.01, 0.73, 0.26, 0.0, 0.0, 0.0, 0.0, 0.0;
    ( Coastal_lake, 0_to_0.25, 0.50_to_0.75, 30_to_36, 0_to_0.25, 0.50_to_0.75, 0.25_to_0.50 ) 0.0, 0.0, 0.0, 0.0, 0.8200000000000001, 0.18, 0.0, 0.0, 0.0, 0.0;
    ( Coastal_lake, 0_to_0.25, 0.50_to_0.75, 30_to_36, 0_to_0.25, 0.50_to_0.75, 0.50_to_0.75 ) 0.0, 0.0, 0.0, 0.0, 0.28, 0.71, 0.01, 0.0, 0.0, 0.0;
    ( Coastal_lake, 0_to_0.25, 0.50_to_0.75, 30_to_36, 0_to_0.25, 0.50_to_0.75, 0.75_to_1 ) 0.0, 0.0, 0.0, 0.21, 0.6900000000000001, 0.1, 0.0, 0.0, 0.0, 0.0;
    ( Coastal_lake, 0_to_0.25, 0.50_to_0.75, 30_to_36, 0_to_0.25, 0.75_to_1, 0_to_0.25 ) 0.0, 0.0, 0.0, 0.0, 0.17, 0.8300000000000001, 0.0, 0.0, 0.0, 0.0;
    ( Coastal_lake, 0_to_0.25, 0.50_to_0.75, 30_to_36, 0_to_0.25, 0.75_to_1, 0.25_to_0.50 ) 0.0, 0.0, 0.0, 0.0, 0.0, 0.77, 0.23, 0.0, 0.0, 0.0;
    ( Coastal_lake, 0_to_0.25, 0.50_to_0.75, 30_to_36, 0_to_0.25, 0.75_to_1, 0.50_to_0.75 ) 0.0, 0.0, 0.0, 0.0, 0.54, 0.46, 0.0, 0.0, 0.0, 0.0;
    ( Coastal_lake, 0_to_0.25, 0.50_to_0.75, 30_to_36, 0_to_0.25, 0.75_to_1, 0.75_to_1 ) 0.0, 0.0, 0.0, 0.0, 0.01, 0.8, 0.19, 0.0, 0.0, 0.0;
    ( Coastal_lake, 0_to_0.25, 0.50_to_0.75, 30_to_36, 0.25_to_0.50, 0_to_0.25, 0_to_0.25 ) 0.0, 0.0, 0.86, 0.14, 0.0, 0.0, 0.0, 0.0, 0.0, 0.0;
    ( Coastal_lake, 0_to_0.25, 0.50_to_0.75, 30_to_36, 0.25_to_0.50, 0_to_0.25, 0.25_to_0.50 ) 0.0, 0.0, 0.3, 0.7000000000000001, 0.0, 0.0, 0.0, 0.0, 0.0, 0.0;
    ( Coastal_lake, 0_to_0.25, 0.50_to_0.75, 30_to_36, 0.25_to_0.50, 0_to_0.25, 0.50_to_0.75 ) 0.0, 0.0, 0.72, 0.28, 0.0, 0.0, 0.0, 0.0, 0.0, 0.0;
    ( Coastal_lake, 0_to_0.25, 0.50_to_0.75, 30_to_36, 0.25_to_0.50, 0_to_0.25, 0.75_to_1 ) 0.0, 0.0, 0.24, 0.76, 0.0, 0.0, 0.0, 0.0, 0.0, 0.0;
    ( Coastal_lake, 0_to_0.25, 0.50_to_0.75, 30_to_36, 0.25_to_0.50, 0.25_to_0.50, 0_to_0.25 ) 0.0, 0.0, 0.01, 0.72, 0.27, 0.0, 0.0, 0.0, 0.0, 0.0;
    ( Coastal_lake, 0_to_0.25, 0.50_to_0.75, 30_to_36, 0.25_to_0.50, 0.25_to_0.50, 0.25_to_0.50 ) 0.0, 0.0, 0.23, 0.76, 0.01, 0.0, 0.0, 0.0, 0.0, 0.0;
    ( Coastal_lake, 0_to_0.25, 0.50_to_0.75, 30_to_36, 0.25_to_0.50, 0.25_to_0.50, 0.50_to_0.75 ) 0.0, 0.0, 0.01, 0.73, 0.26, 0.0, 0.0, 0.0, 0.0, 0.0;
    ( Coastal_lake, 0_to_0.25, 0.50_to_0.75, 30_to_36, 0.25_to_0.50, 0.25_to_0.50, 0.75_to_1 ) 0.0, 0.0, 0.0, 0.17, 0.8, 0.03, 0.0, 0.0, 0.0, 0.0;
    ( Coastal_lake, 0_to_0.25, 0.50_to_0.75, 30_to_36, 0.25_to_0.50, 0.50_to_0.75, 0_to_0.25 ) 0.0, 0.0, 0.01, 0.76, 0.23, 0.0, 0.0, 0.0, 0.0, 0.0;
    ( Coastal_lake, 0_to_0.25, 0.50_to_0.75, 30_to_36, 0.25_to_0.50, 0.50_to_0.75, 0.25_to_0.50 ) 0.0, 0.0, 0.0, 0.3, 0.68, 0.02, 0.0, 0.0, 0.0, 0.0;
    ( Coastal_lake, 0_to_0.25, 0.50_to_0.75, 30_to_36, 0.25_to_0.50, 0.50_to_0.75, 0.50_to_0.75 ) 0.0, 0.0, 0.0, 0.01, 0.51, 0.48, 0.0, 0.0, 0.0, 0.0;
    ( Coastal_lake, 0_to_0.25, 0.50_to_0.75, 30_to_36, 0.25_to_0.50, 0.50_to_0.75, 0.75_to_1 ) 0.0, 0.0, 0.0, 0.23, 0.75, 0.02, 0.0, 0.0, 0.0, 0.0;
    ( Coastal_lake, 0_to_0.25, 0.50_to_0.75, 30_to_36, 0.25_to_0.50, 0.75_to_1, 0_to_0.25 ) 0.0, 0.0, 0.28, 0.71, 0.01, 0.0, 0.0, 0.0, 0.0, 0.0;
    ( Coastal_lake, 0_to_0.25, 0.50_to_0.75, 30_to_36, 0.25_to_0.50, 0.75_to_1, 0.25_to_0.50 ) 0.0, 0.0, 0.41000000000000003, 0.58, 0.01, 0.0, 0.0, 0.0, 0.0, 0.0;
    ( Coastal_lake, 0_to_0.25, 0.50_to_0.75, 30_to_36, 0.25_to_0.50, 0.75_to_1, 0.50_to_0.75 ) 0.0, 0.0, 0.27, 0.73, 0.0, 0.0, 0.0, 0.0, 0.0, 0.0;
    ( Coastal_lake, 0_to_0.25, 0.50_to_0.75, 30_to_36, 0.25_to_0.50, 0.75_to_1, 0.75_to_1 ) 0.0, 0.0, 0.02, 0.8, 0.18, 0.0, 0.0, 0.0, 0.0, 0.0;
    ( Coastal_lake, 0_to_0.25, 0.50_to_0.75, 30_to_36, 0.50_to_0.75, 0_to_0.25, 0_to_0.25 ) 0.0, 0.0, 0.01, 0.78, 0.21, 0.0, 0.0, 0.0, 0.0, 0.0;
    ( Coastal_lake, 0_to_0.25, 0.50_to_0.75, 30_to_36, 0.50_to_0.75, 0_to_0.25, 0.25_to_0.50 ) 0.0, 0.0, 0.0, 0.79, 0.21, 0.0, 0.0, 0.0, 0.0, 0.0;
    ( Coastal_lake, 0_to_0.25, 0.50_to_0.75, 30_to_36, 0.50_to_0.75, 0_to_0.25, 0.50_to_0.75 ) 0.0, 0.0, 0.0, 0.21, 0.79, 0.0, 0.0, 0.0, 0.0, 0.0;
    ( Coastal_lake, 0_to_0.25, 0.50_to_0.75, 30_to_36, 0.50_to_0.75, 0_to_0.25, 0.75_to_1 ) 0.0, 0.0, 0.0, 0.17, 0.79, 0.04, 0.0, 0.0, 0.0, 0.0;
    ( Coastal_lake, 0_to_0.25, 0.50_to_0.75, 30_to_36, 0.50_to_0.75, 0.25_to_0.50, 0_to_0.25 ) 0.0, 0.0, 0.0, 0.17, 0.8300000000000001, 0.0, 0.0, 0.0, 0.0, 0.0;
    ( Coastal_lake, 0_to_0.25, 0.50_to_0.75, 30_to_36, 0.50_to_0.75, 0.25_to_0.50, 0.25_to_0.50 ) 0.0, 0.0, 0.0, 0.01, 0.79, 0.2, 0.0, 0.0, 0.0, 0.0;
    ( Coastal_lake, 0_to_0.25, 0.50_to_0.75, 30_to_36, 0.50_to_0.75, 0.25_to_0.50, 0.50_to_0.75 ) 0.0, 0.0, 0.0, 0.0, 0.5, 0.5, 0.0, 0.0, 0.0, 0.0;
    ( Coastal_lake, 0_to_0.25, 0.50_to_0.75, 30_to_36, 0.50_to_0.75, 0.25_to_0.50, 0.75_to_1 ) 0.0, 0.0, 0.0, 0.02, 0.74, 0.24, 0.0, 0.0, 0.0, 0.0;
    ( Coastal_lake, 0_to_0.25, 0.50_to_0.75, 30_to_36, 0.50_to_0.75, 0.50_to_0.75, 0_to_0.25 ) 0.0, 0.0, 0.0, 0.8, 0.2, 0.0, 0.0, 0.0, 0.0, 0.0;
    ( Coastal_lake, 0_to_0.25, 0.50_to_0.75, 30_to_36, 0.50_to_0.75, 0.50_to_0.75, 0.25_to_0.50 ) 0.0, 0.0, 0.38, 0.62, 0.0, 0.0, 0.0, 0.0, 0.0, 0.0;
    ( Coastal_lake, 0_to_0.25, 0.50_to_0.75, 30_to_36, 0.50_to_0.75, 0.50_to_0.75, 0.50_to_0.75 ) 0.0, 0.0, 0.01, 0.8300000000000001, 0.16, 0.0, 0.0, 0.0, 0.0, 0.0;
    ( Coastal_lake, 0_to_0.25, 0.50_to_0.75, 30_to_36, 0.50_to_0.75, 0.50_to_0.75, 0.75_to_1 ) 0.0, 0.0, 0.0, 0.24, 0.76, 0.0, 0.0, 0.0, 0.0, 0.0;
    ( Coastal_lake, 0_to_0.25, 0.50_to_0.75, 30_to_36, 0.50_to_0.75, 0.75_to_1, 0_to_0.25 ) 0.0, 0.0, 0.04, 0.7000000000000001, 0.26, 0.0, 0.0, 0.0, 0.0, 0.0;
    ( Coastal_lake, 0_to_0.25, 0.50_to_0.75, 30_to_36, 0.50_to_0.75, 0.75_to_1, 0.25_to_0.50 ) 0.0, 0.0, 0.0, 0.18, 0.81, 0.01, 0.0, 0.0, 0.0, 0.0;
    ( Coastal_lake, 0_to_0.25, 0.50_to_0.75, 30_to_36, 0.50_to_0.75, 0.75_to_1, 0.50_to_0.75 ) 0.0, 0.0, 0.0, 0.01, 0.7000000000000001, 0.29, 0.0, 0.0, 0.0, 0.0;
    ( Coastal_lake, 0_to_0.25, 0.50_to_0.75, 30_to_36, 0.50_to_0.75, 0.75_to_1, 0.75_to_1 ) 0.0, 0.0, 0.0, 0.14, 0.8300000000000001, 0.03, 0.0, 0.0, 0.0, 0.0;
    ( Coastal_lake, 0_to_0.25, 0.50_to_0.75, 30_to_36, 0.75_to_1, 0_to_0.25, 0_to_0.25 ) 0.0, 0.0, 0.0, 0.01, 0.74, 0.25, 0.0, 0.0, 0.0, 0.0;
    ( Coastal_lake, 0_to_0.25, 0.50_to_0.75, 30_to_36, 0.75_to_1, 0_to_0.25, 0.25_to_0.50 ) 0.0, 0.0, 0.0, 0.0, 0.22, 0.77, 0.01, 0.0, 0.0, 0.0;
    ( Coastal_lake, 0_to_0.25, 0.50_to_0.75, 30_to_36, 0.75_to_1, 0_to_0.25, 0.50_to_0.75 ) 0.0, 0.0, 0.0, 0.0, 0.5, 0.5, 0.0, 0.0, 0.0, 0.0;
    ( Coastal_lake, 0_to_0.25, 0.50_to_0.75, 30_to_36, 0.75_to_1, 0_to_0.25, 0.75_to_1 ) 0.0, 0.0, 0.0, 0.0, 0.3, 0.68, 0.02, 0.0, 0.0, 0.0;
    ( Coastal_lake, 0_to_0.25, 0.50_to_0.75, 30_to_36, 0.75_to_1, 0.25_to_0.50, 0_to_0.25 ) 0.0, 0.0, 0.0, 0.26, 0.74, 0.0, 0.0, 0.0, 0.0, 0.0;
