network unknown {
}
variable ChemicalCorrosion {
  type discrete [ 3 ] { Normal, Degradation, Failed };
}
variable CorrosionFailure {
  type discrete [ 3 ] { Normal, Degradation, Failed };
}
variable ExcessiveInterShaftCurrent {
  type discrete [ 3 ] { Normal, Degradation, Failed };
}
variable ExcessiveSpeed {
  type discrete [ 3 ] { Normal, Degradation, Failed };
}
variable HighFrequencyPulseVoltage {
  type discrete [ 3 ] { Normal, Degradation, Failed };
}
variable HighTemperatureGluing {
  type discrete [ 3 ] { Normal, Degradation, Failed };
}
variable ImproperAssembly {
  type discrete [ 3 ] { Normal, Degradation, Failed };
}
variable ImproperLubrification {
  type discrete [ 3 ] { Normal, Degradation, Failed };
}
variable InappropriateClearance {
  type discrete [ 3 ] { Normal, Degradation, Failed };
}
variable Indentation {
  type discrete [ 3 ] { Normal, Degradation, Failed };
}
variable InsulationDeterioration {
  type discrete [ 3 ] { Normal, Degradation, Failed };
}
variable LocalizedHighTemperatures {
  type discrete [ 3 ] { Normal, Degradation, Failed };
}
variable Moisture {
  type discrete [ 3 ] { Normal, Degradation, Failed };
}
variable PlasticDeformation {
  type discrete [ 3 ] { Normal, Degradation, Failed };
}
variable PoorCooling {
  type discrete [ 3 ] { Normal, Degradation, Failed };
}
variable PoorLubrification {
  type discrete [ 3 ] { Normal, Degradation, Failed };
}
variable PresenceAbrasiveParticles {
  type discrete [ 3 ] { Normal, Degradation, Failed };
}
variable ScratchVibration {
  type discrete [ 3 ] { Normal, Degradation, Failed };
}
variable SeverePartialDischarges {
  type discrete [ 3 ] { Normal, Degradation, Failed };
}
variable SurfaceCorrosion {
  type discrete [ 3 ] { Normal, Degradation, Failed };
}
variable SystemDegradation {
  type discrete [ 3 ] { Normal, Degradation, Failed };
}
variable WearFault {
  type discrete [ 3 ] { Normal, Degradation, Failed };
}
probability ( ChemicalCorrosion ) {
  table 0.99965, 0.00025, 0.00010;
}
probability ( CorrosionFailure | ChemicalCorrosion, ExcessiveInterShaftCurrent, Moisture ) {
  (Normal, Normal, Normal) 1.0, 0.0, 0.0;
  (Degradation, Normal, Normal) 0.0, 1.0, 0.0;
  (Failed, Normal, Normal) 0.0, 0.0, 1.0;
  (Normal, Degradation, Normal) 0.0, 1.0, 0.0;
  (Degradation, Degradation, Normal) 0.0, 1.0, 0.0;
  (Failed, Degradation, Normal) 0.0, 0.0, 1.0;
  (Normal, Failed, Normal) 0.0, 0.0, 1.0;
  (Degradation, Failed, Normal) 0.0, 0.0, 1.0;
  (Failed, Failed, Normal) 0.0, 0.0, 1.0;
  (Normal, Normal, Degradation) 0.0, 1.0, 0.0;
  (Degradation, Normal, Degradation) 0.0, 1.0, 0.0;
  (Failed, Normal, Degradation) 0.0, 0.0, 1.0;
  (Normal, Degradation, Degradation) 0.0, 1.0, 0.0;
  (Degradation, Degradation, Degradation) 0.0, 1.0, 0.0;
  (Failed, Degradation, Degradation) 0.0, 0.0, 1.0;
  (Normal, Failed, Degradation) 0.0, 0.0, 1.0;
  (Degradation, Failed, Degradation) 0.0, 0.0, 1.0;
  (Failed, Failed, Degradation) 0.0, 0.0, 1.0;
  (Normal, Normal, Failed) 0.0, 0.0, 1.0;
  (Degradation, Normal, Failed) 0.0, 0.0, 1.0;
  (Failed, Normal, Failed) 0.0, 0.0, 1.0;
  (Normal, Degradation, Failed) 0.0, 0.0, 1.0;
  (Degradation, Degradation, Failed) 0.0, 0.0, 1.0;
  (Failed, Degradation, Failed) 0.0, 0.0, 1.0;
  (Normal, Failed, Failed) 0.0, 0.0, 1.0;
  (Degradation, Failed, Failed) 0.0, 0.0, 1.0;
  (Failed, Failed, Failed) 0.0, 0.0, 1.0;
}
probability ( ExcessiveInterShaftCurrent ) {
  table 0.99952, 0.00030, 0.00018;
}
probability ( ExcessiveSpeed ) {
  table 0.99952, 0.00030, 0.00018;
}
probability ( HighFrequencyPulseVoltage ) {
  table 0.9996, 0.0002, 0.0002;
}
probability ( HighTemperatureGluing ) {
  table 0.9973, 0.0010, 0.0017;
}
probability ( ImproperAssembly ) {
  table 0.99965, 0.00025, 0.00010;
}
probability ( ImproperLubrification ) {
  table 0.9996, 0.0002, 0.0002;
}
probability ( InappropriateClearance ) {
  table 0.99965, 0.00025, 0.00010;
}
probability ( Indentation ) {
  table 0.9997, 0.0002, 0.0001;
}
probability ( InsulationDeterioration | HighFrequencyPulseVoltage, LocalizedHighTemperatures, PoorCooling, SeverePartialDischarges, SurfaceCorrosion ) {
  (Normal, Normal, Normal, Normal, Normal) 1.0, 0.0, 0.0;
  (Degradation, Normal, Normal, Normal, Normal) 0.0, 1.0, 0.0;
  (Failed, Normal, Normal, Normal, Normal) 0.0, 0.0, 1.0;
  (Normal, Degradation, Normal, Normal, Normal) 0.0, 1.0, 0.0;
  (Degradation, Degradation, Normal, Normal, Normal) 0.0, 1.0, 0.0;
  (Failed, Degradation, Normal, Normal, Normal) 0.0, 0.0, 1.0;
  (Normal, Failed, Normal, Normal, Normal) 0.0, 1.0, 0.0;
  (Degradation, Failed, Normal, Normal, Normal) 0.0, 0.0, 1.0;
  (Failed, Failed, Normal, Normal, Normal) 0.0, 0.0, 1.0;
  (Normal, Normal, Degradation, Normal, Normal) 0.0, 0.0, 1.0;
  (Degradation, Normal, Degradation, Normal, Normal) 0.0, 0.0, 1.0;
  (Failed, Normal, Degradation, Normal, Normal) 0.0, 1.0, 0.0;
  (Normal, Degradation, Degradation, Normal, Normal) 0.0, 1.0, 0.0;
  (Degradation, Degradation, Degradation, Normal, Normal) 0.0, 0.0, 1.0;
  (Failed, Degradation, Degradation, Normal, Normal) 0.0, 1.0, 0.0;
  (Normal, Failed, Degradation, Normal, Normal) 0.0, 1.0, 0.0;
  (Degradation, Failed, Degradation, Normal, Normal) 0.0, 0.0, 1.0;
  (Failed, Failed, Degradation, Normal, Normal) 0.0, 0.0, 1.0;
  (Normal, Normal, Failed, Normal, Normal) 0.0, 0.0, 1.0;
  (Degradation, Normal, Failed, Normal, Normal) 0.0, 0.0, 1.0;
  (Failed, Normal, Failed, Normal, Normal) 0.0, 0.0, 1.0;
  (Normal, Degradation, Failed, Normal, Normal) 0.0, 0.0, 1.0;
  (Degradation, Degradation, Failed, Normal, Normal) 0.0, 0.0, 1.0;
  (Failed, Degradation, Failed, Normal, Normal) 0.0, 0.0, 1.0;
  (Normal, Failed, Failed, Normal, Normal) 0.0, 0.0, 1.0;
  (Degradation, Failed, Failed, Normal, Normal) 0.0, 0.0, 1.0;
  (Failed, Failed, Failed, Normal, Normal) 0.0, 0.0, 1.0;
  (Normal, Normal, Normal, Degradation, Normal) 0.0, 0.0, 1.0;
  (Degradation, Normal, Normal, Degradation, Normal) 0.0, 0.0, 1.0;
  (Failed, Normal, Normal, Degradation, Normal) 0.0, 1.0, 0.0;
  (Normal, Degradation, Normal, Degradation, Normal) 0.0, 1.0, 0.0;
  (Degradation, Degradation, Normal, Degradation, Normal) 0.0, 0.0, 1.0;
  (Failed, Degradation, Normal, Degradation, Normal) 0.0, 1.0, 0.0;
  (Normal, Failed, Normal, Degradation, Normal) 0.0, 1.0, 0.0;
  (Degradation, Failed, Normal, Degradation, Normal) 0.0, 0.0, 1.0;
  (Failed, Failed, Normal, Degradation, Normal) 0.0, 1.0, 0.0;
  (Normal, Normal, Degradation, Degradation, Normal) 0.0, 0.0, 1.0;
  (Degradation, Normal, Degradation, Degradation, Normal) 0.0, 0.0, 1.0;
  (Failed, Normal, Degradation, Degradation, Normal) 0.0, 0.0, 1.0;
  (Normal, Degradation, Degradation, Degradation, Normal) 0.0, 0.0, 1.0;
  (Degradation, Degradation, Degradation, Degradation, Normal) 0.0, 1.0, 0.0;
  (Failed, Degradation, Degradation, Degradation, Normal) 0.0, 1.0, 0.0;
  (Normal, Failed, Degradation, Degradation, Normal) 0.0, 0.0, 1.0;
  (Degradation, Failed, Degradation, Degradation, Normal) 0.0, 1.0, 0.0;
  (Failed, Failed, Degradation, Degradation, Normal) 0.0, 1.0, 0.0;
  (Normal, Normal, Failed, Degradation, Normal) 0.0, 0.0, 1.0;
  (Degradation, Normal, Failed, Degradation, Normal) 0.0, 0.0, 1.0;
  (Failed, Normal, Failed, Degradation, Normal) 0.0, 0.0, 1.0;
  (Normal, Degradation, Failed, Degradation, Normal) 0.0, 0.0, 1.0;
  (Degradation, Degradation, Failed, Degradation, Normal) 0.0, 0.0, 1.0;
  (Failed, Degradation, Failed, Degradation, Normal) 0.0, 0.0, 1.0;
  (Normal, Failed, Failed, Degradation, Normal) 0.0, 0.0, 1.0;
  (Degradation, Failed, Failed, Degradation, Normal) 0.0, 0.0, 1.0;
  (Failed, Failed, Failed, Degradation, Normal) 0.0, 0.0, 1.0;
  (Normal, Normal, Normal, Failed, Normal) 0.0, 0.0, 1.0;
  (Degradation, Normal, Normal, Failed, Normal) 0.0, 0.0, 1.0;
  (Failed, Normal, Normal, Failed, Normal) 0.0, 0.0, 1.0;
  (Normal, Degradation, Normal, Failed, Normal) 0.0, 0.0, 1.0;
  (Degradation, Degradation, Normal, Failed, Normal) 0.0, 0.0, 1.0;
  (Failed, Degradation, Normal, Failed, Normal) 0.0, 0.0, 1.0;
  (Normal, Failed, Normal, Failed, Normal) 0.0, 0.0, 1.0;
  (Degradation, Failed, Normal, Failed, Normal) 0.0, 0.0, 1.0;
  (Failed, Failed, Normal, Failed, Normal) 0.0, 0.0, 1.0;
  (Normal, Normal, Degradation, Failed, Normal) 0.0, 0.0, 1.0;
  (Degradation, Normal, Degradation, Failed, Normal) 0.0, 0.0, 1.0;
  (Failed, Normal, Degradation, Failed, Normal) 0.0, 0.0, 1.0;
  (Normal, Degradation, Degradation, Failed, Normal) 0.0, 0.0, 1.0;
  (Degradation, Degradation, Degradation, Failed, Normal) 0.0, 0.0, 1.0;
  (Failed, Degradation, Degradation, Failed, Normal) 0.0, 0.0, 1.0;
  (Normal, Failed, Degradation, Failed, Normal) 0.0, 0.0, 1.0;
  (Degradation, Failed, Degradation, Failed, Normal) 0.0, 0.0, 1.0;
  (Failed, Failed, Degradation, Failed, Normal) 0.0, 0.0, 1.0;
  (Normal, Normal, Failed, Failed, Normal) 0.0, 0.0, 1.0;
  (Degradation, Normal, Failed, Failed, Normal) 0.0, 0.0, 1.0;
  (Failed, Normal, Failed, Failed, Normal) 0.0, 0.0, 1.0;
  (Normal, Degradation, Failed, Failed, Normal) 0.0, 0.0, 1.0;
  (Degradation, Degradation, Failed, Failed, Normal) 0.0, 0.0, 1.0;
  (Failed, Degradation, Failed, Failed, Normal) 0.0, 0.0, 1.0;
  (Normal, Failed, Failed, Failed, Normal) 0.0, 0.0, 1.0;
  (Degradation, Failed, Failed, Failed, Normal) 0.0, 0.0, 1.0;
  (Failed, Failed, Failed, Failed, Normal) 0.0, 0.0, 1.0;
  (Normal, Normal, Normal, Normal, Degradation) 0.0, 0.0, 1.0;
  (Degradation, Normal, Normal, Normal, Degradation) 0.0, 0.0, 1.0;
  (Failed, Normal, Normal, Normal, Degradation) 0.0, 0.0, 1.0;
  (Normal, Degradation, Normal, Normal, Degradation) 0.0, 0.0, 1.0;
  (Degradation, Degradation, Normal, Normal, Degradation) 0.0, 1.0, 0.0;
  (Failed, Degradation, Normal, Normal, Degradation) 0.0, 1.0, 0.0;
  (Normal, Failed, Normal, Normal, Degradation) 0.0, 0.0, 1.0;
  (Degradation, Failed, Normal, Normal, Degradation) 0.0, 1.0, 0.0;
  (Failed, Failed, Normal, Normal, Degradation) 0.0, 1.0, 0.0;
  (Normal, Normal, Degradation, Normal, Degradation) 0.0, 0.0, 1.0;
  (Degradation, Normal, Degradation, Normal, Degradation) 0.0, 1.0, 0.0;
  (Failed, Normal, Degradation, Normal, Degradation) 0.0, 0.0, 1.0;
  (Normal, Degradation, Degradation, Normal, Degradation) 0.0, 0.0, 1.0;
  (Degradation, Degradation, Degradation, Normal, Degradation) 0.0, 0.0, 1.0;
  (Failed, Degradation, Degradation, Normal, Degradation) 0.0, 0.0, 1.0;
  (Normal, Failed, Degradation, Normal, Degradation) 0.0, 1.0, 0.0;
  (Degradation, Failed, Degradation, Normal, Degradation) 0.0, 1.0, 0.0;
  (Failed, Failed, Degradation, Normal, Degradation) 0.0, 0.0, 1.0;
  (Normal, Normal, Failed, Normal, Degradation) 0.0, 1.0, 0.0;
  (Degradation, Normal, Failed, Normal, Degradation) 0.0, 1.0, 0.0;
  (Failed, Normal, Failed, Normal, Degradation) 0.0, 0.0, 1.0;
  (Normal, Degradation, Failed, Normal, Degradation) 0.0, 0.0, 1.0;
  (Degradation, Degradation, Failed, Normal, Degradation) 0.0, 0.0, 1.0;
  (Failed, Degradation, Failed, Normal, Degradation) 0.0, 0.0, 1.0;
  (Normal, Failed, Failed, Normal, Degradation) 0.0, 0.0, 1.0;
  (Degradation, Failed, Failed, Normal, Degradation) 0.0, 0.0, 1.0;
  (Failed, Failed, Failed, Normal, Degradation) 0.0, 0.0, 1.0;
  (Normal, Normal, Normal, Degradation, Degradation) 0.0, 0.0, 1.0;
  (Degradation, Normal, Normal, Degradation, Degradation) 0.0, 0.0, 1.0;
  (Failed, Normal, Normal, Degradation, Degradation) 0.0, 0.0, 1.0;
  (Normal, Degradation, Normal, Degradation, Degradation) 0.0, 0.0, 1.0;
  (Degradation, Degradation, Normal, Degradation, Degradation) 0.0, 0.0, 1.0;
  (Failed, Degradation, Normal, Degradation, Degradation) 0.0, 0.0, 1.0;
  (Normal, Failed, Normal, Degradation, Degradation) 0.0, 1.0, 0.0;
  (Degradation, Failed, Normal, Degradation, Degradation) 0.0, 1.0, 0.0;
  (Failed, Failed, Normal, Degradation, Degradation) 0.0, 0.0, 1.0;
  (Normal, Normal, Degradation, Degradation, Degradation) 0.0, 1.0, 0.0;
  (Degradation, Normal, Degradation, Degradation, Degradation) 0.0, 1.0, 0.0;
  (Failed, Normal, Degradation, Degradation, Degradation) 0.0, 0.0, 1.0;
  (Normal, Degradation, Degradation, Degradation, Degradation) 0.0, 1.0, 0.0;
  (Degradation, Degradation, Degradation, Degradation, Degradation) 0.0, 0.0, 1.0;
  (Failed, Degradation, Degradation, Degradation, Degradation) 0.0, 0.0, 1.0;
  (Normal, Failed, Degradation, Degradation, Degradation) 0.0, 0.0, 1.0;
  (Degradation, Failed, Degradation, Degradation, Degradation) 0.0, 0.0, 1.0;
  (Failed, Failed, Degradation, Degradation, Degradation) 0.0, 1.0, 0.0;
  (Normal, Normal, Failed, Degradation, Degradation) 0.0, 1.0, 0.0;
  (Degradation, Normal, Failed, Degradation, Degradation) 0.0, 0.0, 1.0;
  (Failed, Normal, Failed, Degradation, Degradation) 0.0, 1.0, 0.0;
  (Normal, Degradation, Failed, Degradation, Degradation) 0.0, 1.0, 0.0;
  (Degradation, Degradation, Failed, Degradation, Degradation) 0.0, 0.0, 1.0;
  (Failed, Degradation, Failed, Degradation, Degradation) 0.0, 0.0, 1.0;
  (Normal, Failed, Failed, Degradation, Degradation) 0.0, 0.0, 1.0;
  (Degradation, Failed, Failed, Degradation, Degradation) 0.0, 0.0, 1.0;
  (Failed, Failed, Failed, Degradation, Degradation) 0.0, 0.0, 1.0;
  (Normal, Normal, Normal, Failed, Degradation) 0.0, 0.0, 1.0;
  (Degradation, Normal, Normal, Failed, Degradation) 0.0, 0.0, 1.0;
  (Failed, Normal, Normal, Failed, Degradation) 0.0, 0.0, 1.0;
  (Normal, Degradation, Normal, Failed, Degradation) 0.0, 0.0, 1.0;
  (Degradation, Degradation, Normal, Failed, Degradation) 0.0, 0.0, 1.0;
  (Failed, Degradation, Normal, Failed, Degradation) 0.0, 0.0, 1.0;
  (Normal, Failed, Normal, Failed, Degradation) 0.0, 0.0, 1.0;
  (Degradation, Failed, Normal, Failed, Degradation) 0.0, 0.0, 1.0;
  (Failed, Failed, Normal, Failed, Degradation) 0.0, 0.0, 1.0;
  (Normal, Normal, Degradation, Failed, Degradation) 0.0, 0.0, 1.0;
  (Degradation, Normal, Degradation, Failed, Degradation) 0.0, 0.0, 1.0;
  (Failed, Normal, Degradation, Failed, Degradation) 0.0, 0.0, 1.0;
  (Normal, Degradation, Degradation, Failed, Degradation) 0.0, 0.0, 1.0;
  (Degradation, Degradation, Degradation, Failed, Degradation) 0.0, 0.0, 1.0;
  (Failed, Degradation, Degradation, Failed, Degradation) 0.0, 0.0, 1.0;
  (Normal, Failed, Degradation, Failed, Degradation) 0.0, 0.0, 1.0;
  (Degradation, Failed, Degradation, Failed, Degradation) 0.0, 0.0, 1.0;
  (Failed, Failed, Degradation, Failed, Degradation) 0.0, 0.0, 1.0;
  (Normal, Normal, Failed, Failed, Degradation) 0.0, 0.0, 1.0;
  (Degradation, Normal, Failed, Failed, Degradation) 0.0, 0.0, 1.0;
  (Failed, Normal, Failed, Failed, Degradation) 0.0, 0.0, 1.0;
  (Normal, Degradation, Failed, Failed, Degradation) 0.0, 0.0, 1.0;
  (Degradation, Degradation, Failed, Failed, Degradation) 0.0, 0.0, 1.0;
  (Failed, Degradation, Failed, Failed, Degradation) 0.0, 0.0, 1.0;
  (Normal, Failed, Failed, Failed, Degradation) 0.0, 0.0, 1.0;
  (Degradation, Failed, Failed, Failed, Degradation) 0.0, 0.0, 1.0;
  (Failed, Failed, Failed, Failed, Degradation) 0.0, 0.0, 1.0;
  (Normal, Normal, Normal, Normal, Failed) 0.0, 0.0, 1.0;
  (Degradation, Normal, Normal, Normal, Failed) 0.0, 0.0, 1.0;
  (Failed, Normal, Normal, Normal, Failed) 0.0, 0.0, 1.0;
  (Normal, Degradation, Normal, Normal, Failed) 0.0, 0.0, 1.0;
  (Degradation, Degradation, Normal, Normal, Failed) 0.0, 0.0, 1.0;
  (Failed, Degradation, Normal, Normal, Failed) 0.0, 0.0, 1.0;
  (Normal, Failed, Normal, Normal, Failed) 0.0, 0.0, 1.0;
  (Degradation, Failed, Normal, Normal, Failed) 0.0, 0.0, 1.0;
  (Failed, Failed, Normal, Normal, Failed) 0.0, 0.0, 1.0;
  (Normal, Normal, Degradation, Normal, Failed) 0.0, 0.0, 1.0;
  (Degradation, Normal, Degradation, Normal, Failed) 0.0, 0.0, 1.0;
  (Failed, Normal, Degradation, Normal, Failed) 0.0, 0.0, 1.0;
  (Normal, Degradation, Degradation, Normal, Failed) 0.0, 0.0, 1.0;
  (Degradation, Degradation, Degradation, Normal, Failed) 0.0, 0.0, 1.0;
  (Failed, Degradation, Degradation, Normal, Failed) 0.0, 0.0, 1.0;
  (Normal, Failed, Degradation, Normal, Failed) 0.0, 0.0, 1.0;
  (Degradation, Failed, Degradation, Normal, Failed) 0.0, 0.0, 1.0;
  (Failed, Failed, Degradation, Normal, Failed) 0.0, 0.0, 1.0;
  (Normal, Normal, Failed, Normal, Failed) 0.0, 0.0, 1.0;
  (Degradation, Normal, Failed, Normal, Failed) 0.0, 0.0, 1.0;
  (Failed, Normal, Failed, Normal, Failed) 0.0, 0.0, 1.0;
  (Normal, Degradation, Failed, Normal, Failed) 0.0, 0.0, 1.0;
  (Degradation, Degradation, Failed, Normal, Failed) 0.0, 0.0, 1.0;
  (Failed, Degradation, Failed, Normal, Failed) 0.0, 0.0, 1.0;
  (Normal, Failed, Failed, Normal, Failed) 0.0, 0.0, 1.0;
  (Degradation, Failed, Failed, Normal, Failed) 0.0, 0.0, 1.0;
  (Failed, Failed, Failed, Normal, Failed) 0.0, 0.0, 1.0;
  (Normal, Normal, Normal, Degradation, Failed) 0.0, 0.0, 1.0;
  (Degradation, Normal, Normal, Degradation, Failed) 0.0, 0.0, 1.0;
  (Failed, Normal, Normal, Degradation, Failed) 0.0, 0.0, 1.0;
  (Normal, Degradation, Normal, Degradation, Failed) 0.0, 0.0, 1.0;
  (Degradation, Degradation, Normal, Degradation, Failed) 0.0, 0.0, 1.0;
  (Failed, Degradation, Normal, Degradation, Failed) 0.0, 0.0, 1.0;
  (Normal, Failed, Normal, Degradation, Failed) 0.0, 0.0, 1.0;
  (Degradation, Failed, Normal, Degradation, Failed) 0.0, 0.0, 1.0;
  (Failed, Failed, Normal, Degradation, Failed) 0.0, 0.0, 1.0;
  (Normal, Normal, Degradation, Degradation, Failed) 0.0, 0.0, 1.0;
  (Degradation, Normal, Degradation, Degradation, Failed) 0.0, 0.0, 1.0;
  (Failed, Normal, Degradation, Degradation, Failed) 0.0, 0.0, 1.0;
  (Normal, Degradation, Degradation, Degradation, Failed) 0.0, 0.0, 1.0;
  (Degradation, Degradation, Degradation, Degradation, Failed) 0.0, 0.0, 1.0;
  (Failed, Degradation, Degradation, Degradation, Failed) 0.0, 0.0, 1.0;
  (Normal, Failed, Degradation, Degradation, Failed) 0.0, 0.0, 1.0;
  (Degradation, Failed, Degradation, Degradation, Failed) 0.0, 0.0, 1.0;
  (Failed, Failed, Degradation, Degradation, Failed) 0.0, 0.0, 1.0;
  (Normal, Normal, Failed, Degradation, Failed) 0.0, 0.0, 1.0;
  (Degradation, Normal, Failed, Degradation, Failed) 0.0, 0.0, 1.0;
  (Failed, Normal, Failed, Degradation, Failed) 0.0, 0.0, 1.0;
  (Normal, Degradation, Failed, Degradation, Failed) 0.0, 0.0, 1.0;
  (Degradation, Degradation, Failed, Degradation, Failed) 0.0, 0.0, 1.0;
  (Failed, Degradation, Failed, Degradation, Failed) 0.0, 0.0, 1.0;
  (Normal, Failed, Failed, Degradation, Failed) 0.0, 0.0, 1.0;
  (Degradation, Failed, Failed, Degradation, Failed) 0.0, 0.0, 1.0;
  (Failed, Failed, Failed, Degradation, Failed) 0.0, 0.0, 1.0;
  (Normal, Normal, Normal, Failed, Failed) 0.0, 0.0, 1.0;
  (Degradation, Normal, Normal, Failed, Failed) 0.0, 0.0, 1.0;
  (Failed, Normal, Normal, Failed, Failed) 0.0, 0.0, 1.0;
  (Normal, Degradation, Normal, Failed, Failed) 0.0, 0.0, 1.0;
  (Degradation, Degradation, Normal, Failed, Failed) 0.0, 0.0, 1.0;
  (Failed, Degradation, Normal, Failed, Failed) 0.0, 0.0, 1.0;
  (Normal, Failed, Normal, Failed, Failed) 0.0, 0.0, 1.0;
  (Degradation, Failed, Normal, Failed, Failed) 0.0, 0.0, 1.0;
  (Failed, Failed, Normal, Failed, Failed) 0.0, 0.0, 1.0;
  (Normal, Normal, Degradation, Failed, Failed) 0.0, 0.0, 1.0;
  (Degradation, Normal, Degradation, Failed, Failed) 0.0, 0.0, 1.0;
  (Failed, Normal, Degradation, Failed, Failed) 0.0, 0.0, 1.0;
  (Normal, Degradation, Degradation, Failed, Failed) 0.0, 0.0, 1.0;
  (Degradation, Degradation, Degradation, Failed, Failed) 0.0, 0.0, 1.0;
  (Failed, Degradation, Degradation, Failed, Failed) 0.0, 0.0, 1.0;
  (Normal, Failed, Degradation, Failed, Failed) 0.0, 0.0, 1.0;
  (Degradation, Failed, Degradation, Failed, Failed) 0.0, 0.0, 1.0;
  (Failed, Failed, Degradation, Failed, Failed) 0.0, 0.0, 1.0;
  (Normal, Normal, Failed, Failed, Failed) 0.0, 0.0, 1.0;
  (Degradation, Normal, Failed, Failed, Failed) 0.0, 0.0, 1.0;
  (Failed, Normal, Failed, Failed, Failed) 0.0, 0.0, 1.0;
  (Normal, Degradation, Failed, Failed, Failed) 0.0, 0.0, 1.0;
  (Degradation, Degradation, Failed, Failed, Failed) 0.0, 0.0, 1.0;
  (Failed, Degradation, Failed, Failed, Failed) 0.0, 0.0, 1.0;
  (Normal, Failed, Failed, Failed, Failed) 0.0, 0.0, 1.0;
  (Degradation, Failed, Failed, Failed, Failed) 0.0, 0.0, 1.0;
  (Failed, Failed, Failed, Failed, Failed) 0.0, 0.0, 1.0;
}
probability ( LocalizedHighTemperatures ) {
  table 0.9973, 0.0010, 0.0017;
}
probability ( Moisture ) {
  table 0.9973, 0.0010, 0.0017;
}
probability ( PlasticDeformation | ImproperAssembly, ImproperLubrification, Indentation ) {
  (Normal, Normal, Normal) 1.0, 0.0, 0.0;
  (Degradation, Normal, Normal) 0.0, 1.0, 0.0;
  (Failed, Normal, Normal) 0.0, 0.0, 1.0;
  (Normal, Degradation, Normal) 0.0, 1.0, 0.0;
  (Degradation, Degradation, Normal) 0.0, 1.0, 0.0;
  (Failed, Degradation, Normal) 0.0, 0.0, 1.0;
  (Normal, Failed, Normal) 0.0, 0.0, 1.0;
  (Degradation, Failed, Normal) 0.0, 0.0, 1.0;
  (Failed, Failed, Normal) 0.0, 0.0, 1.0;
  (Normal, Normal, Degradation) 0.0, 1.0, 0.0;
  (Degradation, Normal, Degradation) 0.0, 1.0, 0.0;
  (Failed, Normal, Degradation) 0.0, 0.0, 1.0;
  (Normal, Degradation, Degradation) 0.0, 1.0, 0.0;
  (Degradation, Degradation, Degradation) 0.0, 1.0, 0.0;
  (Failed, Degradation, Degradation) 0.0, 0.0, 1.0;
  (Normal, Failed, Degradation) 0.0, 0.0, 1.0;
  (Degradation, Failed, Degradation) 0.0, 0.0, 1.0;
  (Failed, Failed, Degradation) 0.0, 0.0, 1.0;
  (Normal, Normal, Failed) 0.0, 0.0, 1.0;
  (Degradation, Normal, Failed) 0.0, 0.0, 1.0;
  (Failed, Normal, Failed) 0.0, 0.0, 1.0;
  (Normal, Degradation, Failed) 0.0, 0.0, 1.0;
  (Degradation, Degradation, Failed) 0.0, 0.0, 1.0;
  (Failed, Degradation, Failed) 0.0, 0.0, 1.0;
  (Normal, Failed, Failed) 0.0, 0.0, 1.0;
  (Degradation, Failed, Failed) 0.0, 0.0, 1.0;
  (Failed, Failed, Failed) 0.0, 0.0, 1.0;
}
probability ( PoorCooling ) {
  table 0.99952, 0.00030, 0.00018;
}
probability ( PoorLubrification ) {
  table 0.9996, 0.0002, 0.0002;
}
probability ( PresenceAbrasiveParticles ) {
  table 0.9973, 0.0010, 0.0017;
}
probability ( ScratchVibration ) {
  table 0.99952, 0.00030, 0.00018;
}
probability ( SeverePartialDischarges ) {
  table 0.9996, 0.0002, 0.0002;
}
probability ( SurfaceCorrosion ) {
  table 0.99965, 0.00025, 0.00010;
}
probability ( SystemDegradation | CorrosionFailure, InsulationDeterioration, PlasticDeformation, WearFault ) {
  (Normal, Normal, Normal, Normal) 1.0, 0.0, 0.0;
  (Degradation, Normal, Normal, Normal) 0.0, 1.0, 0.0;
  (Failed, Normal, Normal, Normal) 0.0, 0.0, 1.0;
  (Normal, Degradation, Normal, Normal) 0.0, 1.0, 0.0;
  (Degradation, Degradation, Normal, Normal) 0.0, 1.0, 0.0;
  (Failed, Degradation, Normal, Normal) 0.0, 0.0, 1.0;
  (Normal, Failed, Normal, Normal) 0.0, 0.0, 1.0;
  (Degradation, Failed, Normal, Normal) 0.0, 0.0, 1.0;
  (Failed, Failed, Normal, Normal) 0.0, 0.0, 1.0;
  (Normal, Normal, Degradation, Normal) 0.0, 1.0, 0.0;
  (Degradation, Normal, Degradation, Normal) 0.0, 1.0, 0.0;
  (Failed, Normal, Degradation, Normal) 0.0, 0.0, 1.0;
  (Normal, Degradation, Degradation, Normal) 0.0, 1.0, 0.0;
  (Degradation, Degradation, Degradation, Normal) 0.0, 1.0, 0.0;
  (Failed, Degradation, Degradation, Normal) 0.0, 0.0, 1.0;
  (Normal, Failed, Degradation, Normal) 0.0, 0.0, 1.0;
  (Degradation, Failed, Degradation, Normal) 0.0, 0.0, 1.0;
  (Failed, Failed, Degradation, Normal) 0.0, 0.0, 1.0;
  (Normal, Normal, Failed, Normal) 0.0, 0.0, 1.0;
  (Degradation, Normal, Failed, Normal) 0.0, 0.0, 1.0;
  (Failed, Normal, Failed, Normal) 0.0, 0.0, 1.0;
  (Normal, Degradation, Failed, Normal) 0.0, 0.0, 1.0;
  (Degradation, Degradation, Failed, Normal) 0.0, 0.0, 1.0;
  (Failed, Degradation, Failed, Normal) 0.0, 0.0, 1.0;
  (Normal, Failed, Failed, Normal) 0.0, 0.0, 1.0;
  (Degradation, Failed, Failed, Normal) 0.0, 0.0, 1.0;
  (Failed, Failed, Failed, Normal) 0.0, 0.0, 1.0;
  (Normal, Normal, Normal, Degradation) 0.0, 1.0, 0.0;
  (Degradation, Normal, Normal, Degradation) 0.0, 1.0, 0.0;
  (Failed, Normal, Normal, Degradation) 0.0, 0.0, 1.0;
  (Normal, Degradation, Normal, Degradation) 0.0, 1.0, 0.0;
  (Degradation, Degradation, Normal, Degradation) 0.0, 1.0, 0.0;
  (Failed, Degradation, Normal, Degradation) 0.0, 0.0, 1.0;
  (Normal, Failed, Normal, Degradation) 0.0, 0.0, 1.0;
  (Degradation, Failed, Normal, Degradation) 0.0, 0.0, 1.0;
  (Failed, Failed, Normal, Degradation) 0.0, 0.0, 1.0;
  (Normal, Normal, Degradation, Degradation) 0.0, 1.0, 0.0;
  (Degradation, Normal, Degradation, Degradation) 0.0, 1.0, 0.0;
  (Failed, Normal, Degradation, Degradation) 0.0, 0.0, 1.0;
  (Normal, Degradation, Degradation, Degradation) 0.0, 1.0, 0.0;
  (Degradation, Degradation, Degradation, Degradation) 0.0, 1.0, 0.0;
  (Failed, Degradation, Degradation, Degradation) 0.0, 0.0, 1.0;
  (Normal, Failed, Degradation, Degradation) 0.0, 0.0, 1.0;
  (Degradation, Failed, Degradation, Degradation) 0.0, 0.0, 1.0;
  (Failed, Failed, Degradation, Degradation) 0.0, 0.0, 1.0;
  (Normal, Normal, Failed, Degradation) 0.0, 0.0, 1.0;
  (Degradation, Normal, Failed, Degradation) 0.0, 0.0, 1.0;
  (Failed, Normal, Failed, Degradation) 0.0, 0.0, 1.0;
  (Normal, Degradation, Failed, Degradation) 0.0, 0.0, 1.0;
  (Degradation, Degradation, Failed, Degradation) 0.0, 0.0, 1.0;
  (Failed, Degradation, Failed, Degradation) 0.0, 0.0, 1.0;
  (Normal, Failed, Failed, Degradation) 0.0, 0.0, 1.0;
  (Degradation, Failed, Failed, Degradation) 0.0, 0.0, 1.0;
  (Failed, Failed, Failed, Degradation) 0.0, 0.0, 1.0;
  (Normal, Normal, Normal, Failed) 0.0, 0.0, 1.0;
  (Degradation, Normal, Normal, Failed) 0.0, 0.0, 1.0;
  (Failed, Normal, Normal, Failed) 0.0, 0.0, 1.0;
  (Normal, Degradation, Normal, Failed) 0.0, 0.0, 1.0;
  (Degradation, Degradation, Normal, Failed) 0.0, 0.0, 1.0;
  (Failed, Degradation, Normal, Failed) 0.0, 0.0, 1.0;
  (Normal, Failed, Normal, Failed) 0.0, 0.0, 1.0;
  (Degradation, Failed, Normal, Failed) 0.0, 0.0, 1.0;
  (Failed, Failed, Normal, Failed) 0.0, 0.0, 1.0;
  (Normal, Normal, Degradation, Failed) 0.0, 0.0, 1.0;
  (Degradation, Normal, Degradation, Failed) 0.0, 0.0, 1.0;
  (Failed, Normal, Degradation, Failed) 0.0, 0.0, 1.0;
  (Normal, Degradation, Degradation, Failed) 0.0, 0.0, 1.0;
  (Degradation, Degradation, Degradation, Failed) 0.0, 0.0, 1.0;
  (Failed, Degradation, Degradation, Failed) 0.0, 0.0, 1.0;
  (Normal, Failed, Degradation, Failed) 0.0, 0.0, 1.0;
  (Degradation, Failed, Degradation, Failed) 0.0, 0.0, 1.0;
  (Failed, Failed, Degradation, Failed) 0.0, 0.0, 1.0;
  (Normal, Normal, Failed, Failed) 0.0, 0.0, 1.0;
  (Degradation, Normal, Failed, Failed) 0.0, 0.0, 1.0;
  (Failed, Normal, Failed, Failed) 0.0, 0.0, 1.0;
  (Normal, Degradation, Failed, Failed) 0.0, 0.0, 1.0;
  (Degradation, Degradation, Failed, Failed) 0.0, 0.0, 1.0;
  (Failed, Degradation, Failed, Failed) 0.0, 0.0, 1.0;
  (Normal, Failed, Failed, Failed) 0.0, 0.0, 1.0;
  (Degradation, Failed, Failed, Failed) 0.0, 0.0, 1.0;
  (Failed, Failed, Failed, Failed) 0.0, 0.0, 1.0;
}
probability ( WearFault | ExcessiveSpeed, HighTemperatureGluing, InappropriateClearance, PoorLubrification, PresenceAbrasiveParticles, ScratchVibration ) {
  (Normal, Normal, Normal, Normal, Normal, Normal) 1.0, 0.0, 0.0;
  (Degradation, Normal, Normal, Normal, Normal, Normal) 0.0, 1.0, 0.0;
  (Failed, Normal, Normal, Normal, Normal, Normal) 0.0, 0.0, 1.0;
  (Normal, Degradation, Normal, Normal, Normal, Normal) 0.0, 1.0, 0.0;
  (Degradation, Degradation, Normal, Normal, Normal, Normal) 0.0, 1.0, 0.0;
  (Failed, Degradation, Normal, Normal, Normal, Normal) 0.0, 0.0, 1.0;
  (Normal, Failed, Normal, Normal, Normal, Normal) 0.0, 0.0, 1.0;
  (Degradation, Failed, Normal, Normal, Normal, Normal) 0.0, 0.0, 1.0;
  (Failed, Failed, Normal, Normal, Normal, Normal) 0.0, 0.0, 1.0;
  (Normal, Normal, Degradation, Normal, Normal, Normal) 0.0, 1.0, 0.0;
  (Degradation, Normal, Degradation, Normal, Normal, Normal) 0.0, 1.0, 0.0;
  (Failed, Normal, Degradation, Normal, Normal, Normal) 0.0, 0.0, 1.0;
  (Normal, Degradation, Degradation, Normal, Normal, Normal) 0.0, 1.0, 0.0;
  (Degradation, Degradation, Degradation, Normal, Normal, Normal) 0.0, 1.0, 0.0;
  (Failed, Degradation, Degradation, Normal, Normal, Normal) 0.0, 0.0, 1.0;
  (Normal, Failed, Degradation, Normal, Normal, Normal) 0.0, 0.0, 1.0;
  (Degradation, Failed, Degradation, Normal, Normal, Normal) 0.0, 0.0, 1.0;
  (Failed, Failed, Degradation, Normal, Normal, Normal) 0.0, 0.0, 1.0;
  (Normal, Normal, Failed, Normal, Normal, Normal) 0.0, 0.0, 1.0;
  (Degradation, Normal, Failed, Normal, Normal, Normal) 0.0, 0.0, 1.0;
  (Failed, Normal, Failed, Normal, Normal, Normal) 0.0, 0.0, 1.0;
  (Normal, Degradation, Failed, Normal, Normal, Normal) 0.0, 0.0, 1.0;
  (Degradation, Degradation, Failed, Normal, Normal, Normal) 0.0, 0.0, 1.0;
  (Failed, Degradation, Failed, Normal, Normal, Normal) 0.0, 0.0, 1.0;
  (Normal, Failed, Failed, Normal, Normal, Normal) 0.0, 0.0, 1.0;
  (Degradation, Failed, Failed, Normal, Normal, Normal) 0.0, 0.0, 1.0;
  (Failed, Failed, Failed, Normal, Normal, Normal) 0.0, 0.0, 1.0;
  (Normal, Normal, Normal, Degradation, Normal, Normal) 0.0, 1.0, 0.0;
  (Degradation, Normal, Normal, Degradation, Normal, Normal) 0.0, 1.0, 0.0;
  (Failed, Normal, Normal, Degradation, Normal, Normal) 0.0, 0.0, 1.0;
  (Normal, Degradation, Normal, Degradation, Normal, Normal) 0.0, 1.0, 0.0;
  (Degradation, Degradation, Normal, Degradation, Normal, Normal) 0.0, 1.0, 0.0;
  (Failed, Degradation, Normal, Degradation, Normal, Normal) 0.0, 0.0, 1.0;
  (Normal, Failed, Normal, Degradation, Normal, Normal) 0.0, 0.0, 1.0;
  (Degradation, Failed, Normal, Degradation, Normal, Normal) 0.0, 0.0, 1.0;
  (Failed, Failed, Normal, Degradation, Normal, Normal) 0.0, 0.0, 1.0;
  (Normal, Normal, Degradation, Degradation, Normal, Normal) 0.0, 1.0, 0.0;
  (Degradation, Normal, Degradation, Degradation, Normal, Normal) 0.0, 1.0, 0.0;
  (Failed, Normal, Degradation, Degradation, Normal, Normal) 0.0, 0.0, 1.0;
  (Normal, Degradation, Degradation, Degradation, Normal, Normal) 0.0, 1.0, 0.0;
  (Degradation, Degradation, Degradation, Degradation, Normal, Normal) 0.0, 1.0, 0.0;
  (Failed, Degradation, Degradation, Degradation, Normal, Normal) 0.0, 0.0, 1.0;
  (Normal, Failed, Degradation, Degradation, Normal, Normal) 0.0, 0.0, 1.0;
  (Degradation, Failed, Degradation, Degradation, Normal, Normal) 0.0, 0.0, 1.0;
  (Failed, Failed, Degradation, Degradation, Normal, Normal) 0.0, 0.0, 1.0;
  (Normal, Normal, Failed, Degradation, Normal, Normal) 0.0, 0.0, 1.0;
  (Degradation, Normal, Failed, Degradation, Normal, Normal) 0.0, 0.0, 1.0;
  (Failed, Normal, Failed, Degradation, Normal, Normal) 0.0, 0.0, 1.0;
  (Normal, Degradation, Failed, Degradation, Normal, Normal) 0.0, 0.0, 1.0;
  (Degradation, Degradation, Failed, Degradation, Normal, Normal) 0.0, 0.0, 1.0;
  (Failed, Degradation, Failed, Degradation, Normal, Normal) 0.0, 0.0, 1.0;
  (Normal, Failed, Failed, Degradation, Normal, Normal) 0.0, 0.0, 1.0;
  (Degradation, Failed, Failed, Degradation, Normal, Normal) 0.0, 0.0, 1.0;
  (Failed, Failed, Failed, Degradation, Normal, Normal) 0.0, 0.0, 1.0;
  (Normal, Normal, Normal, Failed, Normal, Normal) 0.0, 0.0, 1.0;
  (Degradation, Normal, Normal, Failed, Normal, Normal) 0.0, 0.0, 1.0;
  (Failed, Normal, Normal, Failed, Normal, Normal) 0.0, 0.0, 1.0;
  (Normal, Degradation, Normal, Failed, Normal, Normal) 0.0, 0.0, 1.0;
  (Degradation, Degradation, Normal, Failed, Normal, Normal) 0.0, 0.0, 1.0;
  (Failed, Degradation, Normal, Failed, Normal, Normal) 0.0, 0.0, 1.0;
  (Normal, Failed, Normal, Failed, Normal, Normal) 0.0, 0.0, 1.0;
  (Degradation, Failed, Normal, Failed, Normal, Normal) 0.0, 0.0, 1.0;
  (Failed, Failed, Normal, Failed, Normal, Normal) 0.0, 0.0, 1.0;
  (Normal, Normal, Degradation, Failed, Normal, Normal) 0.0, 0.0, 1.0;
  (Degradation, Normal, Degradation, Failed, Normal, Normal) 0.0, 0.0, 1.0;
  (Failed, Normal, Degradation, Failed, Normal, Normal) 0.0, 0.0, 1.0;
  (Normal, Degradation, Degradation, Failed, Normal, Normal) 0.0, 0.0, 1.0;
  (Degradation, Degradation, Degradation, Failed, Normal, Normal) 0.0, 0.0, 1.0;
  (Failed, Degradation, Degradation, Failed, Normal, Normal) 0.0, 0.0, 1.0;
  (Normal, Failed, Degradation, Failed, Normal, Normal) 0.0, 0.0, 1.0;
  (Degradation, Failed, Degradation, Failed, Normal, Normal) 0.0, 0.0, 1.0;
  (Failed, Failed, Degradation, Failed, Normal, Normal) 0.0, 0.0, 1.0;
  (Normal, Normal, Failed, Failed, Normal, Normal) 0.0, 0.0, 1.0;
  (Degradation, Normal, Failed, Failed, Normal, Normal) 0.0, 0.0, 1.0;
  (Failed, Normal, Failed, Failed, Normal, Normal) 0.0, 0.0, 1.0;
  (Normal, Degradation, Failed, Failed, Normal, Normal) 0.0, 0.0, 1.0;
  (Degradation, Degradation, Failed, Failed, Normal, Normal) 0.0, 0.0, 1.0;
  (Failed, Degradation, Failed, Failed, Normal, Normal) 0.0, 0.0, 1.0;
  (Normal, Failed, Failed, Failed, Normal, Normal) 0.0, 0.0, 1.0;
  (Degradation, Failed, Failed, Failed, Normal, Normal) 0.0, 0.0, 1.0;
  (Failed, Failed, Failed, Failed, Normal, Normal) 0.0, 0.0, 1.0;
  (Normal, Normal, Normal, Normal, Degradation, Normal) 0.0, 1.0, 0.0;
  (Degradation, Normal, Normal, Normal, Degradation, Normal) 0.0, 1.0, 0.0;
  (Failed, Normal, Normal, Normal, Degradation, Normal) 0.0, 0.0, 1.0;
  (Normal, Degradation, Normal, Normal, Degradation, Normal) 0.0, 1.0, 0.0;
  (Degradation, Degradation, Normal, Normal, Degradation, Normal) 0.0, 1.0, 0.0;
  (Failed, Degradation, Normal, Normal, Degradation, Normal) 0.0, 0.0, 1.0;
  (Normal, Failed, Normal, Normal, Degradation, Normal) 0.0, 0.0, 1.0;
  (Degradation, Failed, Normal, Normal, Degradation, Normal) 0.0, 0.0, 1.0;
  (Failed, Failed, Normal, Normal, Degradation, Normal) 0.0, 0.0, 1.0;
  (Normal, Normal, Degradation, Normal, Degradation, Normal) 0.0, 1.0, 0.0;
  (Degradation, Normal, Degradation, Normal, Degradation, Normal) 0.0, 1.0, 0.0;
  (Failed, Normal, Degradation, Normal, Degradation, Normal) 0.0, 0.0, 1.0;
  (Normal, Degradation, Degradation, Normal, Degradation, Normal) 0.0, 1.0, 0.0;
  (Degradation, Degradation, Degradation, Normal, Degradation, Normal) 0.0, 1.0, 0.0;
  (Failed, Degradation, Degradation, Normal, Degradation, Normal) 0.0, 0.0, 1.0;
  (Normal, Failed, Degradation, Normal, Degradation, Normal) 0.0, 0.0, 1.0;
  (Degradation, Failed, Degradation, Normal, Degradation, Normal) 0.0, 0.0, 1.0;
  (Failed, Failed, Degradation, Normal, Degradation, Normal) 0.0, 0.0, 1.0;
  (Normal, Normal, Failed, Normal, Degradation, Normal) 0.0, 0.0, 1.0;
  (Degradation, Normal, Failed, Normal, Degradation, Normal) 0.0, 0.0, 1.0;
  (Failed, Normal, Failed, Normal, Degradation, Normal) 0.0, 0.0, 1.0;
  (Normal, Degradation, Failed, Normal, Degradation, Normal) 0.0, 0.0, 1.0;
  (Degradation, Degradation, Failed, Normal, Degradation, Normal) 0.0, 0.0, 1.0;
  (Failed, Degradation, Failed, Normal, Degradation, Normal) 0.0, 0.0, 1.0;
  (Normal, Failed, Failed, Normal, Degradation, Normal) 0.0, 0.0, 1.0;
  (Degradation, Failed, Failed, Normal, Degradation, Normal) 0.0, 0.0, 1.0;
  (Failed, Failed, Failed, Normal, Degradation, Normal) 0.0, 0.0, 1.0;
  (Normal, Normal, Normal, Degradation, Degradation, Normal) 0.0, 1.0, 0.0;
  (Degradation, Normal, Normal, Degradation, Degradation, Normal) 0.0, 1.0, 0.0;
  (Failed, Normal, Normal, Degradation, Degradation, Normal) 0.0, 0.0, 1.0;
  (Normal, Degradation, Normal, Degradation, Degradation, Normal) 0.0, 1.0, 0.0;
  (Degradation, Degradation, Normal, Degradation, Degradation, Normal) 0.0, 1.0, 0.0;
  (Failed, Degradation, Normal, Degradation, Degradation, Normal) 0.0, 0.0, 1.0;
  (Normal, Failed, Normal, Degradation, Degradation, Normal) 0.0, 0.0, 1.0;
  (Degradation, Failed, Normal, Degradation, Degradation, Normal) 0.0, 0.0, 1.0;
  (Failed, Failed, Normal, Degradation, Degradation, Normal) 0.0, 0.0, 1.0;
  (Normal, Normal, Degradation, Degradation, Degradation, Normal) 0.0, 1.0, 0.0;
  (Degradation, Normal, Degradation, Degradation, Degradation, Normal) 0.0, 1.0, 0.0;
  (Failed, Normal, Degradation, Degradation, Degradation, Normal) 0.0, 0.0, 1.0;
  (Normal, Degradation, Degradation, Degradation, Degradation, Normal) 0.0, 1.0, 0.0;
  (Degradation, Degradation, Degradation, Degradation, Degradation, Normal) 0.0, 1.0, 0.0;
  (Failed, Degradation, Degradation, Degradation, Degradation, Normal) 0.0, 0.0, 1.0;
  (Normal, Failed, Degradation, Degradation, Degradation, Normal) 0.0, 0.0, 1.0;
  (Degradation, Failed, Degradation, Degradation, Degradation, Normal) 0.0, 0.0, 1.0;
  (Failed, Failed, Degradation, Degradation, Degradation, Normal) 0.0, 0.0, 1.0;
  (Normal, Normal, Failed, Degradation, Degradation, Normal) 0.0, 0.0, 1.0;
  (Degradation, Normal, Failed, Degradation, Degradation, Normal) 0.0, 0.0, 1.0;
  (Failed, Normal, Failed, Degradation, Degradation, Normal) 0.0, 0.0, 1.0;
  (Normal, Degradation, Failed, Degradation, Degradation, Normal) 0.0, 0.0, 1.0;
  (Degradation, Degradation, Failed, Degradation, Degradation, Normal) 0.0, 0.0, 1.0;
  (Failed, Degradation, Failed, Degradation, Degradation, Normal) 0.0, 0.0, 1.0;
  (Normal, Failed, Failed, Degradation, Degradation, Normal) 0.0, 0.0, 1.0;
  (Degradation, Failed, Failed, Degradation, Degradation, Normal) 0.0, 0.0, 1.0;
  (Failed, Failed, Failed, Degradation, Degradation, Normal) 0.0, 0.0, 1.0;
  (Normal, Normal, Normal, Failed, Degradation, Normal) 0.0, 0.0, 1.0;
  (Degradation, Normal, Normal, Failed, Degradation, Normal) 0.0, 0.0, 1.0;
  (Failed, Normal, Normal, Failed, Degradation, Normal) 0.0, 0.0, 1.0;
  (Normal, Degradation, Normal, Failed, Degradation, Normal) 0.0, 0.0, 1.0;
  (Degradation, Degradation, Normal, Failed, Degradation, Normal) 0.0, 0.0, 1.0;
  (Failed, Degradation, Normal, Failed, Degradation, Normal) 0.0, 0.0, 1.0;
  (Normal, Failed, Normal, Failed, Degradation, Normal) 0.0, 0.0, 1.0;
  (Degradation, Failed, Normal, Failed, Degradation, Normal) 0.0, 0.0, 1.0;
  (Failed, Failed, Normal, Failed, Degradation, Normal) 0.0, 0.0, 1.0;
  (Normal, Normal, Degradation, Failed, Degradation, Normal) 0.0, 0.0, 1.0;
  (Degradation, Normal, Degradation, Failed, Degradation, Normal) 0.0, 0.0, 1.0;
  (Failed, Normal, Degradation, Failed, Degradation, Normal) 0.0, 0.0, 1.0;
  (Normal, Degradation, Degradation, Failed, Degradation, Normal) 0.0, 0.0, 1.0;
  (Degradation, Degradation, Degradation, Failed, Degradation, Normal) 0.0, 0.0, 1.0;
  (Failed, Degradation, Degradation, Failed, Degradation, Normal) 0.0, 0.0, 1.0;
  (Normal, Failed, Degradation, Failed, Degradation, Normal) 0.0, 0.0, 1.0;
  (Degradation, Failed, Degradation, Failed, Degradation, Normal) 0.0, 0.0, 1.0;
  (Failed, Failed, Degradation, Failed, Degradation, Normal) 0.0, 0.0, 1.0;
  (Normal, Normal, Failed, Failed, Degradation, Normal) 0.0, 0.0, 1.0;
  (Degradation, Normal, Failed, Failed, Degradation, Normal) 0.0, 0.0, 1.0;
  (Failed, Normal, Failed, Failed, Degradation, Normal) 0.0, 0.0, 1.0;
  (Normal, Degradation, Failed, Failed, Degradation, Normal) 0.0, 0.0, 1.0;
  (Degradation, Degradation, Failed, Failed, Degradation, Normal) 0.0, 0.0, 1.0;
  (Failed, Degradation, Failed, Failed, Degradation, Normal) 0.0, 0.0, 1.0;
  (Normal, Failed, Failed, Failed, Degradation, Normal) 0.0, 0.0, 1.0;
  (Degradation, Failed, Failed, Failed, Degradation, Normal) 0.0, 0.0, 1.0;
  (Failed, Failed, Failed, Failed, Degradation, Normal) 0.0, 0.0, 1.0;
  (Normal, Normal, Normal, Normal, Failed, Normal) 0.0, 0.0, 1.0;
  (Degradation, Normal, Normal, Normal, Failed, Normal) 0.0, 0.0, 1.0;
  (Failed, Normal, Normal, Normal, Failed, Normal) 0.0, 0.0, 1.0;
  (Normal, Degradation, Normal, Normal, Failed, Normal) 0.0, 0.0, 1.0;
  (Degradation, Degradation, Normal, Normal, Failed, Normal) 0.0, 0.0, 1.0;
  (Failed, Degradation, Normal, Normal, Failed, Normal) 0.0, 0.0, 1.0;
  (Normal, Failed, Normal, Normal, Failed, Normal) 0.0, 0.0, 1.0;
  (Degradation, Failed, Normal, Normal, Failed, Normal) 0.0, 0.0, 1.0;
  (Failed, Failed, Normal, Normal, Failed, Normal) 0.0, 0.0, 1.0;
  (Normal, Normal, Degradation, Normal, Failed, Normal) 0.0, 0.0, 1.0;
  (Degradation, Normal, Degradation, Normal, Failed, Normal) 0.0, 0.0, 1.0;
  (Failed, Normal, Degradation, Normal, Failed, Normal) 0.0, 0.0, 1.0;
  (Normal, Degradation, Degradation, Normal, Failed, Normal) 0.0, 0.0, 1.0;
  (Degradation, Degradation, Degradation, Normal, Failed, Normal) 0.0, 0.0, 1.0;
  (Failed, Degradation, Degradation, Normal, Failed, Normal) 0.0, 0.0, 1.0;
  (Normal, Failed, Degradation, Normal, Failed, Normal) 0.0, 0.0, 1.0;
  (Degradation, Failed, Degradation, Normal, Failed, Normal) 0.0, 0.0, 1.0;
  (Failed, Failed, Degradation, Normal, Failed, Normal) 0.0, 0.0, 1.0;
  (Normal, Normal, Failed, Normal, Failed, Normal) 0.0, 0.0, 1.0;
  (Degradation, Normal, Failed, Normal, Failed, Normal) 0.0, 0.0, 1.0;
  (Failed, Normal, Failed, Normal, Failed, Normal) 0.0, 0.0, 1.0;
  (Normal, Degradation, Failed, Normal, Failed, Normal) 0.0, 0.0, 1.0;
  (Degradation, Degradation, Failed, Normal, Failed, Normal) 0.0, 0.0, 1.0;
  (Failed, Degradation, Failed, Normal, Failed, Normal) 0.0, 0.0, 1.0;
  (Normal, Failed, Failed, Normal, Failed, Normal) 0.0, 0.0, 1.0;
  (Degradation, Failed, Failed, Normal, Failed, Normal) 0.0, 0.0, 1.0;
  (Failed, Failed, Failed, Normal, Failed, Normal) 0.0, 0.0, 1.0;
  (Normal, Normal, Normal, Degradation, Failed, Normal) 0.0, 0.0, 1.0;
  (Degradation, Normal, Normal, Degradation, Failed, Normal) 0.0, 0.0, 1.0;
  (Failed, Normal, Normal, Degradation, Failed, Normal) 0.0, 0.0, 1.0;
  (Normal, Degradation, Normal, Degradation, Failed, Normal) 0.0, 0.0, 1.0;
  (Degradation, Degradation, Normal, Degradation, Failed, Normal) 0.0, 0.0, 1.0;
  (Failed, Degradation, Normal, Degradation, Failed, Normal) 0.0, 0.0, 1.0;
  (Normal, Failed, Normal, Degradation, Failed, Normal) 0.0, 0.0, 1.0;
  (Degradation, Failed, Normal, Degradation, Failed, Normal) 0.0, 0.0, 1.0;
  (Failed, Failed, Normal, Degradation, Failed, Normal) 0.0, 0.0, 1.0;
  (Normal, Normal, Degradation, Degradation, Failed, Normal) 0.0, 0.0, 1.0;
  (Degradation, Normal, Degradation, Degradation, Failed, Normal) 0.0, 0.0, 1.0;
  (Failed, Normal, Degradation, Degradation, Failed, Normal) 0.0, 0.0, 1.0;
  (Normal, Degradation, Degradation, Degradation, Failed, Normal) 0.0, 0.0, 1.0;
  (Degradation, Degradation, Degradation, Degradation, Failed, Normal) 0.0, 0.0, 1.0;
  (Failed, Degradation, Degradation, Degradation, Failed, Normal) 0.0, 0.0, 1.0;
  (Normal, Failed, Degradation, Degradation, Failed, Normal) 0.0, 0.0, 1.0;
  (Degradation, Failed, Degradation, Degradation, Failed, Normal) 0.0, 0.0, 1.0;
  (Failed, Failed, Degradation, Degradation, Failed, Normal) 0.0, 0.0, 1.0;
  (Normal, Normal, Failed, Degradation, Failed, Normal) 0.0, 0.0, 1.0;
  (Degradation, Normal, Failed, Degradation, Failed, Normal) 0.0, 0.0, 1.0;
  (Failed, Normal, Failed, Degradation, Failed, Normal) 0.0, 0.0, 1.0;
  (Normal, Degradation, Failed, Degradation, Failed, Normal) 0.0, 0.0, 1.0;
  (Degradation, Degradation, Failed, Degradation, Failed, Normal) 0.0, 0.0, 1.0;
  (Failed, Degradation, Failed, Degradation, Failed, Normal) 0.0, 0.0, 1.0;
  (Normal, Failed, Failed, Degradation, Failed, Normal) 0.0, 0.0, 1.0;
  (Degradation, Failed, Failed, Degradation, Failed, Normal) 0.0, 0.0, 1.0;
  (Failed, Failed, Failed, Degradation, Failed, Normal) 0.0, 0.0, 1.0;
  (Normal, Normal, Normal, Failed, Failed, Normal) 0.0, 0.0, 1.0;
  (Degradation, Normal, Normal, Failed, Failed, Normal) 0.0, 0.0, 1.0;
  (Failed, Normal, Normal, Failed, Failed, Normal) 0.0, 0.0, 1.0;
  (Normal, Degradation, Normal, Failed, Failed, Normal) 0.0, 0.0, 1.0;
  (Degradation, Degradation, Normal, Failed, Failed, Normal) 0.0, 0.0, 1.0;
  (Failed, Degradation, Normal, Failed, Failed, Normal) 0.0, 0.0, 1.0;
  (Normal, Failed, Normal, Failed, Failed, Normal) 0.0, 0.0, 1.0;
  (Degradation, Failed, Normal, Failed, Failed, Normal) 0.0, 0.0, 1.0;
  (Failed, Failed, Normal, Failed, Failed, Normal) 0.0, 0.0, 1.0;
  (Normal, Normal, Degradation, Failed, Failed, Normal) 0.0, 0.0, 1.0;
  (Degradation, Normal, Degradation, Failed, Failed, Normal) 0.0, 0.0, 1.0;
  (Failed, Normal, Degradation, Failed, Failed, Normal) 0.0, 0.0, 1.0;
  (Normal, Degradation, Degradation, Failed, Failed, Normal) 0.0, 0.0, 1.0;
  (Degradation, Degradation, Degradation, Failed, Failed, Normal) 0.0, 0.0, 1.0;
  (Failed, Degradation, Degradation, Failed, Failed, Normal) 0.0, 0.0, 1.0;
  (Normal, Failed, Degradation, Failed, Failed, Normal) 0.0, 0.0, 1.0;
  (Degradation, Failed, Degradation, Failed, Failed, Normal) 0.0, 0.0, 1.0;
  (Failed, Failed, Degradation, Failed, Failed, Normal) 0.0, 0.0, 1.0;
  (Normal, Normal, Failed, Failed, Failed, Normal) 0.0, 0.0, 1.0;
  (Degradation, Normal, Failed, Failed, Failed, Normal) 0.0, 0.0, 1.0;
  (Failed, Normal, Failed, Failed, Failed, Normal) 0.0, 0.0, 1.0;
  (Normal, Degradation, Failed, Failed, Failed, Normal) 0.0, 0.0, 1.0;
  (Degradation, Degradation, Failed, Failed, Failed, Normal) 0.0, 0.0, 1.0;
  (Failed, Degradation, Failed, Failed, Failed, Normal) 0.0, 0.0, 1.0;
  (Normal, Failed, Failed, Failed, Failed, Normal) 0.0, 0.0, 1.0;
  (Degradation, Failed, Failed, Failed, Failed, Normal) 0.0, 0.0, 1.0;
  (Failed, Failed, Failed, Failed, Failed, Normal) 0.0, 0.0, 1.0;
  (Normal, Normal, Normal, Normal, Normal, Degradation) 0.0, 1.0, 0.0;
  (Degradation, Normal, Normal, Normal, Normal, Degradation) 0.0, 1.0, 0.0;
  (Failed, Normal, Normal, Normal, Normal, Degradation) 0.0, 0.0, 1.0;
  (Normal, Degradation, Normal, Normal, Normal, Degradation) 0.0, 1.0, 0.0;
  (Degradation, Degradation, Normal, Normal, Normal, Degradation) 0.0, 1.0, 0.0;
  (Failed, Degradation, Normal, Normal, Normal, Degradation) 0.0, 0.0, 1.0;
  (Normal, Failed, Normal, Normal, Normal, Degradation) 0.0, 0.0, 1.0;
  (Degradation, Failed, Normal, Normal, Normal, Degradation) 0.0, 0.0, 1.0;
  (Failed, Failed, Normal, Normal, Normal, Degradation) 0.0, 0.0, 1.0;
  (Normal, Normal, Degradation, Normal, Normal, Degradation) 0.0, 1.0, 0.0;
  (Degradation, Normal, Degradation, Normal, Normal, Degradation) 0.0, 1.0, 0.0;
  (Failed, Normal, Degradation, Normal, Normal, Degradation) 0.0, 0.0, 1.0;
  (Normal, Degradation, Degradation, Normal, Normal, Degradation) 0.0, 1.0, 0.0;
  (Degradation, Degradation, Degradation, Normal, Normal, Degradation) 0.0, 1.0, 0.0;
  (Failed, Degradation, Degradation, Normal, Normal, Degradation) 0.0, 0.0, 1.0;
  (Normal, Failed, Degradation, Normal, Normal, Degradation) 0.0, 0.0, 1.0;
  (Degradation, Failed, Degradation, Normal, Normal, Degradation) 0.0, 0.0, 1.0;
  (Failed, Failed, Degradation, Normal, Normal, Degradation) 0.0, 0.0, 1.0;
  (Normal, Normal, Failed, Normal, Normal, Degradation) 0.0, 0.0, 1.0;
  (Degradation, Normal, Failed, Normal, Normal, Degradation) 0.0, 0.0, 1.0;
  (Failed, Normal, Failed, Normal, Normal, Degradation) 0.0, 0.0, 1.0;
  (Normal, Degradation, Failed, Normal, Normal, Degradation) 0.0, 0.0, 1.0;
  (Degradation, Degradation, Failed, Normal, Normal, Degradation) 0.0, 0.0, 1.0;
  (Failed, Degradation, Failed, Normal, Normal, Degradation) 0.0, 0.0, 1.0;
  (Normal, Failed, Failed, Normal, Normal, Degradation) 0.0, 0.0, 1.0;
  (Degradation, Failed, Failed, Normal, Normal, Degradation) 0.0, 0.0, 1.0;
  (Failed, Failed, Failed, Normal, Normal, Degradation) 0.0, 0.0, 1.0;
  (Normal, Normal, Normal, Degradation, Normal, Degradation) 0.0, 1.0, 0.0;
  (Degradation, Normal, Normal, Degradation, Normal, Degradation) 0.0, 1.0, 0.0;
  (Failed, Normal, Normal, Degradation, Normal, Degradation) 0.0, 0.0, 1.0;
  (Normal, Degradation, Normal, Degradation, Normal, Degradation) 0.0, 1.0, 0.0;
  (Degradation, Degradation, Normal, Degradation, Normal, Degradation) 0.0, 1.0, 0.0;
  (Failed, Degradation, Normal, Degradation, Normal, Degradation) 0.0, 0.0, 1.0;
  (Normal, Failed, Normal, Degradation, Normal, Degradation) 0.0, 0.0, 1.0;
  (Degradation, Failed, Normal, Degradation, Normal, Degradation) 0.0, 0.0, 1.0;
  (Failed, Failed, Normal, Degradation, Normal, Degradation) 0.0, 0.0, 1.0;
  (Normal, Normal, Degradation, Degradation, Normal, Degradation) 0.0, 1.0, 0.0;
  (Degradation, Normal, Degradation, Degradation, Normal, Degradation) 0.0, 1.0, 0.0;
  (Failed, Normal, Degradation, Degradation, Normal, Degradation) 0.0, 0.0, 1.0;
  (Normal, Degradation, Degradation, Degradation, Normal, Degradation) 0.0, 1.0, 0.0;
  (Degradation, Degradation, Degradation, Degradation, Normal, Degradation) 0.0, 1.0, 0.0;
  (Failed, Degradation, Degradation, Degradation, Normal, Degradation) 0.0, 0.0, 1.0;
  (Normal, Failed, Degradation, Degradation, Normal, Degradation) 0.0, 0.0, 1.0;
  (Degradation, Failed, Degradation, Degradation, Normal, Degradation) 0.0, 0.0, 1.0;
  (Failed, Failed, Degradation, Degradation, Normal, Degradation) 0.0, 0.0, 1.0;
  (Normal, Normal, Failed, Degradation, Normal, Degradation) 0.0, 0.0, 1.0;
  (Degradation, Normal, Failed, Degradation, Normal, Degradation) 0.0, 0.0, 1.0;
  (Failed, Normal, Failed, Degradation, Normal, Degradation) 0.0, 0.0, 1.0;
  (Normal, Degradation, Failed, Degradation, Normal, Degradation) 0.0, 0.0, 1.0;
  (Degradation, Degradation, Failed, Degradation, Normal, Degradation) 0.0, 0.0, 1.0;
  (Failed, Degradation, Failed, Degradation, Normal, Degradation) 0.0, 0.0, 1.0;
  (Normal, Failed, Failed, Degradation, Normal, Degradation) 0.0, 0.0, 1.0;
  (Degradation, Failed, Failed, Degradation, Normal, Degradation) 0.0, 0.0, 1.0;
  (Failed, Failed, Failed, Degradation, Normal, Degradation) 0.0, 0.0, 1.0;
  (Normal, Normal, Normal, Failed, Normal, Degradation) 0.0, 0.0, 1.0;
  (Degradation, Normal, Normal, Failed, Normal, Degradation) 0.0, 0.0, 1.0;
  (Failed, Normal, Normal, Failed, Normal, Degradation) 0.0, 0.0, 1.0;
  (Normal, Degradation, Normal, Failed, Normal, Degradation) 0.0, 0.0, 1.0;
  (Degradation, Degradation, Normal, Failed, Normal, Degradation) 0.0, 0.0, 1.0;
  (Failed, Degradation, Normal, Failed, Normal, Degradation) 0.0, 0.0, 1.0;
  (Normal, Failed, Normal, Failed, Normal, Degradation) 0.0, 0.0, 1.0;
  (Degradation, Failed, Normal, Failed, Normal, Degradation) 0.0, 0.0, 1.0;
  (Failed, Failed, Normal, Failed, Normal, Degradation) 0.0, 0.0, 1.0;
  (Normal, Normal, Degradation, Failed, Normal, Degradation) 0.0, 0.0, 1.0;
  (Degradation, Normal, Degradation, Failed, Normal, Degradation) 0.0, 0.0, 1.0;
  (Failed, Normal, Degradation, Failed, Normal, Degradation) 0.0, 0.0, 1.0;
  (Normal, Degradation, Degradation, Failed, Normal, Degradation) 0.0, 0.0, 1.0;
  (Degradation, Degradation, Degradation, Failed, Normal, Degradation) 0.0, 0.0, 1.0;
  (Failed, Degradation, Degradation, Failed, Normal, Degradation) 0.0, 0.0, 1.0;
  (Normal, Failed, Degradation, Failed, Normal, Degradation) 0.0, 0.0, 1.0;
  (Degradation, Failed, Degradation, Failed, Normal, Degradation) 0.0, 0.0, 1.0;
  (Failed, Failed, Degradation, Failed, Normal, Degradation) 0.0, 0.0, 1.0;
  (Normal, Normal, Failed, Failed, Normal, Degradation) 0.0, 0.0, 1.0;
  (Degradation, Normal, Failed, Failed, Normal, Degradation) 0.0, 0.0, 1.0;
  (Failed, Normal, Failed, Failed, Normal, Degradation) 0.0, 0.0, 1.0;
  (Normal, Degradation, Failed, Failed, Normal, Degradation) 0.0, 0.0, 1.0;
  (Degradation, Degradation, Failed, Failed, Normal, Degradation) 0.0, 0.0, 1.0;
  (Failed, Degradation, Failed, Failed, Normal, Degradation) 0.0, 0.0, 1.0;
  (Normal, Failed, Failed, Failed, Normal, Degradation) 0.0, 0.0, 1.0;
  (Degradation, Failed, Failed, Failed, Normal, Degradation) 0.0, 0.0, 1.0;
  (Failed, Failed, Failed, Failed, Normal, Degradation) 0.0, 0.0, 1.0;
  (Normal, Normal, Normal, Normal, Degradation, Degradation) 0.0, 1.0, 0.0;
  (Degradation, Normal, Normal, Normal, Degradation, Degradation) 0.0, 1.0, 0.0;
  (Failed, Normal, Normal, Normal, Degradation, Degradation) 0.0, 0.0, 1.0;
  (Normal, Degradation, Normal, Normal, Degradation, Degradation) 0.0, 1.0, 0.0;
  (Degradation, Degradation, Normal, Normal, Degradation, Degradation) 0.0, 1.0, 0.0;
  (Failed, Degradation, Normal, Normal, Degradation, Degradation) 0.0, 0.0, 1.0;
  (Normal, Failed, Normal, Normal, Degradation, Degradation) 0.0, 0.0, 1.0;
  (Degradation, Failed, Normal, Normal, Degradation, Degradation) 0.0, 0.0, 1.0;
  (Failed, Failed, Normal, Normal, Degradation, Degradation) 0.0, 0.0, 1.0;
  (Normal, Normal, Degradation, Normal, Degradation, Degradation) 0.0, 1.0, 0.0;
  (Degradation, Normal, Degradation, Normal, Degradation, Degradation) 0.0, 1.0, 0.0;
  (Failed, Normal, Degradation, Normal, Degradation, Degradation) 0.0, 0.0, 1.0;
  (Normal, Degradation, Degradation, Normal, Degradation, Degradation) 0.0, 1.0, 0.0;
  (Degradation, Degradation, Degradation, Normal, Degradation, Degradation) 0.0, 1.0, 0.0;
  (Failed, Degradation, Degradation, Normal, Degradation, Degradation) 0.0, 0.0, 1.0;
  (Normal, Failed, Degradation, Normal, Degradation, Degradation) 0.0, 0.0, 1.0;
  (Degradation, Failed, Degradation, Normal, Degradation, Degradation) 0.0, 0.0, 1.0;
  (Failed, Failed, Degradation, Normal, Degradation, Degradation) 0.0, 0.0, 1.0;
  (Normal, Normal, Failed, Normal, Degradation, Degradation) 0.0, 0.0, 1.0;
  (Degradation, Normal, Failed, Normal, Degradation, Degradation) 0.0, 0.0, 1.0;
  (Failed, Normal, Failed, Normal, Degradation, Degradation) 0.0, 0.0, 1.0;
  (Normal, Degradation, Failed, Normal, Degradation, Degradation) 0.0, 0.0, 1.0;
  (Degradation, Degradation, Failed, Normal, Degradation, Degradation) 0.0, 0.0, 1.0;
  (Failed, Degradation, Failed, Normal, Degradation, Degradation) 0.0, 0.0, 1.0;
  (Normal, Failed, Failed, Normal, Degradation, Degradation) 0.0, 0.0, 1.0;
  (Degradation, Failed, Failed, Normal, Degradation, Degradation) 0.0, 0.0, 1.0;
  (Failed, Failed, Failed, Normal, Degradation, Degradation) 0.0, 0.0, 1.0;
  (Normal, Normal, Normal, Degradation, Degradation, Degradation) 0.0, 1.0, 0.0;
  (Degradation, Normal, Normal, Degradation, Degradation, Degradation) 0.0, 1.0, 0.0;
  (Failed, Normal, Normal, Degradation, Degradation, Degradation) 0.0, 0.0, 1.0;
  (Normal, Degradation, Normal, Degradation, Degradation, Degradation) 0.0, 1.0, 0.0;
  (Degradation, Degradation, Normal, Degradation, Degradation, Degradation) 0.0, 1.0, 0.0;
  (Failed, Degradation, Normal, Degradation, Degradation, Degradation) 0.0, 0.0, 1.0;
  (Normal, Failed, Normal, Degradation, Degradation, Degradation) 0.0, 0.0, 1.0;
  (Degradation, Failed, Normal, Degradation, Degradation, Degradation) 0.0, 0.0, 1.0;
  (Failed, Failed, Normal, Degradation, Degradation, Degradation) 0.0, 0.0, 1.0;
  (Normal, Normal, Degradation, Degradation, Degradation, Degradation) 0.0, 1.0, 0.0;
  (Degradation, Normal, Degradation, Degradation, Degradation, Degradation) 0.0, 1.0, 0.0;
  (Failed, Normal, Degradation, Degradation, Degradation, Degradation) 0.0, 0.0, 1.0;
  (Normal, Degradation, Degradation, Degradation, Degradation, Degradation) 0.0, 1.0, 0.0;
  (Degradation, Degradation, Degradation, Degradation, Degradation, Degradation) 0.0, 1.0, 0.0;
  (Failed, Degradation, Degradation, Degradation, Degradation, Degradation) 0.0, 0.0, 1.0;
  (Normal, Failed, Degradation, Degradation, Degradation, Degradation) 0.0, 0.0, 1.0;
  (Degradation, Failed, Degradation, Degradation, Degradation, Degradation) 0.0, 0.0, 1.0;
  (Failed, Failed, Degradation, Degradation, Degradation, Degradation) 0.0, 0.0, 1.0;
  (Normal, Normal, Failed, Degradation, Degradation, Degradation) 0.0, 0.0, 1.0;
  (Degradation, Normal, Failed, Degradation, Degradation, Degradation) 0.0, 0.0, 1.0;
  (Failed, Normal, Failed, Degradation, Degradation, Degradation) 0.0, 0.0, 1.0;
  (Normal, Degradation, Failed, Degradation, Degradation, Degradation) 0.0, 0.0, 1.0;
  (Degradation, Degradation, Failed, Degradation, Degradation, Degradation) 0.0, 0.0, 1.0;
  (Failed, Degradation, Failed, Degradation, Degradation, Degradation) 0.0, 0.0, 1.0;
  (Normal, Failed, Failed, Degradation, Degradation, Degradation) 0.0, 0.0, 1.0;
  (Degradation, Failed, Failed, Degradation, Degradation, Degradation) 0.0, 0.0, 1.0;
  (Failed, Failed, Failed, Degradation, Degradation, Degradation) 0.0, 0.0, 1.0;
  (Normal, Normal, Normal, Failed, Degradation, Degradation) 0.0, 0.0, 1.0;
  (Degradation, Normal, Normal, Failed, Degradation, Degradation) 0.0, 0.0, 1.0;
  (Failed, Normal, Normal, Failed, Degradation, Degradation) 0.0, 0.0, 1.0;
  (Normal, Degradation, Normal, Failed, Degradation, Degradation) 0.0, 0.0, 1.0;
  (Degradation, Degradation, Normal, Failed, Degradation, Degradation) 0.0, 0.0, 1.0;
  (Failed, Degradation, Normal, Failed, Degradation, Degradation) 0.0, 0.0, 1.0;
  (Normal, Failed, Normal, Failed, Degradation, Degradation) 0.0, 0.0, 1.0;
  (Degradation, Failed, Normal, Failed, Degradation, Degradation) 0.0, 0.0, 1.0;
  (Failed, Failed, Normal, Failed, Degradation, Degradation) 0.0, 0.0, 1.0;
  (Normal, Normal, Degradation, Failed, Degradation, Degradation) 0.0, 0.0, 1.0;
  (Degradation, Normal, Degradation, Failed, Degradation, Degradation) 0.0, 0.0, 1.0;
  (Failed, Normal, Degradation, Failed, Degradation, Degradation) 0.0, 0.0, 1.0;
  (Normal, Degradation, Degradation, Failed, Degradation, Degradation) 0.0, 0.0, 1.0;
  (Degradation, Degradation, Degradation, Failed, Degradation, Degradation) 0.0, 0.0, 1.0;
  (Failed, Degradation, Degradation, Failed, Degradation, Degradation) 0.0, 0.0, 1.0;
  (Normal, Failed, Degradation, Failed, Degradation, Degradation) 0.0, 0.0, 1.0;
  (Degradation, Failed, Degradation, Failed, Degradation, Degradation) 0.0, 0.0, 1.0;
  (Failed, Failed, Degradation, Failed, Degradation, Degradation) 0.0, 0.0, 1.0;
  (Normal, Normal, Failed, Failed, Degradation, Degradation) 0.0, 0.0, 1.0;
  (Degradation, Normal, Failed, Failed, Degradation, Degradation) 0.0, 0.0, 1.0;
  (Failed, Normal, Failed, Failed, Degradation, Degradation) 0.0, 0.0, 1.0;
  (Normal, Degradation, Failed, Failed, Degradation, Degradation) 0.0, 0.0, 1.0;
  (Degradation, Degradation, Failed, Failed, Degradation, Degradation) 0.0, 0.0, 1.0;
  (Failed, Degradation, Failed, Failed, Degradation, Degradation) 0.0, 0.0, 1.0;
  (Normal, Failed, Failed, Failed, Degradation, Degradation) 0.0, 0.0, 1.0;
  (Degradation, Failed, Failed, Failed, Degradation, Degradation) 0.0, 0.0, 1.0;
  (Failed, Failed, Failed, Failed, Degradation, Degradation) 0.0, 0.0, 1.0;
  (Normal, Normal, Normal, Normal, Failed, Degradation) 0.0, 0.0, 1.0;
  (Degradation, Normal, Normal, Normal, Failed, Degradation) 0.0, 0.0, 1.0;
  (Failed, Normal, Normal, Normal, Failed, Degradation) 0.0, 0.0, 1.0;
  (Normal, Degradation, Normal, Normal, Failed, Degradation) 0.0, 0.0, 1.0;
  (Degradation, Degradation, Normal, Normal, Failed, Degradation) 0.0, 0.0, 1.0;
  (Failed, Degradation, Normal, Normal, Failed, Degradation) 0.0, 0.0, 1.0;
  (Normal, Failed, Normal, Normal, Failed, Degradation) 0.0, 0.0, 1.0;
  (Degradation, Failed, Normal, Normal, Failed, Degradation) 0.0, 0.0, 1.0;
  (Failed, Failed, Normal, Normal, Failed, Degradation) 0.0, 0.0, 1.0;
  (Normal, Normal, Degradation, Normal, Failed, Degradation) 0.0, 0.0, 1.0;
  (Degradation, Normal, Degradation, Normal, Failed, Degradation) 0.0, 0.0, 1.0;
  (Failed, Normal, Degradation, Normal, Failed, Degradation) 0.0, 0.0, 1.0;
  (Normal, Degradation, Degradation, Normal, Failed, Degradation) 0.0, 0.0, 1.0;
  (Degradation, Degradation, Degradation, Normal, Failed, Degradation) 0.0, 0.0, 1.0;
  (Failed, Degradation, Degradation, Normal, Failed, Degradation) 0.0, 0.0, 1.0;
  (Normal, Failed, Degradation, Normal, Failed, Degradation) 0.0, 0.0, 1.0;
  (Degradation, Failed, Degradation, Normal, Failed, Degradation) 0.0, 0.0, 1.0;
  (Failed, Failed, Degradation, Normal, Failed, Degradation) 0.0, 0.0, 1.0;
  (Normal, Normal, Failed, Normal, Failed, Degradation) 0.0, 0.0, 1.0;
  (Degradation, Normal, Failed, Normal, Failed, Degradation) 0.0, 0.0, 1.0;
  (Failed, Normal, Failed, Normal, Failed, Degradation) 0.0, 0.0, 1.0;
  (Normal, Degradation, Failed, Normal, Failed, Degradation) 0.0, 0.0, 1.0;
  (Degradation, Degradation, Failed, Normal, Failed, Degradation) 0.0, 0.0, 1.0;
  (Failed, Degradation, Failed, Normal, Failed, Degradation) 0.0, 0.0, 1.0;
  (Normal, Failed, Failed, Normal, Failed, Degradation) 0.0, 0.0, 1.0;
  (Degradation, Failed, Failed, Normal, Failed, Degradation) 0.0, 0.0, 1.0;
  (Failed, Failed, Failed, Normal, Failed, Degradation) 0.0, 0.0, 1.0;
  (Normal, Normal, Normal, Degradation, Failed, Degradation) 0.0, 0.0, 1.0;
  (Degradation, Normal, Normal, Degradation, Failed, Degradation) 0.0, 0.0, 1.0;
  (Failed, Normal, Normal, Degradation, Failed, Degradation) 0.0, 0.0, 1.0;
  (Normal, Degradation, Normal, Degradation, Failed, Degradation) 0.0, 0.0, 1.0;
  (Degradation, Degradation, Normal, Degradation, Failed, Degradation) 0.0, 0.0, 1.0;
  (Failed, Degradation, Normal, Degradation, Failed, Degradation) 0.0, 0.0, 1.0;
  (Normal, Failed, Normal, Degradation, Failed, Degradation) 0.0, 0.0, 1.0;
  (Degradation, Failed, Normal, Degradation, Failed, Degradation) 0.0, 0.0, 1.0;
  (Failed, Failed, Normal, Degradation, Failed, Degradation) 0.0, 0.0, 1.0;
  (Normal, Normal, Degradation, Degradation, Failed, Degradation) 0.0, 0.0, 1.0;
  (Degradation, Normal, Degradation, Degradation, Failed, Degradation) 0.0, 0.0, 1.0;
  (Failed, Normal, Degradation, Degradation, Failed, Degradation) 0.0, 0.0, 1.0;
  (Normal, Degradation, Degradation, Degradation, Failed, Degradation) 0.0, 0.0, 1.0;
  (Degradation, Degradation, Degradation, Degradation, Failed, Degradation) 0.0, 0.0, 1.0;
  (Failed, Degradation, Degradation, Degradation, Failed, Degradation) 0.0, 0.0, 1.0;
  (Normal, Failed, Degradation, Degradation, Failed, Degradation) 0.0, 0.0, 1.0;
  (Degradation, Failed, Degradation, Degradation, Failed, Degradation) 0.0, 0.0, 1.0;
  (Failed, Failed, Degradation, Degradation, Failed, Degradation) 0.0, 0.0, 1.0;
  (Normal, Normal, Failed, Degradation, Failed, Degradation) 0.0, 0.0, 1.0;
  (Degradation, Normal, Failed, Degradation, Failed, Degradation) 0.0, 0.0, 1.0;
  (Failed, Normal, Failed, Degradation, Failed, Degradation) 0.0, 0.0, 1.0;
  (Normal, Degradation, Failed, Degradation, Failed, Degradation) 0.0, 0.0, 1.0;
  (Degradation, Degradation, Failed, Degradation, Failed, Degradation) 0.0, 0.0, 1.0;
  (Failed, Degradation, Failed, Degradation, Failed, Degradation) 0.0, 0.0, 1.0;
  (Normal, Failed, Failed, Degradation, Failed, Degradation) 0.0, 0.0, 1.0;
  (Degradation, Failed, Failed, Degradation, Failed, Degradation) 0.0, 0.0, 1.0;
  (Failed, Failed, Failed, Degradation, Failed, Degradation) 0.0, 0.0, 1.0;
  (Normal, Normal, Normal, Failed, Failed, Degradation) 0.0, 0.0, 1.0;
  (Degradation, Normal, Normal, Failed, Failed, Degradation) 0.0, 0.0, 1.0;
  (Failed, Normal, Normal, Failed, Failed, Degradation) 0.0, 0.0, 1.0;
  (Normal, Degradation, Normal, Failed, Failed, Degradation) 0.0, 0.0, 1.0;
  (Degradation, Degradation, Normal, Failed, Failed, Degradation) 0.0, 0.0, 1.0;
  (Failed, Degradation, Normal, Failed, Failed, Degradation) 0.0, 0.0, 1.0;
  (Normal, Failed, Normal, Failed, Failed, Degradation) 0.0, 0.0, 1.0;
  (Degradation, Failed, Normal, Failed, Failed, Degradation) 0.0, 0.0, 1.0;
  (Failed, Failed, Normal, Failed, Failed, Degradation) 0.0, 0.0, 1.0;
  (Normal, Normal, Degradation, Failed, Failed, Degradation) 0.0, 0.0, 1.0;
  (Degradation, Normal, Degradation, Failed, Failed, Degradation) 0.0, 0.0, 1.0;
  (Failed, Normal, Degradation, Failed, Failed, Degradation) 0.0, 0.0, 1.0;
  (Normal, Degradation, Degradation, Failed, Failed, Degradation) 0.0, 0.0, 1.0;
  (Degradation, Degradation, Degradation, Failed, Failed, Degradation) 0.0, 0.0, 1.0;
  (Failed, Degradation, Degradation, Failed, Failed, Degradation) 0.0, 0.0, 1.0;
  (Normal, Failed, Degradation, Failed, Failed, Degradation) 0.0, 0.0, 1.0;
  (Degradation, Failed, Degradation, Failed, Failed, Degradation) 0.0, 0.0, 1.0;
  (Failed, Failed, Degradation, Failed, Failed, Degradation) 0.0, 0.0, 1.0;
  (Normal, Normal, Failed, Failed, Failed, Degradation) 0.0, 0.0, 1.0;
  (Degradation, Normal, Failed, Failed, Failed, Degradation) 0.0, 0.0, 1.0;
  (Failed, Normal, Failed, Failed, Failed, Degradation) 0.0, 0.0, 1.0;
  (Normal, Degradation, Failed, Failed, Failed, Degradation) 0.0, 0.0, 1.0;
  (Degradation, Degradation, Failed, Failed, Failed, Degradation) 0.0, 0.0, 1.0;
  (Failed, Degradation, Failed, Failed, Failed, Degradation) 0.0, 0.0, 1.0;
  (Normal, Failed, Failed, Failed, Failed, Degradation) 0.0, 0.0, 1.0;
  (Degradation, Failed, Failed, Failed, Failed, Degradation) 0.0, 0.0, 1.0;
  (Failed, Failed, Failed, Failed, Failed, Degradation) 0.0, 0.0, 1.0;
  (Normal, Normal, Normal, Normal, Normal, Failed) 0.0, 0.0, 1.0;
  (Degradation, Normal, Normal, Normal, Normal, Failed) 0.0, 0.0, 1.0;
  (Failed, Normal, Normal, Normal, Normal, Failed) 0.0, 0.0, 1.0;
  (Normal, Degradation, Normal, Normal, Normal, Failed) 0.0, 0.0, 1.0;
  (Degradation, Degradation, Normal, Normal, Normal, Failed) 0.0, 0.0, 1.0;
  (Failed, Degradation, Normal, Normal, Normal, Failed) 0.0, 0.0, 1.0;
  (Normal, Failed, Normal, Normal, Normal, Failed) 0.0, 0.0, 1.0;
  (Degradation, Failed, Normal, Normal, Normal, Failed) 0.0, 0.0, 1.0;
  (Failed, Failed, Normal, Normal, Normal, Failed) 0.0, 0.0, 1.0;
  (Normal, Normal, Degradation, Normal, Normal, Failed) 0.0, 0.0, 1.0;
  (Degradation, Normal, Degradation, Normal, Normal, Failed) 0.0, 0.0, 1.0;
  (Failed, Normal, Degradation, Normal, Normal, Failed) 0.0, 0.0, 1.0;
  (Normal, Degradation, Degradation, Normal, Normal, Failed) 0.0, 0.0, 1.0;
  (Degradation, Degradation, Degradation, Normal, Normal, Failed) 0.0, 0.0, 1.0;
  (Failed, Degradation, Degradation, Normal, Normal, Failed) 0.0, 0.0, 1.0;
  (Normal, Failed, Degradation, Normal, Normal, Failed) 0.0, 0.0, 1.0;
  (Degradation, Failed, Degradation, Normal, Normal, Failed) 0.0, 0.0, 1.0;
  (Failed, Failed, Degradation, Normal, Normal, Failed) 0.0, 0.0, 1.0;
  (Normal, Normal, Failed, Normal, Normal, Failed) 0.0, 0.0, 1.0;
  (Degradation, Normal, Failed, Normal, Normal, Failed) 0.0, 0.0, 1.0;
  (Failed, Normal, Failed, Normal, Normal, Failed) 0.0, 0.0, 1.0;
  (Normal, Degradation, Failed, Normal, Normal, Failed) 0.0, 0.0, 1.0;
  (Degradation, Degradation, Failed, Normal, Normal, Failed) 0.0, 0.0, 1.0;
  (Failed, Degradation, Failed, Normal, Normal, Failed) 0.0, 0.0, 1.0;
  (Normal, Failed, Failed, Normal, Normal, Failed) 0.0, 0.0, 1.0;
  (Degradation, Failed, Failed, Normal, Normal, Failed) 0.0, 0.0, 1.0;
  (Failed, Failed, Failed, Normal, Normal, Failed) 0.0, 0.0, 1.0;
  (Normal, Normal, Normal, Degradation, Normal, Failed) 0.0, 0.0, 1.0;
  (Degradation, Normal, Normal, Degradation, Normal, Failed) 0.0, 0.0, 1.0;
  (Failed, Normal, Normal, Degradation, Normal, Failed) 0.0, 0.0, 1.0;
  (Normal, Degradation, Normal, Degradation, Normal, Failed) 0.0, 0.0, 1.0;
  (Degradation, Degradation, Normal, Degradation, Normal, Failed) 0.0, 0.0, 1.0;
  (Failed, Degradation, Normal, Degradation, Normal, Failed) 0.0, 0.0, 1.0;
  (Normal, Failed, Normal, Degradation, Normal, Failed) 0.0, 0.0, 1.0;
  (Degradation, Failed, Normal, Degradation, Normal, Failed) 0.0, 0.0, 1.0;
  (Failed, Failed, Normal, Degradation, Normal, Failed) 0.0, 0.0, 1.0;
  (Normal, Normal, Degradation, Degradation, Normal, Failed) 0.0, 0.0, 1.0;
  (Degradation, Normal, Degradation, Degradation, Normal, Failed) 0.0, 0.0, 1.0;
  (Failed, Normal, Degradation, Degradation, Normal, Failed) 0.0, 0.0, 1.0;
  (Normal, Degradation, Degradation, Degradation, Normal, Failed) 0.0, 0.0, 1.0;
  (Degradation, Degradation, Degradation, Degradation, Normal, Failed) 0.0, 0.0, 1.0;
  (Failed, Degradation, Degradation, Degradation, Normal, Failed) 0.0, 0.0, 1.0;
  (Normal, Failed, Degradation, Degradation, Normal, Failed) 0.0, 0.0, 1.0;
  (Degradation, Failed, Degradation, Degradation, Normal, Failed) 0.0, 0.0, 1.0;
  (Failed, Failed, Degradation, Degradation, Normal, Failed) 0.0, 0.0, 1.0;
  (Normal, Normal, Failed, Degradation, Normal, Failed) 0.0, 0.0, 1.0;
  (Degradation, Normal, Failed, Degradation, Normal, Failed) 0.0, 0.0, 1.0;
  (Failed, Normal, Failed, Degradation, Normal, Failed) 0.0, 0.0, 1.0;
  (Normal, Degradation, Failed, Degradation, Normal, Failed) 0.0, 0.0, 1.0;
  (Degradation, Degradation, Failed, Degradation, Normal, Failed) 0.0, 0.0, 1.0;
  (Failed, Degradation, Failed, Degradation, Normal, Failed) 0.0, 0.0, 1.0;
  (Normal, Failed, Failed, Degradation, Normal, Failed) 0.0, 0.0, 1.0;
  (Degradation, Failed, Failed, Degradation, Normal, Failed) 0.0, 0.0, 1.0;
  (Failed, Failed, Failed, Degradation, Normal, Failed) 0.0, 0.0, 1.0;
  (Normal, Normal, Normal, Failed, Normal, Failed) 0.0, 0.0, 1.0;
  (Degradation, Normal, Normal, Failed, Normal, Failed) 0.0, 0.0, 1.0;
  (Failed, Normal, Normal, Failed, Normal, Failed) 0.0, 0.0, 1.0;
  (Normal, Degradation, Normal, Failed, Normal, Failed) 0.0, 0.0, 1.0;
  (Degradation, Degradation, Normal, Failed, Normal, Failed) 0.0, 0.0, 1.0;
  (Failed, Degradation, Normal, Failed, Normal, Failed) 0.0, 0.0, 1.0;
  (Normal, Failed, Normal, Failed, Normal, Failed) 0.0, 0.0, 1.0;
  (Degradation, Failed, Normal, Failed, Normal, Failed) 0.0, 0.0, 1.0;
  (Failed, Failed, Normal, Failed, Normal, Failed) 0.0, 0.0, 1.0;
  (Normal, Normal, Degradation, Failed, Normal, Failed) 0.0, 0.0, 1.0;
  (Degradation, Normal, Degradation, Failed, Normal, Failed) 0.0, 0.0, 1.0;
  (Failed, Normal, Degradation, Failed, Normal, Failed) 0.0, 0.0, 1.0;
  (Normal, Degradation, Degradation, Failed, Normal, Failed) 0.0, 0.0, 1.0;
  (Degradation, Degradation, Degradation, Failed, Normal, Failed) 0.0, 0.0, 1.0;
  (Failed, Degradation, Degradation, Failed, Normal, Failed) 0.0, 0.0, 1.0;
  (Normal, Failed, Degradation, Failed, Normal, Failed) 0.0, 0.0, 1.0;
  (Degradation, Failed, Degradation, Failed, Normal, Failed) 0.0, 0.0, 1.0;
  (Failed, Failed, Degradation, Failed, Normal, Failed) 0.0, 0.0, 1.0;
  (Normal, Normal, Failed, Failed, Normal, Failed) 0.0, 0.0, 1.0;
  (Degradation, Normal, Failed, Failed, Normal, Failed) 0.0, 0.0, 1.0;
  (Failed, Normal, Failed, Failed, Normal, Failed) 0.0, 0.0, 1.0;
  (Normal, Degradation, Failed, Failed, Normal, Failed) 0.0, 0.0, 1.0;
  (Degradation, Degradation, Failed, Failed, Normal, Failed) 0.0, 0.0, 1.0;
  (Failed, Degradation, Failed, Failed, Normal, Failed) 0.0, 0.0, 1.0;
  (Normal, Failed, Failed, Failed, Normal, Failed) 0.0, 0.0, 1.0;
  (Degradation, Failed, Failed, Failed, Normal, Failed) 0.0, 0.0, 1.0;
  (Failed, Failed, Failed, Failed, Normal, Failed) 0.0, 0.0, 1.0;
  (Normal, Normal, Normal, Normal, Degradation, Failed) 0.0, 0.0, 1.0;
  (Degradation, Normal, Normal, Normal, Degradation, Failed) 0.0, 0.0, 1.0;
  (Failed, Normal, Normal, Normal, Degradation, Failed) 0.0, 0.0, 1.0;
  (Normal, Degradation, Normal, Normal, Degradation, Failed) 0.0, 0.0, 1.0;
  (Degradation, Degradation, Normal, Normal, Degradation, Failed) 0.0, 0.0, 1.0;
  (Failed, Degradation, Normal, Normal, Degradation, Failed) 0.0, 0.0, 1.0;
  (Normal, Failed, Normal, Normal, Degradation, Failed) 0.0, 0.0, 1.0;
  (Degradation, Failed, Normal, Normal, Degradation, Failed) 0.0, 0.0, 1.0;
  (Failed, Failed, Normal, Normal, Degradation, Failed) 0.0, 0.0, 1.0;
  (Normal, Normal, Degradation, Normal, Degradation, Failed) 0.0, 0.0, 1.0;
  (Degradation, Normal, Degradation, Normal, Degradation, Failed) 0.0, 0.0, 1.0;
  (Failed, Normal, Degradation, Normal, Degradation, Failed) 0.0, 0.0, 1.0;
  (Normal, Degradation, Degradation, Normal, Degradation, Failed) 0.0, 0.0, 1.0;
  (Degradation, Degradation, Degradation, Normal, Degradation, Failed) 0.0, 0.0, 1.0;
  (Failed, Degradation, Degradation, Normal, Degradation, Failed) 0.0, 0.0, 1.0;
  (Normal, Failed, Degradation, Normal, Degradation, Failed) 0.0, 0.0, 1.0;
  (Degradation, Failed, Degradation, Normal, Degradation, Failed) 0.0, 0.0, 1.0;
  (Failed, Failed, Degradation, Normal, Degradation, Failed) 0.0, 0.0, 1.0;
  (Normal, Normal, Failed, Normal, Degradation, Failed) 0.0, 0.0, 1.0;
  (Degradation, Normal, Failed, Normal, Degradation, Failed) 0.0, 0.0, 1.0;
  (Failed, Normal, Failed, Normal, Degradation, Failed) 0.0, 0.0, 1.0;
  (Normal, Degradation, Failed, Normal, Degradation, Failed) 0.0, 0.0, 1.0;
  (Degradation, Degradation, Failed, Normal, Degradation, Failed) 0.0, 0.0, 1.0;
  (Failed, Degradation, Failed, Normal, Degradation, Failed) 0.0, 0.0, 1.0;
  (Normal, Failed, Failed, Normal, Degradation, Failed) 0.0, 0.0, 1.0;
  (Degradation, Failed, Failed, Normal, Degradation, Failed) 0.0, 0.0, 1.0;
  (Failed, Failed, Failed, Normal, Degradation, Failed) 0.0, 0.0, 1.0;
  (Normal, Normal, Normal, Degradation, Degradation, Failed) 0.0, 0.0, 1.0;
  (Degradation, Normal, Normal, Degradation, Degradation, Failed) 0.0, 0.0, 1.0;
  (Failed, Normal, Normal, Degradation, Degradation, Failed) 0.0, 0.0, 1.0;
  (Normal, Degradation, Normal, Degradation, Degradation, Failed) 0.0, 0.0, 1.0;
  (Degradation, Degradation, Normal, Degradation, Degradation, Failed) 0.0, 0.0, 1.0;
  (Failed, Degradation, Normal, Degradation, Degradation, Failed) 0.0, 0.0, 1.0;
  (Normal, Failed, Normal, Degradation, Degradation, Failed) 0.0, 0.0, 1.0;
  (Degradation, Failed, Normal, Degradation, Degradation, Failed) 0.0, 0.0, 1.0;
  (Failed, Failed, Normal, Degradation, Degradation, Failed) 0.0, 0.0, 1.0;
  (Normal, Normal, Degradation, Degradation, Degradation, Failed) 0.0, 0.0, 1.0;
  (Degradation, Normal, Degradation, Degradation, Degradation, Failed) 0.0, 0.0, 1.0;
  (Failed, Normal, Degradation, Degradation, Degradation, Failed) 0.0, 0.0, 1.0;
  (Normal, Degradation, Degradation, Degradation, Degradation, Failed) 0.0, 0.0, 1.0;
  (Degradation, Degradation, Degradation, Degradation, Degradation, Failed) 0.0, 0.0, 1.0;
  (Failed, Degradation, Degradation, Degradation, Degradation, Failed) 0.0, 0.0, 1.0;
  (Normal, Failed, Degradation, Degradation, Degradation, Failed) 0.0, 0.0, 1.0;
  (Degradation, Failed, Degradation, Degradation, Degradation, Failed) 0.0, 0.0, 1.0;
  (Failed, Failed, Degradation, Degradation, Degradation, Failed) 0.0, 0.0, 1.0;
  (Normal, Normal, Failed, Degradation, Degradation, Failed) 0.0, 0.0, 1.0;
  (Degradation, Normal, Failed, Degradation, Degradation, Failed) 0.0, 0.0, 1.0;
  (Failed, Normal, Failed, Degradation, Degradation, Failed) 0.0, 0.0, 1.0;
  (Normal, Degradation, Failed, Degradation, Degradation, Failed) 0.0, 0.0, 1.0;
  (Degradation, Degradation, Failed, Degradation, Degradation, Failed) 0.0, 0.0, 1.0;
  (Failed, Degradation, Failed, Degradation, Degradation, Failed) 0.0, 0.0, 1.0;
  (Normal, Failed, Failed, Degradation, Degradation, Failed) 0.0, 0.0, 1.0;
  (Degradation, Failed, Failed, Degradation, Degradation, Failed) 0.0, 0.0, 1.0;
  (Failed, Failed, Failed, Degradation, Degradation, Failed) 0.0, 0.0, 1.0;
  (Normal, Normal, Normal, Failed, Degradation, Failed) 0.0, 0.0, 1.0;
  (Degradation, Normal, Normal, Failed, Degradation, Failed) 0.0, 0.0, 1.0;
  (Failed, Normal, Normal, Failed, Degradation, Failed) 0.0, 0.0, 1.0;
  (Normal, Degradation, Normal, Failed, Degradation, Failed) 0.0, 0.0, 1.0;
  (Degradation, Degradation, Normal, Failed, Degradation, Failed) 0.0, 0.0, 1.0;
  (Failed, Degradation, Normal, Failed, Degradation, Failed) 0.0, 0.0, 1.0;
  (Normal, Failed, Normal, Failed, Degradation, Failed) 0.0, 0.0, 1.0;
  (Degradation, Failed, Normal, Failed, Degradation, Failed) 0.0, 0.0, 1.0;
  (Failed, Failed, Normal, Failed, Degradation, Failed) 0.0, 0.0, 1.0;
  (Normal, Normal, Degradation, Failed, Degradation, Failed) 0.0, 0.0, 1.0;
  (Degradation, Normal, Degradation, Failed, Degradation, Failed) 0.0, 0.0, 1.0;
  (Failed, Normal, Degradation, Failed, Degradation, Failed) 0.0, 0.0, 1.0;
  (Normal, Degradation, Degradation, Failed, Degradation, Failed) 0.0, 0.0, 1.0;
  (Degradation, Degradation, Degradation, Failed, Degradation, Failed) 0.0, 0.0, 1.0;
  (Failed, Degradation, Degradation, Failed, Degradation, Failed) 0.0, 0.0, 1.0;
  (Normal, Failed, Degradation, Failed, Degradation, Failed) 0.0, 0.0, 1.0;
  (Degradation, Failed, Degradation, Failed, Degradation, Failed) 0.0, 0.0, 1.0;
  (Failed, Failed, Degradation, Failed, Degradation, Failed) 0.0, 0.0, 1.0;
  (Normal, Normal, Failed, Failed, Degradation, Failed) 0.0, 0.0, 1.0;
  (Degradation, Normal, Failed, Failed, Degradation, Failed) 0.0, 0.0, 1.0;
  (Failed, Normal, Failed, Failed, Degradation, Failed) 0.0, 0.0, 1.0;
  (Normal, Degradation, Failed, Failed, Degradation, Failed) 0.0, 0.0, 1.0;
  (Degradation, Degradation, Failed, Failed, Degradation, Failed) 0.0, 0.0, 1.0;
  (Failed, Degradation, Failed, Failed, Degradation, Failed) 0.0, 0.0, 1.0;
  (Normal, Failed, Failed, Failed, Degradation, Failed) 0.0, 0.0, 1.0;
  (Degradation, Failed, Failed, Failed, Degradation, Failed) 0.0, 0.0, 1.0;
  (Failed, Failed, Failed, Failed, Degradation, Failed) 0.0, 0.0, 1.0;
  (Normal, Normal, Normal, Normal, Failed, Failed) 0.0, 0.0, 1.0;
  (Degradation, Normal, Normal, Normal, Failed, Failed) 0.0, 0.0, 1.0;
  (Failed, Normal, Normal, Normal, Failed, Failed) 0.0, 0.0, 1.0;
  (Normal, Degradation, Normal, Normal, Failed, Failed) 0.0, 0.0, 1.0;
  (Degradation, Degradation, Normal, Normal, Failed, Failed) 0.0, 0.0, 1.0;
  (Failed, Degradation, Normal, Normal, Failed, Failed) 0.0, 0.0, 1.0;
  (Normal, Failed, Normal, Normal, Failed, Failed) 0.0, 0.0, 1.0;
  (Degradation, Failed, Normal, Normal, Failed, Failed) 0.0, 0.0, 1.0;
  (Failed, Failed, Normal, Normal, Failed, Failed) 0.0, 0.0, 1.0;
  (Normal, Normal, Degradation, Normal, Failed, Failed) 0.0, 0.0, 1.0;
  (Degradation, Normal, Degradation, Normal, Failed, Failed) 0.0, 0.0, 1.0;
  (Failed, Normal, Degradation, Normal, Failed, Failed) 0.0, 0.0, 1.0;
  (Normal, Degradation, Degradation, Normal, Failed, Failed) 0.0, 0.0, 1.0;
  (Degradation, Degradation, Degradation, Normal, Failed, Failed) 0.0, 0.0, 1.0;
  (Failed, Degradation, Degradation, Normal, Failed, Failed) 0.0, 0.0, 1.0;
  (Normal, Failed, Degradation, Normal, Failed, Failed) 0.0, 0.0, 1.0;
  (Degradation, Failed, Degradation, Normal, Failed, Failed) 0.0, 0.0, 1.0;
  (Failed, Failed, Degradation, Normal, Failed, Failed) 0.0, 0.0, 1.0;
  (Normal, Normal, Failed, Normal, Failed, Failed) 0.0, 0.0, 1.0;
  (Degradation, Normal, Failed, Normal, Failed, Failed) 0.0, 0.0, 1.0;
  (Failed, Normal, Failed, Normal, Failed, Failed) 0.0, 0.0, 1.0;
  (Normal, Degradation, Failed, Normal, Failed, Failed) 0.0, 0.0, 1.0;
  (Degradation, Degradation, Failed, Normal, Failed, Failed) 0.0, 0.0, 1.0;
  (Failed, Degradation, Failed, Normal, Failed, Failed) 0.0, 0.0, 1.0;
  (Normal, Failed, Failed, Normal, Failed, Failed) 0.0, 0.0, 1.0;
  (Degradation, Failed, Failed, Normal, Failed, Failed) 0.0, 0.0, 1.0;
  (Failed, Failed, Failed, Normal, Failed, Failed) 0.0, 0.0, 1.0;
  (Normal, Normal, Normal, Degradation, Failed, Failed) 0.0, 0.0, 1.0;
  (Degradation, Normal, Normal, Degradation, Failed, Failed) 0.0, 0.0, 1.0;
  (Failed, Normal, Normal, Degradation, Failed, Failed) 0.0, 0.0, 1.0;
  (Normal, Degradation, Normal, Degradation, Failed, Failed) 0.0, 0.0, 1.0;
  (Degradation, Degradation, Normal, Degradation, Failed, Failed) 0.0, 0.0, 1.0;
  (Failed, Degradation, Normal, Degradation, Failed, Failed) 0.0, 0.0, 1.0;
  (Normal, Failed, Normal, Degradation, Failed, Failed) 0.0, 0.0, 1.0;
  (Degradation, Failed, Normal, Degradation, Failed, Failed) 0.0, 0.0, 1.0;
  (Failed, Failed, Normal, Degradation, Failed, Failed) 0.0, 0.0, 1.0;
  (Normal, Normal, Degradation, Degradation, Failed, Failed) 0.0, 0.0, 1.0;
  (Degradation, Normal, Degradation, Degradation, Failed, Failed) 0.0, 0.0, 1.0;
  (Failed, Normal, Degradation, Degradation, Failed, Failed) 0.0, 0.0, 1.0;
  (Normal, Degradation, Degradation, Degradation, Failed, Failed) 0.0, 0.0, 1.0;
  (Degradation, Degradation, Degradation, Degradation, Failed, Failed) 0.0, 0.0, 1.0;
  (Failed, Degradation, Degradation, Degradation, Failed, Failed) 0.0, 0.0, 1.0;
  (Normal, Failed, Degradation, Degradation, Failed, Failed) 0.0, 0.0, 1.0;
  (Degradation, Failed, Degradation, Degradation, Failed, Failed) 0.0, 0.0, 1.0;
  (Failed, Failed, Degradation, Degradation, Failed, Failed) 0.0, 0.0, 1.0;
  (Normal, Normal, Failed, Degradation, Failed, Failed) 0.0, 0.0, 1.0;
  (Degradation, Normal, Failed, Degradation, Failed, Failed) 0.0, 0.0, 1.0;
  (Failed, Normal, Failed, Degradation, Failed, Failed) 0.0, 0.0, 1.0;
  (Normal, Degradation, Failed, Degradation, Failed, Failed) 0.0, 0.0, 1.0;
  (Degradation, Degradation, Failed, Degradation, Failed, Failed) 0.0, 0.0, 1.0;
  (Failed, Degradation, Failed, Degradation, Failed, Failed) 0.0, 0.0, 1.0;
  (Normal, Failed, Failed, Degradation, Failed, Failed) 0.0, 0.0, 1.0;
  (Degradation, Failed, Failed, Degradation, Failed, Failed) 0.0, 0.0, 1.0;
  (Failed, Failed, Failed, Degradation, Failed, Failed) 0.0, 0.0, 1.0;
  (Normal, Normal, Normal, Failed, Failed, Failed) 0.0, 0.0, 1.0;
  (Degradation, Normal, Normal, Failed, Failed, Failed) 0.0, 0.0, 1.0;
  (Failed, Normal, Normal, Failed, Failed, Failed) 0.0, 0.0, 1.0;
  (Normal, Degradation, Normal, Failed, Failed, Failed) 0.0, 0.0, 1.0;
  (Degradation, Degradation, Normal, Failed, Failed, Failed) 0.0, 0.0, 1.0;
  (Failed, Degradation, Normal, Failed, Failed, Failed) 0.0, 0.0, 1.0;
  (Normal, Failed, Normal, Failed, Failed, Failed) 0.0, 0.0, 1.0;
  (Degradation, Failed, Normal, Failed, Failed, Failed) 0.0, 0.0, 1.0;
  (Failed, Failed, Normal, Failed, Failed, Failed) 0.0, 0.0, 1.0;
  (Normal, Normal, Degradation, Failed, Failed, Failed) 0.0, 0.0, 1.0;
  (Degradation, Normal, Degradation, Failed, Failed, Failed) 0.0, 0.0, 1.0;
  (Failed, Normal, Degradation, Failed, Failed, Failed) 0.0, 0.0, 1.0;
  (Normal, Degradation, Degradation, Failed, Failed, Failed) 0.0, 0.0, 1.0;
  (Degradation, Degradation, Degradation, Failed, Failed, Failed) 0.0, 0.0, 1.0;
  (Failed, Degradation, Degradation, Failed, Failed, Failed) 0.0, 0.0, 1.0;
  (Normal, Failed, Degradation, Failed, Failed, Failed) 0.0, 0.0, 1.0;
  (Degradation, Failed, Degradation, Failed, Failed, Failed) 0.0, 0.0, 1.0;
  (Failed, Failed, Degradation, Failed, Failed, Failed) 0.0, 0.0, 1.0;
  (Normal, Normal, Failed, Failed, Failed, Failed) 0.0, 0.0, 1.0;
  (Degradation, Normal, Failed, Failed, Failed, Failed) 0.0, 0.0, 1.0;
  (Failed, Normal, Failed, Failed, Failed, Failed) 0.0, 0.0, 1.0;
  (Normal, Degradation, Failed, Failed, Failed, Failed) 0.0, 0.0, 1.0;
  (Degradation, Degradation, Failed, Failed, Failed, Failed) 0.0, 0.0, 1.0;
  (Failed, Degradation, Failed, Failed, Failed, Failed) 0.0, 0.0, 1.0;
  (Normal, Failed, Failed, Failed, Failed, Failed) 0.0, 0.0, 1.0;
  (Degradation, Failed, Failed, Failed, Failed, Failed) 0.0, 0.0, 1.0;
  (Failed, Failed, Failed, Failed, Failed, Failed) 0.0, 0.0, 1.0;
}
