network unknown {
}
variable JointFailure {
  type discrete [ 2 ] { True, False };
}
variable PressureRegulatorLeakage {
  type discrete [ 2 ] { True, False };
}
variable SealFailure {
  type discrete [ 2 ] { True, False };
}
variable ValveActivation {
  type discrete [ 2 ] { True, False };
}
probability ( JointFailure ) {
  table 0.00019, 0.99981;
}
probability ( PressureRegulatorLeakage | JointFailure, SealFailure, ValveActivation ) {
  (True, True, True) 0.186, 0.814;
  (False, True, True) 0.00434, 0.99566;
  (True, False, True) 0.183, 0.817;
  (False, False, True) 0.0000147, 0.9999853;
  (True, True, False) 0.186, 0.814;
  (False, True, False) 0.00433, 0.99567;
  (True, False, False) 0.183, 0.817;
  (False, False, False) 0.000001, 0.999999;
}
probability ( SealFailure ) {
  table 0.00422, 0.99578;
}
probability ( ValveActivation ) {
  table 0.00442, 0.99558;
}
